6.550000000e+03,1.186113271e-01,-2.133165328e+00,-1.709283388e-01,-2.712052117e-01
6.550100000e+03,1.669692299e-01,-2.626294193e+00,-2.805048860e-01,-1.588599349e-01
6.550200000e+03,3.851951848e-01,2.870764482e+00,-3.185179153e-01,8.843648208e-02
6.550300000e+03,4.399388510e-01,2.327941291e+00,-2.284853420e-01,2.417752443e-01
6.550400000e+03,3.086889750e-01,1.658787682e+00,-2.879478827e-02,3.264006515e-01
6.550500000e+03,8.559708411e-01,1.086881364e+00,1.623615635e-01,3.089087948e-01
6.550600000e+03,9.051012854e-02,4.421511829e-01,2.888110749e-01,1.367263844e-01
6.550700000e+03,5.236194179e-01,-1.561405585e-01,3.317915309e-01,-5.223127036e-02
6.550800000e+03,3.325643128e-01,-8.317509023e-01,2.213192182e-01,-2.428501629e-01
6.550900000e+03,-2.142368279e-01,-1.386632000e+00,5.649837134e-02,-3.033061889e-01
6.551000000e+03,2.730444862e-01,-2.108211497e+00,-1.670521173e-01,-2.803257329e-01
6.551100000e+03,-8.697936256e-02,-2.668894992e+00,-2.787459283e-01,-1.425407166e-01
6.551200000e+03,-4.878704509e-01,2.904185099e+00,-2.905700326e-01,7.030944625e-02
6.551300000e+03,-1.469759369e-01,2.359898451e+00,-2.206677524e-01,2.190390879e-01
6.551400000e+03,6.432005661e-01,1.674238834e+00,-3.516286645e-02,3.387133550e-01
6.551500000e+03,8.762966784e-01,1.064783186e+00,1.695439739e-01,3.059609121e-01
6.551600000e+03,3.994145837e-01,4.067971118e-01,3.040879479e-01,1.310097720e-01
6.551700000e+03,5.636475922e-01,-2.249827336e-01,3.289250814e-01,-7.527687296e-02
6.551800000e+03,5.050099135e-01,-7.525087314e-01,2.446579805e-01,-2.290716612e-01
6.551900000e+03,-3.943345534e-01,-1.437496883e+00,4.016286645e-02,-2.995114007e-01
6.552000000e+03,4.274542287e-01,-2.111812832e+00,-1.710749186e-01,-2.847394137e-01
6.552100000e+03,-3.473454462e-02,-2.756419605e+00,-2.918892508e-01,-1.183387622e-01
6.552200000e+03,3.909287271e-01,2.927607277e+00,-3.232410423e-01,7.024429967e-02
6.552300000e+03,-4.256079839e-01,2.221772658e+00,-1.824592834e-01,2.395276873e-01
6.552400000e+03,6.502651193e-02,1.627363838e+00,-1.801302932e-02,3.180944625e-01
6.552500000e+03,2.171315792e-01,9.402753693e-01,1.911563518e-01,2.618892508e-01
6.552600000e+03,-8.059277994e-02,4.060316786e-01,2.878338762e-01,1.237459283e-01
6.552700000e+03,2.476694995e-01,-2.021958999e-01,3.187459283e-01,-6.534201954e-02
6.552800000e+03,5.903024321e-02,-8.216498293e-01,2.168241042e-01,-2.331433225e-01
6.552900000e+03,-2.260760810e-01,-1.675972088e+00,-3.234527687e-02,-3.064006515e-01
6.553000000e+03,-2.485002846e-01,-2.100072455e+00,-1.551628664e-01,-2.652605863e-01
6.553100000e+03,7.779701322e-01,-2.731271918e+00,-3.171498371e-01,-1.379641694e-01
6.553200000e+03,1.891642378e-01,2.868034625e+00,-3.111726384e-01,8.731270358e-02
6.553300000e+03,1.689151762e-01,2.274168515e+00,-2.085504886e-01,2.459120521e-01
6.553400000e+03,4.040019910e-01,1.601871854e+00,-1.029315961e-02,3.311237785e-01
6.553500000e+03,-7.240737754e-02,1.155314013e+00,1.265798046e-01,2.869218241e-01
6.553600000e+03,1.675076844e-02,3.258794038e-01,3.001628664e-01,1.014332248e-01
6.553700000e+03,4.758589475e-01,-2.320650156e-01,3.250814332e-01,-7.682410423e-02
6.553800000e+03,4.701886383e-01,-8.303655851e-01,2.251954397e-01,-2.464169381e-01
6.553900000e+03,-7.901410670e-02,-1.487594669e+00,2.604234528e-02,-3.122801303e-01
6.554000000e+03,-3.547685363e-01,-2.107038604e+00,-1.550977199e-01,-2.609609121e-01
6.554100000e+03,5.920114823e-01,-2.860306015e+00,-3.252280130e-01,-9.397394137e-02
6.554200000e+03,1.197939146e-02,2.993025685e+00,-3.131758958e-01,4.687296417e-02
6.554300000e+03,5.383144059e-01,2.269966182e+00,-2.165309446e-01,2.575081433e-01
6.554400000e+03,6.037693853e-01,1.587949034e+00,-5.814332248e-03,3.389413681e-01
6.554500000e+03,2.809327003e-01,9.569984390e-01,1.881270358e-01,2.670032573e-01
6.554600000e+03,-2.811070366e-01,2.953700307e-01,2.928990228e-01,8.912052117e-02
6.554700000e+03,3.759166463e-01,-3.590823928e-01,3.091530945e-01,-1.160423453e-01
6.554800000e+03,2.931309915e-01,-8.425743588e-01,2.176872964e-01,-2.441205212e-01
6.554900000e+03,-8.598737561e-01,-1.544010926e+00,7.671009772e-03,-2.863192182e-01
6.555000000e+03,-5.129878808e-01,-2.168179006e+00,-1.676710098e-01,-2.464657980e-01
6.555100000e+03,4.940192519e-01,-2.748482016e+00,-3.092019544e-01,-1.282247557e-01
6.555200000e+03,5.296249734e-01,2.803813312e+00,-3.171172638e-01,1.113843648e-01
6.555300000e+03,-1.170443978e-02,2.216288129e+00,-1.899837134e-01,2.522638436e-01
6.555400000e+03,-3.133895857e-01,1.576669818e+00,-1.791530945e-03,3.050162866e-01
6.555500000e+03,2.653844681e-01,9.513249694e-01,1.892996743e-01,2.654560261e-01
6.555600000e+03,1.679268459e-01,3.126128446e-01,3.067752443e-01,9.915309446e-02
6.555700000e+03,1.044725138e+00,-2.816806735e-01,3.425895765e-01,-9.913680782e-02
6.555800000e+03,-6.485539528e-01,-8.929699376e-01,1.840390879e-01,-2.285993485e-01
6.555900000e+03,-6.737142295e-01,-1.551649257e+00,5.602605863e-03,-2.925732899e-01
6.556000000e+03,4.796158234e-02,-2.119481699e+00,-1.658469055e-01,-2.713029316e-01
6.556100000e+03,1.215435924e+00,-2.809165340e+00,-3.438110749e-01,-1.186970684e-01
6.556200000e+03,2.215210950e-01,2.814047133e+00,-3.071498371e-01,1.043648208e-01
6.556300000e+03,7.629753460e-02,2.208845005e+00,-1.900162866e-01,2.562540717e-01
6.556400000e+03,1.188088789e-01,1.643356166e+00,-2.324104235e-02,3.197394137e-01
6.556500000e+03,-1.343203708e-01,9.540369946e-01,1.800977199e-01,2.540065147e-01
6.556600000e+03,-4.893429384e-02,3.231427409e-01,2.981758958e-01,9.985342020e-02
6.556700000e+03,2.244230530e-01,-3.299243268e-01,3.070032573e-01,-1.051302932e-01
6.556800000e+03,-4.954797272e-01,-9.841094125e-01,1.653583062e-01,-2.487459283e-01
6.556900000e+03,-1.134379817e+00,-1.575726154e+00,-1.368078176e-03,-2.775081433e-01
6.557000000e+03,-8.962137456e-02,-2.266993726e+00,-2.007166124e-01,-2.401465798e-01
6.557100000e+03,-1.420255008e+00,-2.846946494e+00,-2.569543974e-01,-7.798045603e-02
6.557200000e+03,-3.432312040e-01,2.818774683e+00,-2.882736156e-01,9.643322476e-02
6.557300000e+03,3.954924884e-01,2.098750339e+00,-1.667263844e-01,2.858957655e-01
6.557400000e+03,-1.344429207e-01,1.483280875e+00,2.721498371e-02,3.101791531e-01
6.557500000e+03,-1.956339094e-02,7.822226439e-01,2.238110749e-01,2.223941368e-01
6.557600000e+03,-5.291557071e-01,2.477533361e-01,2.884527687e-01,7.296416938e-02
6.557700000e+03,-3.816265149e-01,-4.563792107e-01,2.716612378e-01,-1.333713355e-01
6.557800000e+03,4.870970934e-01,-1.033149355e+00,1.712866450e-01,-2.872801303e-01
6.557900000e+03,6.366295963e-02,-1.647972106e+00,-2.456026059e-02,-3.176058632e-01
6.558000000e+03,1.457336206e-01,-2.268413748e+00,-2.065798046e-01,-2.464495114e-01
6.558100000e+03,2.413032820e-01,-2.876882667e+00,-3.138110749e-01,-8.506514658e-02
6.558200000e+03,1.010593062e-01,2.706930684e+00,-2.901791531e-01,1.347231270e-01
6.558300000e+03,3.335789310e-01,2.141684141e+00,-1.775732899e-01,2.764983713e-01
6.558400000e+03,-5.120606362e-01,1.588333595e+00,-5.228013029e-03,2.980781759e-01
6.558500000e+03,1.711612050e-01,9.428391065e-01,1.894788274e-01,2.609934853e-01
6.558600000e+03,1.226810640e+00,1.529077219e-01,3.599511401e-01,5.547231270e-02
6.558700000e+03,-9.281425773e-01,-3.844440769e-01,2.634364821e-01,-1.065798046e-01
6.558800000e+03,-4.015922178e-01,-1.047916939e+00,1.507817590e-01,-2.615960912e-01
6.558900000e+03,1.289215535e-01,-1.579372185e+00,-2.752442997e-03,-3.209446254e-01
6.559000000e+03,1.899505363e-01,-2.318417420e+00,-2.197557003e-01,-2.370195440e-01
6.559100000e+03,1.326137932e-01,-2.917922704e+00,-3.130944625e-01,-7.122149837e-02
6.559200000e+03,9.517553757e-02,2.746366571e+00,-2.950651466e-01,1.230944625e-01
6.559300000e+03,6.196949337e-01,2.088086582e+00,-1.679478827e-01,2.951791531e-01
6.559400000e+03,1.103050549e-02,1.388522850e+00,5.739413681e-02,3.113843648e-01
6.559500000e+03,-1.467748523e-01,8.255959442e-01,2.108469055e-01,2.285179153e-01
6.559600000e+03,6.136816486e-01,9.236738594e-02,3.379315961e-01,3.130293160e-02
6.559700000e+03,-1.704824571e-01,-3.823790341e-01,2.876872964e-01,-1.157003257e-01
6.559800000e+03,1.111352854e-01,-9.937517637e-01,1.747394137e-01,-2.684364821e-01
6.559900000e+03,3.652984919e-01,-1.593859661e+00,-7.605863192e-03,-3.297231270e-01
6.560000000e+03,6.700351832e-01,-2.348170387e+00,-2.395928339e-01,-2.434690554e-01
6.560100000e+03,7.877080039e-02,-2.971946608e+00,-3.145276873e-01,-5.387622150e-02
6.560200000e+03,4.188146931e-01,2.614009257e+00,-2.867263844e-01,1.670684039e-01
6.560300000e+03,-5.378758057e-02,2.080789084e+00,-1.534201954e-01,2.742833876e-01
6.560400000e+03,4.259298824e-01,1.383604789e+00,6.180781759e-02,3.263192182e-01
6.560500000e+03,6.855856270e-02,7.488247041e-01,2.334690554e-01,2.169869707e-01
6.560600000e+03,3.687992631e-01,1.936200933e-01,3.237785016e-01,6.348534202e-02
6.560700000e+03,-2.081077567e-02,-3.756842036e-01,2.934690554e-01,-1.157491857e-01
6.560800000e+03,-4.750042604e-01,-1.163740274e+00,1.185342020e-01,-2.749348534e-01
6.560900000e+03,-5.184832845e-01,-1.673979196e+00,-3.068403909e-02,-2.963192182e-01
6.561000000e+03,5.357716617e-01,-2.311634090e+00,-2.270032573e-01,-2.481921824e-01
6.561100000e+03,-9.632206332e-02,-2.935525994e+00,-3.061237785e-01,-6.399022801e-02
6.561200000e+03,-2.075561472e-01,2.590172656e+00,-2.629967427e-01,1.617589577e-01
6.561300000e+03,8.623015613e-01,2.126444457e+00,-1.842182410e-01,2.966938111e-01
6.561400000e+03,-3.152130143e-01,1.431489881e+00,4.234527687e-02,3.020032573e-01
6.561500000e+03,-6.860729451e-03,8.770809702e-01,2.020358306e-01,2.429478827e-01
6.561600000e+03,-8.013215695e-02,1.060416663e-02,3.133061889e-01,3.322475570e-03
6.561700000e+03,2.525050768e-01,-4.446966680e-01,2.938925081e-01,-1.400488599e-01
6.561800000e+03,2.145500969e-01,-1.036779428e+00,1.649837134e-01,-2.790065147e-01
6.561900000e+03,-1.579315394e-01,-1.796018788e+00,-6.934853420e-02,-3.026872964e-01
6.562000000e+03,3.542281665e-01,-2.309712298e+00,-2.218403909e-01,-2.434853420e-01
6.562100000e+03,6.979660295e-01,-3.036986867e+00,-3.408143322e-01,-3.578175896e-02
6.562200000e+03,3.133861608e-01,2.694830452e+00,-2.956677524e-01,1.416449511e-01
6.562300000e+03,1.523539084e-01,2.039717289e+00,-1.454397394e-01,2.870846906e-01
6.562400000e+03,7.138642981e-01,1.362747926e+00,7.091205212e-02,3.359120521e-01
6.562500000e+03,6.456021902e-01,7.429547163e-01,2.508631922e-01,2.304234528e-01
6.562600000e+03,-3.213489380e-01,1.528565553e-01,3.011889251e-01,4.640065147e-02
6.562700000e+03,2.017401362e-01,-5.379340899e-01,2.779478827e-01,-1.658306189e-01
6.562800000e+03,-6.837187560e-02,-1.079101545e+00,1.481270358e-01,-2.765798046e-01
6.562900000e+03,9.903009097e-01,-1.800226657e+00,-8.060260586e-02,-3.451302932e-01
6.563000000e+03,7.635913644e-01,-2.344187062e+00,-2.412052117e-01,-2.470684039e-01
6.563100000e+03,-7.259992461e-01,-2.956375409e+00,-2.858957655e-01,-5.356677524e-02
6.563200000e+03,-8.673060592e-01,2.606033738e+00,-2.461074919e-01,1.460423453e-01
6.563300000e+03,8.172494372e-01,2.059289404e+00,-1.630456026e-01,3.067915309e-01
6.563400000e+03,2.058361418e-01,1.414288583e+00,5.047231270e-02,3.198534202e-01
6.563500000e+03,6.175809008e-01,7.904181334e-01,2.388762215e-01,2.412866450e-01
6.563600000e+03,-1.316515844e+00,2.355538104e-02,2.716775244e-01,6.400651466e-03
6.563700000e+03,6.138446353e-01,-4.860335305e-01,3.000814332e-01,-1.585342020e-01
6.563800000e+03,-1.402694186e-01,-1.252720279e+00,9.731270358e-02,-2.955537459e-01
6.563900000e+03,1.147126914e+00,-1.735180796e+00,-5.905537459e-02,-3.560097720e-01
6.564000000e+03,2.925558030e-01,-2.434727190e+00,-2.486970684e-01,-2.124104235e-01
6.564100000e+03,5.695860134e-01,-3.100727172e+00,-3.373778502e-01,-1.379478827e-02
6.564200000e+03,5.011077173e-01,2.564471498e+00,-2.807491857e-01,1.827850163e-01
6.564300000e+03,8.936535592e-01,1.991601436e+00,-1.431758958e-01,3.199185668e-01
6.564400000e+03,-1.066342585e-01,1.403907611e+00,5.188925081e-02,3.080293160e-01
6.564500000e+03,-1.883013227e-01,7.836862187e-01,2.191856678e-01,2.184364821e-01
6.564600000e+03,5.047716876e-01,1.216908416e-01,3.326710098e-01,4.068403909e-02
6.564700000e+03,-3.323616558e-01,-5.599039312e-01,2.578827362e-01,-1.616449511e-01
6.564800000e+03,4.302434021e-01,-1.235467738e+00,1.093485342e-01,-3.137785016e-01
6.564900000e+03,-1.078894532e-01,-1.843122102e+00,-8.400651466e-02,-3.008143322e-01
6.565000000e+03,-3.539904927e-01,-2.322086191e+00,-2.072312704e-01,-2.218729642e-01
6.565100000e+03,8.379464917e-01,-3.060738947e+00,-3.471172638e-01,-2.812703583e-02
6.565200000e+03,-1.311665254e-01,2.599460442e+00,-2.668241042e-01,1.607166124e-01
6.565300000e+03,-6.311626869e-01,1.951025018e+00,-1.091368078e-01,2.730618893e-01
6.565400000e+03,-6.331269950e-01,1.270945197e+00,8.684039088e-02,2.808794788e-01
6.565500000e+03,5.455781459e-01,6.804138152e-01,2.617426710e-01,2.118403909e-01
6.565600000e+03,-6.939719313e-01,7.577496794e-02,2.911074919e-01,2.210097720e-02
6.565700000e+03,6.755149470e-01,-5.261674414e-01,2.955700326e-01,-1.716612378e-01
6.565800000e+03,4.201990260e-01,-1.159467649e+00,1.327035831e-01,-3.042182410e-01
6.565900000e+03,3.284765740e-01,-1.842311256e+00,-8.807817590e-02,-3.163843648e-01
6.566000000e+03,8.217921657e-01,-2.508352641e+00,-2.802117264e-01,-2.057003257e-01
6.566100000e+03,-3.075768178e-01,-2.974549175e+00,-3.009771987e-01,-5.074918567e-02
6.566200000e+03,1.066209202e-01,2.584298370e+00,-2.716938111e-01,1.693159609e-01
6.566300000e+03,-4.822753020e-01,1.950271495e+00,-1.108143322e-01,2.778664495e-01
6.566400000e+03,2.071522598e-01,1.227241285e+00,1.090879479e-01,3.049348534e-01
6.566500000e+03,-2.814521586e-01,7.141657423e-01,2.313355049e-01,2.005211726e-01
6.566600000e+03,2.663596887e-01,5.291908487e-02,3.256188925e-01,1.724755700e-02
6.566700000e+03,8.267342941e-01,-6.295743544e-01,2.811237785e-01,-2.047882736e-01
6.566800000e+03,3.923655485e-01,-1.214105638e+00,1.155211726e-01,-3.100162866e-01
6.566900000e+03,-9.815069798e-01,-1.823033604e+00,-7.048859935e-02,-2.735016287e-01
6.567000000e+03,-1.342939568e+00,-2.455698187e+00,-2.096579805e-01,-1.715960912e-01
6.567100000e+03,1.393917404e-01,-3.060715861e+00,-3.202931596e-01,-2.596091205e-02
6.567200000e+03,1.097032059e+00,2.568043295e+00,-3.013843648e-01,1.946905537e-01
6.567300000e+03,4.413958707e-01,1.921374028e+00,-1.142671010e-01,3.124755700e-01
6.567400000e+03,-5.971655552e-02,1.265560320e+00,9.438110749e-02,2.995439739e-01
6.567500000e+03,1.184135149e+00,7.281687266e-01,2.705048860e-01,2.411889251e-01
6.567600000e+03,9.150211569e-01,-6.396797743e-03,3.513517915e-01,-2.247557003e-03
6.567700000e+03,-5.039011012e-01,-6.449201669e-01,2.384690554e-01,-1.793811075e-01
6.567800000e+03,1.083460093e+00,-1.250612831e+00,1.127524430e-01,-3.400325733e-01
6.567900000e+03,4.980847934e-01,-1.926664066e+00,-1.166775244e-01,-3.139087948e-01
6.568000000e+03,-8.543128460e-01,-2.581632016e+00,-2.428338762e-01,-1.522312704e-01
6.568100000e+03,3.372629093e-01,-3.138025664e+00,-3.287459283e-01,-1.172638436e-03
6.568200000e+03,7.332358677e-01,2.615330810e+00,-2.975244300e-01,1.728338762e-01
6.568300000e+03,1.867112421e-01,1.872875301e+00,-9.612377850e-02,3.084690554e-01
6.568400000e+03,-6.956969146e-02,1.229885241e+00,1.048859935e-01,2.956514658e-01
6.568500000e+03,-6.427501644e-01,6.488584381e-01,2.339902280e-01,1.774592834e-01
6.568600000e+03,4.407298611e-01,-1.125960262e-03,3.326872964e-01,-3.745928339e-04
6.568700000e+03,3.145841689e-01,-6.141115472e-01,2.679804560e-01,-1.889413681e-01
6.568800000e+03,3.156873982e-01,-1.352224345e+00,7.110749186e-02,-3.201302932e-01
6.568900000e+03,8.083001279e-02,-1.891288290e+00,-1.005537459e-01,-3.029315961e-01
6.569000000e+03,3.356832072e-01,-2.480123590e+00,-2.593648208e-01,-2.019055375e-01
6.569100000e+03,7.891936898e-02,3.071870590e+00,-3.183387622e-01,2.223127036e-02
6.569200000e+03,1.268172113e-01,2.485544235e+00,-2.542671010e-01,1.957328990e-01
6.569300000e+03,3.634957789e-01,1.813870276e+00,-7.936482085e-02,3.200488599e-01
6.569400000e+03,2.201701992e-01,1.325768949e+00,7.868078176e-02,3.146579805e-01
6.569500000e+03,8.074669792e-01,5.121491507e-01,3.025081433e-01,1.700651466e-01
6.569600000e+03,3.583297464e-01,-5.810284450e-02,3.289902280e-01,-1.913680782e-02
6.569700000e+03,-4.734966196e-02,-6.969992157e-01,2.411563518e-01,-2.018892508e-01
6.569800000e+03,8.945050839e-01,-1.339013940e+00,8.052117264e-02,-3.411563518e-01
6.569900000e+03,-1.144567742e+00,-1.984128619e+00,-1.113355049e-01,-2.538436482e-01
6.570000000e+03,-1.472355435e-01,-2.600301737e+00,-2.664657980e-01,-1.601954397e-01
6.570100000e+03,-8.461345973e-01,3.122686270e+00,-2.868241042e-01,5.423452769e-03
6.570200000e+03,-5.399051519e-01,2.388016554e+00,-2.167100977e-01,2.033387622e-01
6.570300000e+03,-1.347453958e+00,1.827853706e+00,-6.884364821e-02,2.618892508e-01
6.570400000e+03,-9.828433709e-01,1.238577051e+00,9.210097720e-02,2.669543974e-01
6.570500000e+03,-4.795920621e-02,6.274979172e-01,2.545765472e-01,1.846416938e-01
6.570600000e+03,-1.159489611e-01,-1.086225363e-01,3.101954397e-01,-3.382736156e-02
6.570700000e+03,-1.322858647e+00,-6.729893845e-01,2.123452769e-01,-1.692671010e-01
6.570800000e+03,9.394285248e-03,-1.381997238e+00,5.941368078e-02,-3.109446254e-01
6.570900000e+03,-3.693781284e-01,-1.936422969e+00,-1.083550489e-01,-2.830293160e-01
6.571000000e+03,-7.772023476e-02,-2.598241081e+00,-2.682736156e-01,-1.620358306e-01
6.571100000e+03,-1.047868949e+00,-3.058229449e+00,-2.793159609e-01,-2.333876221e-02
6.571200000e+03,-2.096588490e-01,2.429532722e+00,-2.336807818e-01,2.016938111e-01
6.571300000e+03,3.733182600e-01,1.809576673e+00,-7.807817590e-02,3.207491857e-01
6.571400000e+03,6.531294832e-01,1.194361783e+00,1.253257329e-01,3.170521173e-01
6.571500000e+03,-3.225176241e-02,3.449330053e-01,2.964983713e-01,1.065309446e-01
6.571600000e+03,-9.109495083e-01,-5.975001843e-02,2.842345277e-01,-1.700325733e-02
6.571700000e+03,-4.809047645e-01,-7.180260342e-01,2.253257329e-01,-1.968403909e-01
6.571800000e+03,5.075796847e-01,-1.301331704e+00,8.925081433e-02,-3.231596091e-01
6.571900000e+03,6.168192387e-01,-1.932576499e+00,-1.201628664e-01,-3.175244300e-01
6.572000000e+03,-2.548333286e-01,-2.470827504e+00,-2.405537459e-01,-1.908794788e-01
6.572100000e+03,3.407258270e-01,2.974221396e+00,-3.242833876e-01,5.478827362e-02
6.572200000e+03,-8.185877497e-01,2.298698207e+00,-1.914657980e-01,2.148534202e-01
6.572300000e+03,1.882321238e-02,1.763051736e+00,-6.055374593e-02,3.110749186e-01
6.572400000e+03,1.136551377e-03,1.209904091e+00,1.116775244e-01,2.958957655e-01
6.572500000e+03,-8.990542176e-01,5.209244003e-01,2.473127036e-01,1.419055375e-01
6.572600000e+03,1.075399497e+00,-1.831340181e-01,3.519218241e-01,-6.517915309e-02
6.572700000e+03,8.722773197e-01,-7.181201055e-01,2.632899023e-01,-2.300488599e-01
6.572800000e+03,2.602540527e-01,-1.444655852e+00,4.099348534e-02,-3.232573290e-01
6.572900000e+03,4.682307527e-01,-1.993162958e+00,-1.368078176e-01,-3.044136808e-01
6.573000000e+03,6.741766896e-01,-2.654904013e+00,-3.020684039e-01,-1.598371336e-01
6.573100000e+03,7.771210113e-01,3.018125556e+00,-3.431921824e-01,4.258957655e-02
6.573200000e+03,2.056726359e-01,2.251868585e+00,-2.038762215e-01,2.515635179e-01
6.573300000e+03,2.071836279e-01,1.703597098e+00,-4.288273616e-02,3.210097720e-01
6.573400000e+03,-1.905838362e-01,1.109314745e+00,1.377524430e-01,2.770032573e-01
6.573500000e+03,-3.449162054e-01,4.833248235e-01,2.691042345e-01,1.412377850e-01
6.573600000e+03,-8.620425663e-02,-1.345039499e-01,3.102768730e-01,-4.198697068e-02
6.573700000e+03,1.990910899e-01,-8.542534283e-01,2.125081433e-01,-2.439902280e-01
6.573800000e+03,6.487832158e-01,-1.344760545e+00,7.636807818e-02,-3.320846906e-01
6.573900000e+03,-1.720373759e-01,-2.043864985e+00,-1.412540717e-01,-2.759771987e-01
6.574000000e+03,2.233692136e-01,-2.641032107e+00,-2.846579805e-01,-1.557166124e-01
6.574100000e+03,-1.801068606e-01,2.999405587e+00,-3.066123779e-01,4.389250814e-02
6.574200000e+03,-3.697499427e-01,2.370103596e+00,-2.172475570e-01,2.112866450e-01
6.574300000e+03,-3.011378784e-01,1.714291981e+00,-4.368078176e-02,3.023127036e-01
6.574400000e+03,3.249621190e-01,1.132466786e+00,1.393322476e-01,2.972475570e-01
6.574500000e+03,-4.617384793e-01,4.815991326e-01,2.657491857e-01,1.388925081e-01
6.574600000e+03,3.897330418e-01,-2.149728554e-01,3.231270358e-01,-7.055374593e-02
6.574700000e+03,-6.781253922e-01,-8.046144493e-01,2.028013029e-01,-2.107491857e-01
6.574800000e+03,4.351487437e-01,-1.496120884e+00,2.480456026e-02,-3.315472313e-01
6.574900000e+03,2.091857566e-01,-2.246440249e+00,-2.025895765e-01,-2.527687296e-01
6.575000000e+03,2.287162833e-02,-2.727217428e+00,-2.902280130e-01,-1.276547231e-01
6.575100000e+03,-2.208451850e-01,2.948735076e+00,-3.025732899e-01,5.908794788e-02
6.575200000e+03,-6.570897603e-01,2.299247042e+00,-1.951791531e-01,2.187785016e-01
6.575300000e+03,2.965875604e-01,1.749185145e+00,-5.806188925e-02,3.220195440e-01
6.575400000e+03,-1.125582325e-01,1.099168674e+00,1.418241042e-01,2.780781759e-01
6.575500000e+03,3.592977143e-01,3.779737148e-01,3.063192182e-01,1.216286645e-01
6.575600000e+03,3.476668795e-01,-2.229787319e-01,3.209934853e-01,-7.278501629e-02
6.575700000e+03,-2.806071500e-01,-8.850892722e-01,1.938762215e-01,-2.369706840e-01
6.575800000e+03,-4.352273786e-01,-1.466968081e+00,3.117263844e-02,-2.991530945e-01
6.575900000e+03,-2.387804411e-01,-2.079607061e+00,-1.498697068e-01,-2.686807818e-01
6.576000000e+03,2.934771792e-01,-2.694780120e+00,-2.949837134e-01,-1.413355049e-01
6.576100000e+03,4.141900098e-01,2.966126824e+00,-3.265798046e-01,5.789902280e-02
6.576200000e+03,4.183503749e-01,2.286066489e+00,-2.176221498e-01,2.505048860e-01
6.576300000e+03,6.669502446e-02,1.591139088e+00,-6.482084691e-03,3.185993485e-01
6.576400000e+03,-4.357784157e-02,9.952695659e-01,1.712540717e-01,2.639576547e-01
6.576500000e+03,-3.650436223e-01,3.694645420e-01,2.827524430e-01,1.094951140e-01
6.576600000e+03,-7.869715657e-01,-1.787389036e-01,2.842345277e-01,-5.135179153e-02
6.576700000e+03,-9.799372663e-02,-7.664657761e-01,2.252442997e-01,-2.168729642e-01
6.576800000e+03,-2.755666559e-01,-1.568403987e+00,7.328990228e-04,-3.063517915e-01
6.576900000e+03,8.016112007e-01,-2.151335508e+00,-1.902117264e-01,-2.899837134e-01
6.577000000e+03,9.263114075e-03,-2.760962079e+00,-2.939087948e-01,-1.176058632e-01
6.577100000e+03,-2.542145074e-01,2.939870458e+00,-3.008794788e-01,6.153094463e-02
6.577200000e+03,2.585350157e-01,2.269797605e+00,-2.096254072e-01,2.493811075e-01
6.577300000e+03,-9.172443156e-01,1.679190622e+00,-3.078175896e-02,2.828664495e-01
6.577400000e+03,3.222922423e-01,9.770816233e-01,1.835993485e-01,2.720195440e-01
6.577500000e+03,-4.459488462e-01,4.239218502e-01,2.738110749e-01,1.235667752e-01
6.577600000e+03,-5.972169687e-01,-3.003079447e-01,2.820032573e-01,-8.732899023e-02
6.577700000e+03,-2.271594246e-01,-9.548427219e-01,1.779804560e-01,-2.514495114e-01
6.577800000e+03,1.525017940e-01,-1.424426230e+00,4.693811075e-02,-3.183876221e-01
6.577900000e+03,2.375775136e-01,-2.205377155e+00,-1.926710098e-01,-2.617263844e-01
6.578000000e+03,4.456730843e-01,-2.804446797e+00,-3.141368078e-01,-1.101140065e-01
6.578100000e+03,-7.140839212e-01,2.880529223e+00,-2.814006515e-01,7.517915309e-02
6.578200000e+03,-1.587445510e-01,2.455423965e+00,-2.402280130e-01,1.967263844e-01
6.578300000e+03,-1.383154189e-01,1.656197344e+00,-2.654723127e-02,3.100977199e-01
6.578400000e+03,-9.453473978e-01,8.079360792e-01,1.959771987e-01,2.050162866e-01
6.578500000e+03,-7.218170881e-03,2.982109132e-01,3.020195440e-01,9.283387622e-02
6.578600000e+03,-8.055606717e-01,-1.783220687e-01,2.836482085e-01,-5.112377850e-02
6.578700000e+03,-1.012311380e-01,-8.615935751e-01,2.035504886e-01,-2.371986971e-01
6.578800000e+03,3.169524645e-01,-1.429749009e+00,4.610749186e-02,-3.247231270e-01
6.578900000e+03,3.599945456e-01,-2.275606642e+00,-2.135504886e-01,-2.510749186e-01
6.579000000e+03,-1.161787363e-01,-2.772039166e+00,-2.909609121e-01,-1.127035831e-01
6.579100000e+03,-6.262311891e-01,2.811422462e+00,-2.783387622e-01,9.539087948e-02
6.579200000e+03,1.800380125e-01,2.341533203e+00,-2.249185668e-01,2.316123779e-01
6.579300000e+03,-3.105414868e-01,1.592629483e+00,-6.661237785e-03,3.050488599e-01
6.579400000e+03,-4.634407475e-02,1.099321905e+00,1.428664495e-01,2.802280130e-01
6.579500000e+03,-8.973992939e-02,3.388654071e-01,2.951791531e-01,1.040390879e-01
6.579600000e+03,-3.747285076e-02,-2.538984848e-01,3.047719870e-01,-7.908794788e-02
6.579700000e+03,-6.120646961e-01,-8.607314655e-01,1.921172638e-01,-2.234853420e-01
6.579800000e+03,3.196181225e-01,-1.491583902e+00,2.596091205e-02,-3.270521173e-01
6.579900000e+03,1.657636382e-01,-2.124639410e+00,-1.695276873e-01,-2.741368078e-01
6.580000000e+03,-5.697792180e-01,-2.903589908e+00,-2.878013029e-01,-6.982084691e-02
6.580100000e+03,-5.863700529e-01,2.855656262e+00,-2.835830619e-01,8.337133550e-02
6.580200000e+03,-1.021609183e-01,2.190240109e+00,-1.814495114e-01,2.544625407e-01
6.580300000e+03,1.836331010e-01,1.690641804e+00,-3.861563518e-02,3.206677524e-01
6.580400000e+03,-3.023903285e-01,1.022575560e+00,1.591693811e-01,2.606514658e-01
6.580500000e+03,5.634307134e-01,4.854513431e-01,2.984364821e-01,1.574429967e-01
6.580600000e+03,-8.483208263e-01,-2.575260411e-01,2.773452769e-01,-7.304560261e-02
6.580700000e+03,-6.545653117e-01,-8.497251390e-01,1.936156352e-01,-2.202768730e-01
6.580800000e+03,6.491889389e-01,-1.536664878e+00,1.162866450e-02,-3.405700326e-01
6.580900000e+03,-9.614484508e-01,-2.234216083e+00,-1.743322476e-01,-2.230456026e-01
6.581000000e+03,-1.698815160e-01,-2.774535712e+00,-2.894462541e-01,-1.112866450e-01
6.581100000e+03,-1.383241600e-01,2.911730505e+00,-3.030456026e-01,7.091205212e-02
6.581200000e+03,-7.982433611e-03,2.122346617e+00,-1.655537459e-01,2.690879479e-01
6.581300000e+03,-1.465570721e-02,1.583848934e+00,-4.120521173e-03,3.156677524e-01
6.581400000e+03,8.528370222e-01,8.962157905e-01,2.178827362e-01,2.724429967e-01
6.581500000e+03,4.928244379e-01,3.029603447e-01,3.194462541e-01,9.985342020e-02
6.581600000e+03,5.269733053e-01,-2.187951242e-01,3.279967427e-01,-7.293159609e-02
6.581700000e+03,-4.996215588e-02,-9.514259985e-01,1.825244300e-01,-2.560097720e-01
6.581800000e+03,-3.317639688e-01,-1.625294583e+00,-1.657980456e-02,-3.039250814e-01
6.581900000e+03,-4.091215091e-01,-2.197409557e+00,-1.769055375e-01,-2.443648208e-01
6.582000000e+03,-2.911683817e-02,-2.699508471e+00,-2.848697068e-01,-1.348371336e-01
6.582100000e+03,-7.906819324e-01,2.885983080e+00,-2.793322476e-01,7.299674267e-02
6.582200000e+03,-1.532107092e+00,2.143326146e+00,-1.436156352e-01,2.228175896e-01
6.582300000e+03,-9.360086900e-01,1.542799512e+00,7.947882736e-03,2.838110749e-01
6.582400000e+03,-1.018954481e+00,9.973466788e-01,1.525732899e-01,2.362377850e-01
6.582500000e+03,7.147680705e-01,3.696190499e-01,3.201628664e-01,1.240390879e-01
6.582600000e+03,8.733028421e-01,-3.248730588e-01,3.313843648e-01,-1.116123779e-01
6.582700000e+03,1.572482405e-01,-1.039033793e+00,1.632736156e-01,-2.775407166e-01
6.582800000e+03,6.414931587e-01,-1.611899223e+00,-1.399022801e-02,-3.401791531e-01
6.582900000e+03,-8.337943628e-01,-2.218946192e+00,-1.734364821e-01,-2.290228013e-01
6.583000000e+03,-1.246188340e+00,-2.925483605e+00,-2.675895765e-01,-5.874592834e-02
6.583100000e+03,3.731554175e-02,2.799034410e+00,-2.991368078e-01,1.066775244e-01
6.583200000e+03,9.939003990e-01,2.330987016e+00,-2.443159609e-01,2.569543974e-01
6.583300000e+03,-1.328265955e-01,1.645073397e+00,-2.311074919e-02,3.105700326e-01
6.583400000e+03,-1.335470305e+00,9.160272094e-01,1.651302932e-01,2.150814332e-01
6.583500000e+03,-1.389578028e+00,2.532754032e-01,2.608794788e-01,6.752442997e-02
6.583600000e+03,4.255025146e-03,-3.407489033e-01,2.981921824e-01,-1.057328990e-01
6.583700000e+03,-1.141618958e+00,-1.022569915e+00,1.445114007e-01,-2.366449511e-01
6.583800000e+03,-8.626600732e-01,-1.674619312e+00,-2.967426710e-02,-2.847882736e-01
6.583900000e+03,-5.103523003e-02,-2.188474257e+00,-1.820684039e-01,-2.562866450e-01
6.584000000e+03,2.814217586e-02,-2.755299767e+00,-2.938762215e-01,-1.195276873e-01
6.584100000e+03,-9.953885475e-01,2.798160775e+00,-2.655211726e-01,9.495114007e-02
6.584200000e+03,-4.608203180e-01,2.121796654e+00,-1.570032573e-01,2.555048860e-01
6.584300000e+03,-1.017762323e+00,1.327039505e+00,6.788273616e-02,2.729478827e-01
6.584400000e+03,-7.383356187e-01,9.539102761e-01,1.680293160e-01,2.369218241e-01
6.584500000e+03,-7.127474872e-01,2.211794465e-01,2.842182410e-01,6.390879479e-02
6.584600000e+03,-9.353582622e-01,-3.566559692e-01,2.660749186e-01,-9.913680782e-02
6.584700000e+03,-3.212624169e-01,-1.029872725e+00,1.569218241e-01,-2.612377850e-01
6.584800000e+03,2.714840144e-02,-1.663241163e+00,-2.928338762e-02,-3.158631922e-01
6.584900000e+03,-3.187902533e-02,-2.334700287e+00,-2.179478827e-01,-2.275244300e-01
6.585000000e+03,1.249533366e-01,-2.926304696e+00,-3.134039088e-01,-6.853420195e-02
6.585100000e+03,-6.373566497e-01,2.693065360e+00,-2.647882736e-01,1.274267101e-01
6.585200000e+03,-4.267211455e-01,2.127526293e+00,-1.590879479e-01,2.556026059e-01
6.585300000e+03,-2.930528780e-01,1.417470639e+00,4.669381107e-02,3.021498371e-01
6.585400000e+03,-1.392079984e+00,7.779598601e-01,1.919055375e-01,1.890716612e-01
6.585500000e+03,-1.687284220e+00,2.739868228e-01,2.506840391e-01,7.045602606e-02
6.585600000e+03,2.326413955e-02,-4.148604295e-01,2.901791531e-01,-1.278013029e-01
6.585700000e+03,4.416494300e-01,-1.086197568e+00,1.550000000e-01,-2.944136808e-01
6.585800000e+03,-3.709428283e-01,-1.802373273e+00,-6.954397394e-02,-2.949185668e-01
6.585900000e+03,-6.898028123e-02,-2.287790086e+00,-2.061563518e-01,-2.364820847e-01
6.586000000e+03,-9.264831711e-01,-2.839757185e+00,-2.713843648e-01,-8.449511401e-02
6.586100000e+03,4.669231739e-01,2.749775034e+00,-3.084039088e-01,1.274267101e-01
6.586200000e+03,-1.050599017e+00,2.201742146e+00,-1.652931596e-01,2.262540717e-01
6.586300000e+03,-9.105351995e-01,1.376485411e+00,5.498371336e-02,2.793973941e-01
6.586400000e+03,1.943329083e-01,8.382357818e-01,2.162703583e-01,2.404234528e-01
6.586500000e+03,-1.041298812e+00,2.204449192e-01,2.737133550e-01,6.133550489e-02
6.586600000e+03,-1.946133878e-01,-3.552013924e-01,2.899185668e-01,-1.075407166e-01
6.586700000e+03,-3.485524431e-01,-1.078085881e+00,1.436970684e-01,-2.676547231e-01
6.586800000e+03,-3.227735289e-01,-1.533370644e+00,1.140065147e-02,-3.044788274e-01
6.586900000e+03,-1.932734177e-01,-2.305380701e+00,-2.072964169e-01,-2.295114007e-01
6.587000000e+03,-5.360380936e-01,-2.946764799e+00,-2.916775244e-01,-5.755700326e-02
6.587100000e+03,-1.459773718e+00,2.732140680e+00,-2.452117264e-01,1.064169381e-01
6.587200000e+03,-1.258524240e+00,2.177771766e+00,-1.560423453e-01,2.247068404e-01
6.587300000e+03,-1.695743626e-01,1.492727430e+00,2.418566775e-02,3.091693811e-01
6.587400000e+03,1.764445692e-01,9.223595036e-01,1.949022801e-01,2.572149837e-01
6.587500000e+03,4.893665129e-01,2.007943744e-01,3.278338762e-01,6.672638436e-02
6.587600000e+03,-5.111496973e-01,-3.984005600e-01,2.748045603e-01,-1.156677524e-01
6.587700000e+03,-3.913704141e-01,-1.121894992e+00,1.311889251e-01,-2.723452769e-01
6.587800000e+03,-1.867519004e+00,-1.617428736e+00,-1.188925081e-02,-2.547719870e-01
6.587900000e+03,-1.157172919e+00,-2.278809893e+00,-1.800000000e-01,-2.102605863e-01
6.588000000e+03,-6.710141381e-01,-2.967113841e+00,-2.882736156e-01,-5.081433225e-02
6.588100000e+03,1.341853411e-01,2.631139730e+00,-2.802117264e-01,1.569055375e-01
6.588200000e+03,3.056870310e-01,2.211433453e+00,-1.957817590e-01,2.626058632e-01
6.588300000e+03,-6.000100067e-01,1.436399502e+00,3.954397394e-02,2.924592834e-01
6.588400000e+03,-4.009399502e-01,8.811959850e-01,1.921172638e-01,2.329641694e-01
6.588500000e+03,-9.454528142e-02,1.848457975e-01,3.074755700e-01,5.749185668e-02
6.588600000e+03,-1.521001161e-01,-3.966537879e-01,2.866123779e-01,-1.200488599e-01
6.588700000e+03,-5.664110647e-01,-9.799730498e-01,1.650325733e-01,-2.460423453e-01
6.588800000e+03,7.024646536e-01,-1.760562145e+00,-6.467426710e-02,-3.367100977e-01
6.588900000e+03,-1.574824507e+00,-2.223743932e+00,-1.602605863e-01,-2.095276873e-01
6.589000000e+03,-4.660765911e-01,-2.990381103e+00,-2.962866450e-01,-4.514657980e-02
6.589100000e+03,-6.978771307e-01,2.598464378e+00,-2.498208469e-01,1.508143322e-01
6.589200000e+03,-1.811582407e+00,2.014353553e+00,-1.101628664e-01,2.318566775e-01
6.589300000e+03,9.843367377e-01,1.369685189e+00,7.074918567e-02,3.470358306e-01
6.589400000e+03,-5.542146693e-01,9.762162731e-01,1.661889251e-01,2.457654723e-01
6.589500000e+03,-3.914254154e-01,1.642540886e-01,2.982247557e-01,4.942996743e-02
6.589600000e+03,-4.057130644e-01,-4.707189783e-01,2.689739414e-01,-1.368729642e-01
6.589700000e+03,-4.807793084e-01,-1.094124500e+00,1.372801303e-01,-2.658469055e-01
6.589800000e+03,-8.251248104e-01,-1.690240998e+00,-3.426710098e-02,-2.855211726e-01
6.589900000e+03,4.635217435e-01,-2.235685071e+00,-2.057980456e-01,-2.625081433e-01
6.590000000e+03,-1.017892204e+00,-2.941585125e+00,-2.756514658e-01,-5.587947883e-02
6.590100000e+03,-2.045059165e-01,2.809436925e+00,-2.919869707e-01,1.007166124e-01
6.590200000e+03,-4.303197839e-01,2.049716391e+00,-1.386807818e-01,2.670846906e-01
6.590300000e+03,-8.690789496e-03,1.460452234e+00,3.478827362e-02,3.139902280e-01
6.590400000e+03,-2.983569781e-01,7.313610616e-01,2.274104235e-01,2.040716612e-01
6.590500000e+03,-5.387002255e-01,4.654050843e-02,2.968892508e-01,1.382736156e-02
6.590600000e+03,-2.396965866e-01,-4.690460507e-01,2.743973941e-01,-1.390553746e-01
6.590700000e+03,-1.145638773e+00,-1.070558524e+00,1.329315961e-01,-2.431921824e-01
6.590800000e+03,3.944702268e-01,-1.694199016e+00,-4.073289902e-02,-3.284039088e-01
6.590900000e+03,-9.447059657e-01,-2.288702641e+00,-1.865798046e-01,-2.136319218e-01
6.591000000e+03,-1.229331956e+00,-2.996968524e+00,-2.716286645e-01,-3.956026059e-02
6.591100000e+03,3.847901798e-01,2.757618643e+00,-3.064820847e-01,1.238273616e-01
6.591200000e+03,-1.452670307e+00,2.074122291e+00,-1.290390879e-01,2.343485342e-01
6.591300000e+03,2.807733581e-01,1.461675456e+00,3.557003257e-02,3.246742671e-01
6.591400000e+03,-1.832989961e-01,7.916097257e-01,2.175732899e-01,2.202931596e-01
6.591500000e+03,-5.874179361e-01,1.657466009e-01,2.914983713e-01,4.876221498e-02
6.591600000e+03,4.375595711e-01,-5.490787105e-01,2.836807818e-01,-1.735667752e-01
6.591700000e+03,-2.144716720e+00,-1.128879939e+00,1.056514658e-01,-2.233061889e-01
6.591800000e+03,-1.594409964e+00,-1.812368129e+00,-6.296416938e-02,-2.555537459e-01
6.591900000e+03,-4.433349754e-01,-2.462594005e+00,-2.338436482e-01,-1.887133550e-01
6.592000000e+03,-1.480158735e+00,-2.859056620e+00,-2.561074919e-01,-7.434853420e-02
6.592100000e+03,1.721607687e-01,2.742933051e+00,-2.972638436e-01,1.252117264e-01
6.592200000e+03,-2.277715339e-02,1.833923386e+00,-8.203583062e-02,3.045439739e-01
6.592300000e+03,-2.569716416e+00,1.423768702e+00,3.446254072e-02,2.327035831e-01
6.592400000e+03,-1.191614740e+00,9.451489865e-01,1.614495114e-01,2.234690554e-01
6.592500000e+03,-5.702345749e-01,2.620265591e-01,2.860260586e-01,7.671009772e-02
6.592600000e+03,-1.171405517e+00,-5.247313414e-01,2.391530945e-01,-1.384364821e-01
6.592700000e+03,-6.710204570e-01,-9.925620818e-01,1.599837134e-01,-2.451302932e-01
6.592800000e+03,-5.878463533e-01,-1.745050323e+00,-5.123778502e-02,-2.910586319e-01
6.592900000e+03,-1.207712286e+00,-2.321367707e+00,-1.876872964e-01,-2.012377850e-01
6.593000000e+03,-6.825579039e-01,-3.038115478e+00,-2.907654723e-01,-3.019543974e-02
6.593100000e+03,9.991348506e-02,2.648796128e+00,-2.818241042e-01,1.513355049e-01
6.593200000e+03,-1.849315364e+00,1.978273600e+00,-1.012866450e-01,2.346579805e-01
6.593300000e+03,-7.806579520e-01,1.252324332e+00,9.050488599e-02,2.745114007e-01
6.593400000e+03,-4.116508649e-01,8.234019439e-01,2.050000000e-01,2.212052117e-01
6.593500000e+03,-1.717469682e-01,2.054211028e-01,3.035179153e-01,6.324104235e-02
6.593600000e+03,-1.318820034e+00,-5.134801576e-01,2.366449511e-01,-1.334527687e-01
6.593700000e+03,-5.759247685e-01,-1.100257367e+00,1.341693811e-01,-2.637785016e-01
6.593800000e+03,-3.497190054e-01,-1.798439145e+00,-6.855048860e-02,-2.959120521e-01
6.593900000e+03,-1.661966946e-02,-2.260486910e+00,-2.008306189e-01,-2.434853420e-01
6.594000000e+03,-1.093564749e+00,-3.024381533e+00,-2.769055375e-01,-3.260586319e-02
6.594100000e+03,-4.425831377e-01,2.672903763e+00,-2.681107492e-01,1.357491857e-01
6.594200000e+03,-1.453015881e-01,2.101901697e+00,-1.575081433e-01,2.681433225e-01
6.594300000e+03,-7.964579216e-01,1.388302233e+00,5.236156352e-02,2.837296417e-01
6.594400000e+03,-2.543601722e+00,7.320249815e-01,1.755048860e-01,1.577035831e-01
6.594500000e+03,-5.936006656e-01,1.489472100e-01,2.920684039e-01,4.382736156e-02
6.594600000e+03,-1.148326796e+00,-4.399333144e-01,2.506840391e-01,-1.179967427e-01
6.594700000e+03,-6.702676217e-01,-1.150080857e+00,1.195602606e-01,-2.672149837e-01
6.594800000e+03,-7.175762550e-01,-1.712740847e+00,-4.118892508e-02,-2.882247557e-01
6.594900000e+03,-9.683778223e-01,-2.513960486e+00,-2.289576547e-01,-1.661074919e-01
6.595000000e+03,-3.071023000e-01,-2.991795129e+00,-3.018241042e-01,-4.555374593e-02
6.595100000e+03,-3.809623361e-01,2.585280672e+00,-2.570195440e-01,1.598208469e-01
6.595200000e+03,-5.909992883e-02,1.937147391e+00,-1.125081433e-01,2.932410423e-01
6.595300000e+03,-8.404697282e-01,1.456680603e+00,3.268729642e-02,2.851954397e-01
6.595400000e+03,-1.084033115e+00,6.139955825e-01,2.281433225e-01,1.608143322e-01
6.595500000e+03,-1.190554041e+00,9.928073212e-02,2.743648208e-01,2.732899023e-02
6.595600000e+03,-5.844251010e-01,-5.751835765e-01,2.480781759e-01,-1.608306189e-01
6.595700000e+03,-6.454785130e-01,-1.181348003e+00,1.114657980e-01,-2.715960912e-01
6.595800000e+03,-5.527466546e-01,-1.685763108e+00,-3.403908795e-02,-2.947719870e-01
6.595900000e+03,-2.000682329e+00,-2.402796180e+00,-1.856840391e-01,-1.691368078e-01
6.596000000e+03,-4.443953930e-01,-2.968405722e+00,-2.959609121e-01,-5.177524430e-02
6.596100000e+03,-1.382034082e+00,2.518479133e+00,-2.190228013e-01,1.573941368e-01
6.596200000e+03,-2.350430885e+00,1.882790781e+00,-7.405537459e-02,2.296091205e-01
6.596300000e+03,-1.012785653e+00,1.350018262e+00,6.162866450e-02,2.745928339e-01
6.596400000e+03,-2.985825796e-01,7.101699715e-01,2.316775244e-01,1.992019544e-01
6.596500000e+03,-6.258623428e-01,7.701386886e-02,2.933713355e-01,2.263843648e-02
6.596600000e+03,-9.783532648e-01,-5.601329721e-01,2.393648208e-01,-1.501140065e-01
6.596700000e+03,-1.104425202e+00,-1.166557307e+00,1.095276873e-01,-2.560260586e-01
6.596800000e+03,-7.232751706e-01,-1.845958958e+00,-7.905537459e-02,-2.800162866e-01
6.596900000e+03,-1.012896752e+00,-2.406140625e+00,-2.086807818e-01,-1.888110749e-01
6.597000000e+03,-1.682955631e+00,-2.995098337e+00,-2.577361564e-01,-3.802931596e-02
6.597100000e+03,-1.010658558e+00,2.571579667e+00,-2.369869707e-01,1.519055375e-01
6.597200000e+03,-1.271962754e+00,1.937229575e+00,-9.786644951e-02,2.550162866e-01
6.597300000e+03,-7.901424235e-01,1.304460174e+00,7.599348534e-02,2.785504886e-01
6.597400000e+03,-6.221773429e-01,6.568796804e-01,2.331107492e-01,1.797557003e-01
6.597500000e+03,-2.158090681e-01,1.121148781e-01,3.065309446e-01,3.451140065e-02
6.597600000e+03,-1.148890657e+00,-4.900195706e-01,2.444462541e-01,-1.303908795e-01
6.597700000e+03,-2.877834806e+00,-1.002730190e+00,1.221498371e-01,-1.913843648e-01
6.597800000e+03,6.924215238e-01,-1.797826868e+00,-7.708469055e-02,-3.336807818e-01
6.597900000e+03,1.293834977e-02,-2.547913317e+00,-2.625081433e-01,-1.771661238e-01
6.598000000e+03,-8.598305204e-01,3.134882871e+00,-2.864169381e-01,1.921824104e-03
6.598100000e+03,-5.743888737e-01,2.633489404e+00,-2.585993485e-01,1.440065147e-01
6.598200000e+03,-1.203525991e+00,1.910338332e+00,-9.169381107e-02,2.595928339e-01
6.598300000e+03,-6.485083640e-02,1.308940514e+00,8.125407166e-02,3.031758958e-01
6.598400000e+03,3.442270218e-02,7.572095294e-01,2.307328990e-01,2.180781759e-01
6.598500000e+03,1.464307550e-01,-4.665812775e-02,3.212540717e-01,-1.500000000e-02
6.598600000e+03,-1.672437651e+00,-6.177235790e-01,2.126384365e-01,-1.510749186e-01
6.598700000e+03,-1.244211596e-01,-1.228524477e+00,1.046254072e-01,-2.936482085e-01
6.598800000e+03,-1.422544567e+00,-1.973903709e+00,-1.053094463e-01,-2.469381107e-01
6.598900000e+03,-7.598409412e-01,-2.533602068e+00,-2.378175896e-01,-1.655048860e-01
6.599000000e+03,-8.797058657e-01,-3.040716087e+00,-2.843159609e-01,-2.877850163e-02
6.599100000e+03,-2.133999313e-01,2.660192636e+00,-2.734853420e-01,1.428664495e-01
6.599200000e+03,-6.030356291e-01,1.839101324e+00,-7.820846906e-02,2.844625407e-01
6.599300000e+03,-4.464647106e-01,1.346846289e+00,6.671009772e-02,2.928827362e-01
6.599400000e+03,-1.097359318e+00,7.858113865e-01,1.969869707e-01,1.971498371e-01
6.599500000e+03,-1.222184808e+00,9.900666588e-03,2.747068404e-01,2.719869707e-03
6.599600000e+03,-6.872327724e-01,-7.601689147e-01,2.117426710e-01,-2.013192182e-01
6.599700000e+03,1.677181824e-01,-1.227813165e+00,1.084201954e-01,-3.036156352e-01
6.599800000e+03,-6.531612112e-01,-1.933680703e+00,-1.041205212e-01,-2.742182410e-01
6.599900000e+03,-1.240179089e+00,-2.618025376e+00,-2.374267101e-01,-1.370684039e-01
6.600000000e+03,-5.150282799e-01,-3.114811392e+00,-2.979153094e-01,-7.980456026e-03
6.600100000e+03,-4.620521188e-01,2.642302286e+00,-2.632410423e-01,1.435667752e-01
6.600200000e+03,-1.219199433e+00,1.894364754e+00,-8.737785016e-02,2.605537459e-01
6.600300000e+03,-8.394362559e-01,1.301200774e+00,7.646579805e-02,2.767263844e-01
6.600400000e+03,-3.652730907e-01,6.557054514e-01,2.403257329e-01,1.848697068e-01
6.600500000e+03,-8.856582578e-01,4.427087802e-02,2.852931596e-01,1.263843648e-02
6.600600000e+03,-7.962472612e-01,-7.447941194e-01,2.121335505e-01,-1.955700326e-01
6.600700000e+03,-2.990680025e-01,-1.166520502e+00,1.201791531e-01,-2.808957655e-01
6.600800000e+03,-8.670392167e-01,-1.963529953e+00,-1.095276873e-01,-2.643973941e-01
6.600900000e+03,-1.173160219e+00,-2.504045610e+00,-2.220032573e-01,-1.644462541e-01
6.601000000e+03,-9.966522962e-01,3.133678776e+00,-2.819381107e-01,2.231270358e-03
6.601100000e+03,-1.063714269e+00,2.433162117e+00,-2.124592834e-01,1.820358306e-01
6.601200000e+03,-2.218586888e-01,1.883307224e+00,-9.477198697e-02,2.933224756e-01
6.601300000e+03,-2.234794385e-01,1.183273520e+00,1.164657980e-01,2.853420195e-01
6.601400000e+03,-6.189688337e-01,5.810077798e-01,2.461563518e-01,1.616286645e-01
6.601500000e+03,-1.877455833e+00,-7.512441399e-02,2.540390879e-01,-1.912052117e-02
6.601600000e+03,-1.141129209e+00,-6.085943973e-01,2.275081433e-01,-1.585342020e-01
6.601700000e+03,-9.549660268e-01,-1.277500398e+00,8.190553746e-02,-2.712052117e-01
6.601800000e+03,-4.958309624e-01,-1.846991278e+00,-8.144951140e-02,-2.873615635e-01
6.601900000e+03,-1.206771334e+00,-2.453514732e+00,-2.125895765e-01,-1.747719870e-01
6.602000000e+03,7.109655808e-01,-3.098537532e+00,-3.428827362e-01,-1.477198697e-02
6.602100000e+03,-1.349871613e+00,2.528875495e+00,-2.214657980e-01,1.556840391e-01
6.602200000e+03,-1.170033331e+00,1.934395045e+00,-9.828990228e-02,2.583061889e-01
6.602300000e+03,-8.030568500e-01,1.137520530e+00,1.210423453e-01,2.616612378e-01
6.602400000e+03,-4.796118356e-01,6.861737273e-01,2.315146580e-01,1.895928339e-01
6.602500000e+03,-1.177543385e+00,6.120102579e-02,2.756188925e-01,1.688925081e-02
6.602600000e+03,2.765685784e-01,-6.959583097e-01,2.505374593e-01,-2.092996743e-01
6.602700000e+03,-1.523297258e+00,-1.272590703e+00,7.796416938e-02,-2.536482085e-01
6.602800000e+03,-8.267533460e-02,-2.019096304e+00,-1.357654723e-01,-2.822801303e-01
6.602900000e+03,-2.506927614e+00,-2.660914687e+00,-2.100977199e-01,-1.095602606e-01
6.603000000e+03,-1.963051485e-01,3.091842085e+00,-3.087785016e-01,1.537459283e-02
6.603100000e+03,-1.141705922e+00,2.526853487e+00,-2.265146580e-01,1.599185668e-01
6.603200000e+03,-1.756069631e+00,1.843285370e+00,-6.952768730e-02,2.488110749e-01
6.603300000e+03,-1.450780676e+00,1.314494942e+00,6.783387622e-02,2.588436482e-01
6.603400000e+03,-5.942232403e-01,6.619331668e-01,2.329478827e-01,1.815146580e-01
6.603500000e+03,8.364144095e-03,-7.462510804e-02,3.156514658e-01,-2.359934853e-02
6.603600000e+03,-8.209735498e-01,-7.538507639e-01,2.097557003e-01,-1.969218241e-01
6.603700000e+03,-1.434785601e+00,-1.248796017e+00,8.483713355e-02,-2.542996743e-01
6.603800000e+03,-7.037962223e-01,-1.894719217e+00,-9.281758958e-02,-2.764495114e-01
6.603900000e+03,-9.618893675e-01,-2.580066000e+00,-2.396091205e-01,-1.507328990e-01
6.604000000e+03,-1.031428352e+00,3.087339157e+00,-2.804071661e-01,1.522801303e-02
6.604100000e+03,-2.519101194e-01,2.515790032e+00,-2.489739414e-01,1.799348534e-01
6.604200000e+03,-4.544566238e-01,1.928696808e+00,-1.051302932e-01,2.810912052e-01
6.604300000e+03,-1.330547473e-01,1.253544138e+00,9.714983713e-02,2.958794788e-01
6.604400000e+03,-4.253594746e-01,6.551086190e-01,2.387785016e-01,1.834527687e-01
6.604500000e+03,-1.991063664e+00,-1.399093134e-01,2.489902280e-01,-3.506514658e-02
6.604600000e+03,7.069540414e-01,-5.880289391e-01,2.854234528e-01,-1.902931596e-01
6.604700000e+03,3.178366811e-03,-1.137683774e+00,1.327687296e-01,-2.871335505e-01
6.604800000e+03,-2.364745549e-01,-1.918373620e+00,-1.048208469e-01,-2.893322476e-01
6.604900000e+03,-1.737784521e+00,-2.633675359e+00,-2.262052117e-01,-1.259120521e-01
6.605000000e+03,1.749716616e-01,3.089882412e+00,-3.222312704e-01,1.667752443e-02
6.605100000e+03,1.251497047e-01,2.369369100e+00,-2.298208469e-01,2.238436482e-01
6.605200000e+03,-6.098306442e-01,1.796464661e+00,-6.596091205e-02,2.873127036e-01
6.605300000e+03,-1.190407210e+00,1.285851573e+00,7.750814332e-02,2.646091205e-01
6.605400000e+03,-1.677999415e+00,5.272289538e-01,2.252768730e-01,1.311563518e-01
6.605500000e+03,-9.716775296e-01,-1.245050246e-01,2.805700326e-01,-3.511400651e-02
6.605600000e+03,5.409950004e-02,-6.881783504e-01,2.457817590e-01,-2.021009772e-01
6.605700000e+03,-1.658789649e-01,-1.404085569e+00,5.148208469e-02,-3.059446254e-01
6.605800000e+03,-1.384910873e+00,-2.080681712e+00,-1.315960912e-01,-2.353257329e-01
6.605900000e+03,8.062803789e-01,-2.504531380e+00,-2.789250814e-01,-2.064006515e-01
6.606000000e+03,-5.114659407e-01,3.033384634e+00,-2.964006515e-01,3.219869707e-02
6.606100000e+03,-1.838555604e+00,2.466722497e+00,-1.998045603e-01,1.598859935e-01
6.606200000e+03,-1.247832800e+00,1.861592476e+00,-7.853420195e-02,2.624104235e-01
6.606300000e+03,-1.003410307e+00,1.176387642e+00,1.082573290e-01,2.600977199e-01
6.606400000e+03,-5.116031081e-01,5.389392690e-01,2.558794788e-01,1.530130293e-01
6.606500000e+03,-8.870855524e-01,-1.688434036e-01,2.814657980e-01,-4.798045603e-02
6.606600000e+03,-6.580842190e-01,-6.543237502e-01,2.326058632e-01,-1.784201954e-01
6.606700000e+03,-9.693116832e-01,-1.411772611e+00,4.478827362e-02,-2.792671010e-01
6.606800000e+03,-4.478322496e-01,-2.029060081e+00,-1.328664495e-01,-2.693485342e-01
6.606900000e+03,-4.030920822e-01,-2.631580692e+00,-2.634690554e-01,-1.473778502e-01
6.607000000e+03,-1.594714035e+00,2.979557044e+00,-2.597394137e-01,4.245928339e-02
6.607100000e+03,3.207503007e-01,2.312764938e+00,-2.217263844e-01,2.418729642e-01
6.607200000e+03,-1.227316714e+00,1.718624470e+00,-4.043973941e-02,2.715635179e-01
6.607300000e+03,-1.589067223e-01,1.206752014e+00,1.105537459e-01,2.901465798e-01
6.607400000e+03,-1.139461769e+00,5.205081540e-01,2.406188925e-01,1.379315961e-01
6.607500000e+03,-7.654332551e-01,1.698756466e-02,2.895114007e-01,4.918566775e-03
6.607600000e+03,-2.308571470e+00,-7.612629535e-01,1.755048860e-01,-1.672312704e-01
6.607700000e+03,-2.616075239e-01,-1.321955685e+00,7.557003257e-02,-2.973941368e-01
6.607800000e+03,-1.106097982e+00,-2.053699497e+00,-1.292833876e-01,-2.465798046e-01
6.607900000e+03,-1.054830840e+00,-2.620073457e+00,-2.428338762e-01,-1.395276873e-01
6.608000000e+03,-2.169484455e+00,2.885581371e+00,-2.383061889e-01,6.237785016e-02
6.608100000e+03,-1.216708212e-01,2.375326316e+00,-2.246742671e-01,2.162377850e-01
6.608200000e+03,-3.316707244e-01,1.755809009e+00,-5.599348534e-02,2.991856678e-01
6.608300000e+03,1.845827552e-01,1.038366695e+00,1.639739414e-01,2.783061889e-01
6.608400000e+03,-8.850138155e-01,4.261744108e-01,2.600488599e-01,1.180618893e-01
6.608500000e+03,1.609329820e-01,-2.497118042e-01,3.121498371e-01,-7.960912052e-02
6.608600000e+03,-1.607403282e+00,-8.176563487e-01,1.797394137e-01,-1.917263844e-01
6.608700000e+03,-1.454163481e-02,-1.409082546e+00,5.083061889e-02,-3.115798046e-01
6.608800000e+03,-9.334794306e-01,-2.068303200e+00,-1.355374593e-01,-2.495765472e-01
6.608900000e+03,-1.879328182e+00,-2.703370081e+00,-2.306351792e-01,-1.080781759e-01
6.609000000e+03,-1.295005027e+00,2.920816263e+00,-2.658143322e-01,5.965798046e-02
6.609100000e+03,-1.959100499e+00,2.432840388e+00,-1.915960912e-01,1.642671010e-01
6.609200000e+03,-8.613162974e-01,1.507341626e+00,1.815960912e-02,2.857980456e-01
6.609300000e+03,4.460536671e-01,9.942057477e-01,1.814820847e-01,2.790716612e-01
6.609400000e+03,-1.030693472e+00,4.504205241e-01,2.528338762e-01,1.222638436e-01
6.609500000e+03,-2.091900991e+00,-2.208509518e-01,2.425081433e-01,-5.444625407e-02
6.609600000e+03,-1.514294651e+00,-7.230577799e-01,1.991693811e-01,-1.757654723e-01
6.609700000e+03,-9.705284544e-01,-1.335441750e+00,6.594462541e-02,-2.750000000e-01
6.609800000e+03,-4.196293096e-02,-2.067152718e+00,-1.498697068e-01,-2.767263844e-01
6.609900000e+03,-1.739339181e+00,-2.849135413e+00,-2.478501629e-01,-7.462540717e-02
6.610000000e+03,-8.007896514e-01,2.847474377e+00,-2.759934853e-01,8.359934853e-02
6.610100000e+03,-1.601297140e+00,2.246233634e+00,-1.644299674e-01,2.052442997e-01
6.610200000e+03,-1.039904474e+00,1.698629230e+00,-3.576547231e-02,2.782573290e-01
6.610300000e+03,-1.553550835e+00,1.165023042e+00,1.043811075e-01,2.429641694e-01
6.610400000e+03,-9.506344280e-01,3.633908642e-01,2.649348534e-01,1.007491857e-01
6.610500000e+03,2.752897783e-01,-1.939119353e-01,3.202931596e-01,-6.289902280e-02
6.610600000e+03,-6.991751519e-01,-9.214787338e-01,1.764169381e-01,-2.323941368e-01
6.610700000e+03,-1.173714107e+00,-1.429007659e+00,3.903908795e-02,-2.734853420e-01
6.610800000e+03,-1.799286735e+00,-2.227260681e+00,-1.568892508e-01,-2.036319218e-01
6.610900000e+03,-1.389291904e+00,-2.795625381e+00,-2.535179153e-01,-9.138436482e-02
6.611000000e+03,-1.201131735e+00,2.858134465e+00,-2.643973941e-01,7.701954397e-02
6.611100000e+03,-1.224397495e+00,2.283127405e+00,-1.795114007e-01,2.078664495e-01
6.611200000e+03,-1.310707027e+00,1.760897719e+00,-5.138436482e-02,2.670358306e-01
6.611300000e+03,-3.562801620e-01,9.927204697e-01,1.658469055e-01,2.542019544e-01
6.611400000e+03,-6.159688536e-01,4.138793621e-01,2.697068404e-01,1.184690554e-01
6.611500000e+03,-4.603807593e-01,-2.173023839e-01,2.928501629e-01,-6.465798046e-02
6.611600000e+03,-1.250941920e+00,-8.454531101e-01,1.816449511e-01,-2.048859935e-01
6.611700000e+03,-1.126297099e+00,-1.544114878e+00,7.410423453e-03,-2.776710098e-01
6.611800000e+03,-8.150983263e-01,-2.228564886e+00,-1.760097720e-01,-2.278338762e-01
6.611900000e+03,-1.396291511e+00,-2.675699924e+00,-2.405700326e-01,-1.209609121e-01
6.612000000e+03,-1.002935128e+00,2.942995389e+00,-2.762052117e-01,5.558631922e-02
6.612100000e+03,-2.690302810e-01,2.252332097e+00,-1.931433225e-01,2.380944625e-01
6.612200000e+03,-1.821629640e+00,1.609807737e+00,-1.000000000e-02,2.562052117e-01
6.612300000e+03,-1.245839835e+00,1.043141223e+00,1.379478827e-01,2.367100977e-01
6.612400000e+03,-6.505082001e-01,3.746103892e-01,2.730618893e-01,1.073615635e-01
6.612500000e+03,-2.327200108e+00,-2.403084706e-01,2.349511401e-01,-5.757328990e-02
6.612600000e+03,-7.086950561e-01,-7.482464243e-01,2.135993485e-01,-1.982899023e-01
6.612700000e+03,-1.320477947e+00,-1.500646551e+00,1.903908795e-02,-2.709609121e-01
6.612800000e+03,-4.504537621e-01,-2.135703310e+00,-1.607328990e-01,-2.535993485e-01
6.612900000e+03,-9.316507640e-01,-2.787908539e+00,-2.664820847e-01,-9.838762215e-02
6.613000000e+03,-8.183797128e-01,2.949646480e+00,-2.825081433e-01,5.490228013e-02
6.613100000e+03,-2.150412765e+00,2.282656912e+00,-1.612703583e-01,1.869218241e-01
6.613200000e+03,-1.120366565e+00,1.660565005e+00,-2.491856678e-02,2.768403909e-01
6.613300000e+03,-9.607482828e-01,9.483400179e-01,1.650651466e-01,2.300162866e-01
6.613400000e+03,-1.884351186e+00,2.303139996e-01,2.478338762e-01,5.811074919e-02
6.613500000e+03,-1.404818932e+00,-3.804276777e-01,2.497719870e-01,-9.988599349e-02
6.613600000e+03,-6.143031093e-01,-9.871631187e-01,1.623615635e-01,-2.458631922e-01
6.613700000e+03,-1.737218728e+00,-1.692568678e+00,-3.144951140e-02,-2.569869707e-01
6.613800000e+03,-1.084148846e+00,-2.171584095e+00,-1.577850163e-01,-2.302442997e-01
6.613900000e+03,-9.924656968e-01,-2.823128558e+00,-2.678990228e-01,-8.832247557e-02
6.614000000e+03,-1.246495613e+00,2.739479896e+00,-2.521009772e-01,1.072149837e-01
6.614100000e+03,-7.098009847e-01,2.155233773e+00,-1.607817590e-01,2.430456026e-01
6.614200000e+03,-1.718378949e+00,1.550645865e+00,5.228013029e-03,2.594136808e-01
6.614300000e+03,-5.128331426e-01,1.052022930e+00,1.478013029e-01,2.588762215e-01
6.614400000e+03,-2.301470209e+00,2.006473026e-01,2.377524430e-01,4.835504886e-02
6.614500000e+03,-5.375552156e-01,-2.413906863e-01,2.886319218e-01,-7.105863192e-02
6.614600000e+03,-3.144307169e-01,-8.986574387e-01,1.899022801e-01,-2.386482085e-01
6.614700000e+03,-2.168661580e+00,-1.499535963e+00,1.754071661e-02,-2.457328990e-01
6.614800000e+03,-5.954479400e-01,-2.204203454e+00,-1.747719870e-01,-2.379967427e-01
6.614900000e+03,-1.808760428e+00,-2.848507720e+00,-2.458306189e-01,-7.418566775e-02
6.615000000e+03,-6.611056225e-01,2.847719119e+00,-2.804885993e-01,8.488599349e-02
6.615100000e+03,-8.325541793e-01,2.229761406e+00,-1.759283388e-01,2.271661238e-01
6.615200000e+03,-1.028793417e+00,1.406734264e+00,4.587947883e-02,2.771335505e-01
6.615300000e+03,-8.702378879e-02,1.047462546e+00,1.564657980e-01,2.711726384e-01
6.615400000e+03,-1.060544106e+00,3.829377008e-01,2.596091205e-01,1.045765472e-01
6.615500000e+03,-6.504448076e-03,-3.206422327e-01,2.998859935e-01,-9.959283388e-02
6.615600000e+03,1.495035583e-01,-9.159248228e-01,1.959446254e-01,-2.551628664e-01
6.615700000e+03,-6.895402233e-01,-1.562711302e+00,2.361563518e-03,-2.920846906e-01
6.615800000e+03,-7.366968899e-01,-2.290143163e+00,-1.914169381e-01,-2.185342020e-01
6.615900000e+03,-7.367691783e-01,-2.978628304e+00,-2.866612378e-01,-4.713355049e-02
6.616000000e+03,-1.031068309e+00,2.849152652e+00,-2.689087948e-01,8.096091205e-02
6.616100000e+03,-1.858944116e+00,2.273098212e+00,-1.649185668e-01,1.948859935e-01
6.616200000e+03,-7.006464618e-01,1.440569068e+00,3.788273616e-02,2.892508143e-01
6.616300000e+03,-3.905813747e-01,9.459251302e-01,1.768566775e-01,2.451954397e-01
6.616400000e+03,-1.608807188e+00,1.853974485e-01,2.582573290e-01,4.843648208e-02
6.616500000e+03,-4.246032239e+00,-2.429624136e-01,1.882573290e-01,-4.666123779e-02
6.616600000e+03,-3.235474516e-01,-9.832088640e-01,1.688925081e-01,-2.535667752e-01
6.616700000e+03,-1.371297989e+00,-1.700709479e+00,-3.498371336e-02,-2.677687296e-01
6.616800000e+03,-2.505638438e+00,-2.132892361e+00,-1.263029316e-01,-2.005211726e-01
6.616900000e+03,-1.771332130e+00,-2.875229826e+00,-2.487947883e-01,-6.788273616e-02
6.617000000e+03,-4.067036481e-01,2.792872372e+00,-2.835993485e-01,1.031107492e-01
6.617100000e+03,-8.784495706e-01,2.082959186e+00,-1.400651466e-01,2.491368078e-01
6.617200000e+03,-5.821061623e-01,1.476426807e+00,2.786644951e-02,2.944136808e-01
6.617300000e+03,-1.664075225e+00,9.464715646e-01,1.526221498e-01,2.118403909e-01
6.617400000e+03,-2.034779308e+00,3.488655531e-01,2.351140065e-01,8.552117264e-02
6.617500000e+03,-1.662309274e+00,-4.227202751e-01,2.381596091e-01,-1.071335505e-01
6.617600000e+03,-2.644611264e+00,-9.392788888e-01,1.376872964e-01,-1.882410423e-01
6.617700000e+03,-2.479654639e+00,-1.623649486e+00,-1.255700326e-02,-2.373615635e-01
6.617800000e+03,-1.285692513e+00,-2.172613089e+00,-1.543973941e-01,-2.248045603e-01
6.617900000e+03,-1.064785989e+00,-2.892462586e+00,-2.711074919e-01,-6.897394137e-02
6.618000000e+03,-1.406279951e+00,2.726547035e+00,-2.461237785e-01,1.084527687e-01
6.618100000e+03,-1.753774534e+00,2.171035440e+00,-1.459609121e-01,2.132410423e-01
6.618200000e+03,-1.974254835e+00,1.457162138e+00,2.856677524e-02,2.503094463e-01
6.618300000e+03,-1.818167495e+00,9.957200902e-01,1.395114007e-01,2.152442997e-01
6.618400000e+03,-5.088699864e-01,2.776995541e-01,2.868078176e-01,8.175895765e-02
6.618500000e+03,-8.634326772e-01,-4.022475940e-01,2.634527687e-01,-1.120846906e-01
6.618600000e+03,-1.355239647e+00,-9.382999271e-01,1.599348534e-01,-2.182084691e-01
6.618700000e+03,-2.218630556e+00,-1.504922561e+00,1.612377850e-02,-2.444136808e-01
6.618800000e+03,-2.669204004e+00,-2.248479338e+00,-1.458143322e-01,-1.811726384e-01
6.618900000e+03,-1.607668130e+00,-2.876275519e+00,-2.535993485e-01,-6.890879479e-02
6.619000000e+03,-2.009572663e+00,2.739786225e+00,-2.309283388e-01,9.812703583e-02
6.619100000e+03,-9.175872320e-01,2.255522991e+00,-1.799511401e-01,2.203908795e-01
6.619200000e+03,-8.731237723e-01,1.636163629e+00,-1.868078176e-02,2.853745928e-01
6.619300000e+03,-3.197228619e+00,8.486408938e-01,1.446579805e-01,1.642182410e-01
6.619400000e+03,-7.379314320e-01,1.770952320e-01,2.859283388e-01,5.117263844e-02
6.619500000e+03,-1.970685047e+00,-5.326840397e-01,2.171172638e-01,-1.279967427e-01
6.619600000e+03,-2.707761019e+00,-1.024634478e+00,1.202605863e-01,-1.978501629e-01
6.619700000e+03,-1.726068307e+00,-1.814708372e+00,-6.260586319e-02,-2.515635179e-01
6.619800000e+03,-3.201635282e+00,-2.180814707e+00,-1.253094463e-01,-1.792833876e-01
6.619900000e+03,-1.642723832e+00,-2.876208352e+00,-2.525732899e-01,-6.864820847e-02
6.620000000e+03,-7.642764076e-01,2.649243470e+00,-2.551954397e-01,1.368892508e-01
6.620100000e+03,-1.235848759e+00,2.047721605e+00,-1.259120521e-01,2.436807818e-01
6.620200000e+03,-1.394027911e+00,1.406244112e+00,4.412052117e-02,2.657003257e-01
6.620300000e+03,-7.373445804e-01,8.583692946e-01,1.898859935e-01,2.198371336e-01
6.620400000e+03,-1.175679434e+00,2.262994072e-01,2.691530945e-01,6.197068404e-02
6.620500000e+03,-2.039664269e+00,-4.241963228e-01,2.278827362e-01,-1.029153094e-01
6.620600000e+03,-2.588338542e+00,-1.046512520e+00,1.175081433e-01,-2.032084691e-01
6.620700000e+03,-1.452762585e+00,-1.706916284e+00,-3.630293160e-02,-2.650488599e-01
6.620800000e+03,-2.111408812e+00,-2.457046093e+00,-1.921172638e-01,-1.568078176e-01
6.620900000e+03,-1.582850895e+00,-3.054905173e+00,-2.625570033e-01,-2.281758958e-02
6.621000000e+03,-1.867930816e+00,2.749346108e+00,-2.356677524e-01,9.749185668e-02
6.621100000e+03,-1.655857107e+00,2.077767718e+00,-1.268892508e-01,2.284690554e-01
6.621200000e+03,-1.557771665e+00,1.452953209e+00,3.107491857e-02,2.624755700e-01
6.621300000e+03,-1.949942628e+00,8.147585674e-01,1.733224756e-01,1.838110749e-01
6.621400000e+03,-1.729506154e+00,2.014754593e-01,2.538925081e-01,5.185667752e-02
6.621500000e+03,-2.908935417e+00,-3.778059572e-01,2.102768730e-01,-8.345276873e-02
6.621600000e+03,-2.542361109e+00,-9.430453167e-01,1.385993485e-01,-1.909934853e-01
6.621700000e+03,-1.580478418e+00,-1.741835952e+00,-4.486970684e-02,-2.597719870e-01
6.621800000e+03,-1.198989608e+00,-2.339093920e+00,-1.914169381e-01,-1.980781759e-01
6.621900000e+03,-1.746716296e+00,-2.920840377e+00,-2.523452769e-01,-5.662866450e-02
6.622000000e+03,-2.314331021e+00,2.680590780e+00,-2.169706840e-01,1.077687296e-01
6.622100000e+03,-6.120155026e-01,2.039362091e+00,-1.330944625e-01,2.629478827e-01
6.622200000e+03,-1.188272076e+00,1.424531467e+00,4.019543974e-02,2.728501629e-01
6.622300000e+03,-1.757941786e+00,8.060436709e-01,1.788273616e-01,1.863680782e-01
6.622400000e+03,-2.768615538e+00,1.190041160e-01,2.282899023e-01,2.729641694e-02
6.622500000e+03,-2.148251840e+00,-5.635980153e-01,2.087459283e-01,-1.319218241e-01
6.622600000e+03,-2.408129020e+00,-1.168974151e+00,9.372964169e-02,-2.205700326e-01
6.622700000e+03,-3.075060827e+00,-1.823107646e+00,-5.540716612e-02,-2.149185668e-01
6.622800000e+03,-1.409291175e+00,-2.467835581e+00,-2.101140065e-01,-1.677524430e-01
6.622900000e+03,-2.309891819e+00,-3.117199053e+00,-2.423127036e-01,-5.912052117e-03
6.623000000e+03,-1.770303054e+00,2.678312162e+00,-2.307328990e-01,1.152605863e-01
6.623100000e+03,-2.508505426e+00,1.945072812e+00,-8.661237785e-02,2.205048860e-01
6.623200000e+03,-2.193506032e+00,1.316732413e+00,6.174267101e-02,2.377687296e-01
6.623300000e+03,-3.031848668e+00,6.615811062e-01,1.759934853e-01,1.370358306e-01
6.623400000e+03,-8.829743356e-01,2.248715577e-01,2.784690554e-01,6.369706840e-02
6.623500000e+03,-1.948686397e+00,-2.998779600e-01,2.414006515e-01,-7.464169381e-02
6.623600000e+03,-1.036519194e+00,-1.301241104e+00,7.473941368e-02,-2.705211726e-01
6.623700000e+03,-2.439343101e+00,-1.633993681e+00,-1.508143322e-02,-2.383224756e-01
6.623800000e+03,-1.549034263e+00,-2.576794437e+00,-2.234853420e-01,-1.416123779e-01
6.623900000e+03,-1.724694153e+00,-2.950541483e+00,-2.545602606e-01,-4.923452769e-02
6.624000000e+03,-2.263961872e+00,2.672175993e+00,-2.173127036e-01,1.102280130e-01
6.624100000e+03,-1.610813332e+00,1.904682826e+00,-8.609120521e-02,2.481921824e-01
6.624200000e+03,-7.472420308e-01,1.329806425e+00,6.925081433e-02,2.817752443e-01
6.624300000e+03,-2.094840201e+00,7.734856875e-01,1.777687296e-01,1.735830619e-01
6.624400000e+03,-1.197192860e+00,3.157218815e-02,2.753745928e-01,8.697068404e-03
6.624500000e+03,-1.732986350e+00,-5.988321273e-01,2.139576547e-01,-1.460097720e-01
6.624600000e+03,-1.466601911e+00,-1.105594357e+00,1.198208469e-01,-2.387133550e-01
6.624700000e+03,-2.417019100e+00,-1.920752970e+00,-8.208469055e-02,-2.249022801e-01
6.624800000e+03,-2.449197313e+00,-2.448445480e+00,-1.834853420e-01,-1.524104235e-01
6.624900000e+03,-3.218854799e+00,-3.050372141e+00,-2.173941368e-01,-1.988599349e-02
6.625000000e+03,-1.086512578e+00,2.662831464e+00,-2.476710098e-01,1.285504886e-01
6.625100000e+03,-1.835241783e+00,1.955579363e+00,-9.609120521e-02,2.372801303e-01
6.625200000e+03,-3.157343603e+00,1.360644652e+00,4.586319218e-02,2.150162866e-01
6.625300000e+03,-8.727883345e-01,7.619199794e-01,2.069218241e-01,1.974267101e-01
6.625400000e+03,-2.749616088e+00,-4.567683237e-02,2.301791531e-01,-1.052117264e-02
6.625500000e+03,-1.269489990e+00,-5.380376031e-01,2.346254072e-01,-1.400162866e-01
6.625600000e+03,-2.279299625e+00,-1.170282919e+00,9.483713355e-02,-2.239902280e-01
6.625700000e+03,-1.814988355e+00,-1.770146200e+00,-5.081433225e-02,-2.515146580e-01
6.625800000e+03,-1.414412120e+00,-2.558229764e+00,-2.242671010e-01,-1.480130293e-01
6.625900000e+03,-1.003416809e+00,-3.119912230e+00,-2.816612378e-01,-6.107491857e-03
6.626000000e+03,-3.698547910e+00,2.538501312e+00,-1.701302932e-01,1.171661238e-01
6.626100000e+03,-1.671082797e+00,2.047007843e+00,-1.195928339e-01,2.318566775e-01
6.626200000e+03,-2.859738228e-01,1.271804318e+00,9.013029316e-02,2.924104235e-01
6.626300000e+03,-2.982160058e+00,5.792635739e-01,1.877361564e-01,1.228013029e-01
6.626400000e+03,-9.845592114e-01,-2.555704244e-02,2.822475570e-01,-7.214983713e-03
6.626500000e+03,-1.600514817e+00,-5.475454722e-01,2.245602606e-01,-1.369218241e-01
6.626600000e+03,-2.591801830e+00,-1.215632640e+00,8.159609121e-02,-2.200000000e-01
6.626700000e+03,-2.296355466e+00,-1.762705316e+00,-4.630293160e-02,-2.383061889e-01
6.626800000e+03,-1.408359837e+00,-2.303147717e+00,-1.797882736e-01,-1.999511401e-01
6.626900000e+03,-3.576828725e+00,3.118111474e+00,-2.094299674e-01,4.918566775e-03
6.627000000e+03,-1.243566086e+00,2.446078228e+00,-2.103908795e-01,1.756026059e-01
6.627100000e+03,-2.072315735e+00,1.842989082e+00,-6.697068404e-02,2.399348534e-01
6.627200000e+03,-1.748817044e+00,1.202338123e+00,9.312703583e-02,2.412052117e-01
6.627300000e+03,-3.232590208e+00,7.283550609e-01,1.626547231e-01,1.450814332e-01
6.627400000e+03,-1.880736647e+00,-1.597970305e-01,2.514169381e-01,-4.052117264e-02
6.627500000e+03,-1.465081026e+00,-4.851338435e-01,2.363192182e-01,-1.245765472e-01
6.627600000e+03,-2.594568966e+00,-1.357768103e+00,4.959283388e-02,-2.292671010e-01
6.627700000e+03,-1.059204867e+00,-1.622893166e+00,-1.457654723e-02,-2.795439739e-01
6.627800000e+03,-2.119134389e+00,-2.418891642e+00,-1.858306189e-01,-1.638762215e-01
6.627900000e+03,-2.730777275e+00,3.085280396e+00,-2.305537459e-01,1.299674267e-02
6.628000000e+03,-2.138237756e+00,2.591987698e+00,-2.108143322e-01,1.291368078e-01
6.628100000e+03,-2.982693198e+00,2.012037813e+00,-9.579804560e-02,2.028338762e-01
6.628200000e+03,-2.183364894e+00,1.260144793e+00,7.517915309e-02,2.341693811e-01
6.628300000e+03,-3.218098342e+00,6.024448712e-01,1.798859935e-01,1.237133550e-01
6.628400000e+03,-2.310545997e+00,-2.405934805e-02,2.422964169e-01,-5.830618893e-03
6.628500000e+03,-1.996187883e+00,-4.466622583e-01,2.266449511e-01,-1.085504886e-01
6.628600000e+03,-1.494997277e+00,-1.115766835e+00,1.170032573e-01,-2.391368078e-01
6.628700000e+03,-2.346267902e+00,-1.876969823e+00,-7.275244300e-02,-2.301465798e-01
6.628800000e+03,-2.831671832e+00,-2.460065242e+00,-1.772638436e-01,-1.437947883e-01
6.628900000e+03,-7.340311796e-01,3.115753253e+00,-2.905048860e-01,7.508143322e-03
6.629000000e+03,-1.200464516e+00,2.495430404e+00,-2.198859935e-01,1.658306189e-01
6.629100000e+03,-8.079466363e-01,1.854608524e+00,-8.068403909e-02,2.766123779e-01
6.629200000e+03,-2.109421407e+00,1.241986089e+00,8.009771987e-02,2.347557003e-01
6.629300000e+03,-3.968767802e+00,5.697297013e-01,1.686156352e-01,1.080130293e-01
6.629400000e+03,-2.123011334e+00,1.527693254e-01,2.447719870e-01,3.768729642e-02
6.629500000e+03,-2.176741630e+00,-6.733354908e-01,1.924104235e-01,-1.534853420e-01
6.629600000e+03,-2.389202436e+00,-1.413027589e+00,3.773615635e-02,-2.371986971e-01
6.629700000e+03,-2.707219177e+00,-1.955848127e+00,-8.697068404e-02,-2.145928339e-01
6.629800000e+03,-3.112386042e+00,-2.544862092e+00,-1.828013029e-01,-1.241856678e-01
6.629900000e+03,-2.950372386e+00,2.869522917e+00,-2.168729642e-01,6.050488599e-02
