6.590000000e+03,-6.947586276e-01,-3.050806488e+00,-2.907166124e-01,-2.646579805e-02
6.590100000e+03,-1.088184983e+00,2.588828596e+00,-2.374429967e-01,1.464820847e-01
6.590200000e+03,-1.404977445e+00,2.165381539e+00,-1.506840391e-01,2.228338762e-01
6.590300000e+03,-9.067252013e-01,1.487460439e+00,2.371335505e-02,2.838925081e-01
6.590400000e+03,-2.402529948e-02,7.831705076e-01,2.234853420e-01,2.224918567e-01
6.590500000e+03,-5.221241516e-01,1.006972348e-01,2.962703583e-01,2.993485342e-02
6.590600000e+03,-1.318820955e+00,-4.369422368e-01,2.461563518e-01,-1.149674267e-01
6.590700000e+03,-1.056089794e+00,-1.012301818e+00,1.483876221e-01,-2.374755700e-01
6.590800000e+03,-1.154874242e-01,-1.740715698e+00,-5.276872964e-02,-3.075570033e-01
6.590900000e+03,-6.732884631e-01,-2.326990197e+00,-2.007980456e-01,-2.128827362e-01
6.591000000e+03,-1.269000837e+00,-2.869736489e+00,-2.632084691e-01,-7.337133550e-02
6.591100000e+03,-1.205237388e+00,2.633528654e+00,-2.404885993e-01,1.339087948e-01
6.591200000e+03,-1.256573028e+00,1.995438689e+00,-1.127361564e-01,2.493322476e-01
6.591300000e+03,-2.449605639e+00,1.443790391e+00,3.021172638e-02,2.365960912e-01
6.591400000e+03,-6.462046983e-01,7.299366524e-01,2.187622150e-01,1.957491857e-01
6.591500000e+03,-8.277842894e-01,1.438840086e-01,2.845114007e-01,4.122149837e-02
6.591600000e+03,-6.058020967e-01,-4.969447448e-01,2.592508143e-01,-1.406026059e-01
6.591700000e+03,-1.049290663e-01,-1.164296000e+00,1.235342020e-01,-2.869706840e-01
6.591800000e+03,-1.491048413e+00,-1.561562809e+00,2.459283388e-03,-2.663355049e-01
6.591900000e+03,-3.170259194e-01,-2.308773083e+00,-2.051302932e-01,-2.255700326e-01
6.592000000e+03,-1.052808570e+00,-2.943319131e+00,-2.746416938e-01,-5.517915309e-02
6.592100000e+03,9.531018006e-02,2.586006386e+00,-2.716286645e-01,1.686319218e-01
6.592200000e+03,-1.233557996e+00,2.047585354e+00,-1.259120521e-01,2.437622150e-01
6.592300000e+03,-9.070347517e-01,1.573826447e+00,-8.631921824e-04,2.848697068e-01
6.592400000e+03,-7.852036715e-01,7.344702993e-01,2.144136808e-01,1.936156352e-01
6.592500000e+03,-1.390783046e+00,2.375457633e-01,2.618729642e-01,6.340390879e-02
6.592600000e+03,-1.383009099e-01,-4.836346479e-01,2.755374593e-01,-1.447231270e-01
6.592700000e+03,-8.219473603e-01,-1.174014982e+00,1.111726384e-01,-2.653257329e-01
6.592800000e+03,-5.552993051e-01,-1.841011393e+00,-7.918566775e-02,-2.858794788e-01
6.592900000e+03,-7.890878662e-01,-2.326159237e+00,-1.979641694e-01,-2.102280130e-01
6.593000000e+03,-2.623740853e-01,-3.048457750e+00,-3.054885993e-01,-2.853420195e-02
6.593100000e+03,-2.129439160e-01,2.630387765e+00,-2.691205212e-01,1.509609121e-01
6.593200000e+03,-6.764245890e-01,2.023164815e+00,-1.278664495e-01,2.631107492e-01
6.593300000e+03,-1.485606599e+00,1.360373086e+00,5.566775244e-02,2.606351792e-01
6.593400000e+03,-8.543573451e-01,8.563391810e-01,1.877850163e-01,2.165146580e-01
6.593500000e+03,-3.465523153e-01,9.878331939e-02,3.023778502e-01,2.996742671e-02
6.593600000e+03,-6.726850762e-01,-3.377831141e-01,2.761237785e-01,-9.698697068e-02
6.593700000e+03,-6.797527667e-01,-1.062972934e+00,1.421986971e-01,-2.555211726e-01
6.593800000e+03,-1.603054264e+00,-1.798347299e+00,-5.931596091e-02,-2.561563518e-01
6.593900000e+03,-1.606297893e+00,-2.434969255e+00,-1.999022801e-01,-1.706514658e-01
6.594000000e+03,-4.571905942e-01,-3.053262413e+00,-2.988436482e-01,-2.646579805e-02
6.594100000e+03,-2.057710011e-01,2.617318144e+00,-2.673452769e-01,1.545928339e-01
6.594200000e+03,-1.156524070e+00,2.002152090e+00,-1.157328990e-01,2.514495114e-01
6.594300000e+03,-1.970590620e+00,1.264923942e+00,7.589576547e-02,2.403420195e-01
6.594400000e+03,-1.553765976e+00,8.104865639e-01,1.822312704e-01,1.916123779e-01
6.594500000e+03,-1.168353553e+00,2.602835905e-01,2.671172638e-01,7.114006515e-02
6.594600000e+03,-1.166314550e+00,-4.635685805e-01,2.473127036e-01,-1.236319218e-01
6.594700000e+03,1.456073500e-01,-1.103411476e+00,1.448859935e-01,-2.870846906e-01
6.594800000e+03,-1.472777150e+00,-1.793337118e+00,-5.890879479e-02,-2.603257329e-01
6.594900000e+03,-1.562831135e+00,-2.448796352e+00,-2.032573290e-01,-1.687133550e-01
6.595000000e+03,-4.456140931e-01,-2.922388596e+00,-2.932247557e-01,-6.532573290e-02
6.595100000e+03,-1.849260061e+00,2.704707568e+00,-2.315798046e-01,1.081433225e-01
6.595200000e+03,-1.403229422e+00,1.945940855e+00,-9.858306189e-02,2.503420195e-01
6.595300000e+03,-6.128555703e-01,1.412007904e+00,4.659609121e-02,2.909771987e-01
6.595400000e+03,-4.285991515e-01,7.375930385e-01,2.227687296e-01,2.024267101e-01
6.595500000e+03,2.093253525e-01,1.204013368e-01,3.215960912e-01,3.890879479e-02
6.595600000e+03,-2.380759643e+00,-5.536876083e-01,2.044951140e-01,-1.264169381e-01
6.595700000e+03,-1.261554847e+00,-1.212464782e+00,9.591205212e-02,-2.561074919e-01
6.595800000e+03,-5.870896122e-01,-1.734078828e+00,-4.804560261e-02,-2.916286645e-01
6.595900000e+03,-9.680927191e-01,-2.427745606e+00,-2.138110749e-01,-1.852117264e-01
6.596000000e+03,-1.124311425e+00,-3.037706783e+00,-2.763355049e-01,-2.881107492e-02
6.596100000e+03,-4.122233284e-02,2.784439105e+00,-2.948697068e-01,1.100325733e-01
6.596200000e+03,-2.489323926e-01,2.007135319e+00,-1.298697068e-01,2.785016287e-01
6.596300000e+03,-1.346942574e-01,1.309159517e+00,8.053745928e-02,3.007654723e-01
6.596400000e+03,-1.106586561e+00,7.159297662e-01,2.100488599e-01,1.827198697e-01
6.596500000e+03,-2.509923162e+00,3.995945007e-02,2.366775244e-01,9.462540717e-03
6.596600000e+03,-6.819890002e-01,-5.196090804e-01,2.537622150e-01,-1.451628664e-01
6.596700000e+03,-1.275664158e+00,-1.109362874e+00,1.215635179e-01,-2.444788274e-01
6.596800000e+03,-5.266198375e-02,-1.822687033e+00,-7.833876221e-02,-3.043973941e-01
6.596900000e+03,-5.696654978e-01,-2.383807481e+00,-2.151140065e-01,-2.035504886e-01
6.597000000e+03,-2.497847675e-01,-3.121078089e+00,-3.071986971e-01,-6.302931596e-03
6.597100000e+03,-1.196464745e+00,2.594553553e+00,-2.353257329e-01,1.433224756e-01
6.597200000e+03,-1.282737394e+00,1.903515535e+00,-8.910423453e-02,2.578501629e-01
6.597300000e+03,-1.057921421e+00,1.247077380e+00,8.905537459e-02,2.654234528e-01
6.597400000e+03,-6.827833024e-01,7.878013420e-01,2.062052117e-01,2.071986971e-01
6.597500000e+03,-1.773840114e+00,2.221017795e-01,2.514820847e-01,5.679153094e-02
6.597600000e+03,-9.595386593e-01,-4.583743460e-01,2.539250814e-01,-1.252931596e-01
6.597700000e+03,-4.547474422e-01,-1.280114069e+00,8.600977199e-02,-2.875081433e-01
6.597800000e+03,-5.992767685e-02,-1.772229577e+00,-6.283387622e-02,-3.077035831e-01
6.597900000e+03,-6.029613768e-01,-2.479155042e+00,-2.326221498e-01,-1.814495114e-01
6.598000000e+03,-4.434302656e-01,3.108632794e+00,-3.003257329e-01,9.902280130e-03
6.598100000e+03,-5.240142574e-01,2.658763215e+00,-2.636807818e-01,1.382247557e-01
6.598200000e+03,-1.285835523e+00,2.063880202e+00,-1.290879479e-01,2.402280130e-01
6.598300000e+03,-1.952457498e+00,1.346447969e+00,5.618892508e-02,2.462377850e-01
6.598400000e+03,-3.787812056e-01,6.980583949e-01,2.319218241e-01,1.945765472e-01
6.598500000e+03,-8.539348816e-01,5.150490618e-02,2.862377850e-01,1.475570033e-02
6.598600000e+03,-1.389287906e+00,-6.008928943e-01,2.222801303e-01,-1.523615635e-01
6.598700000e+03,-1.047298053e+00,-1.155368335e+00,1.131270358e-01,-2.564657980e-01
6.598800000e+03,-1.347140897e-01,-1.794548830e+00,-6.908794788e-02,-3.035993485e-01
6.598900000e+03,-1.893983540e+00,-2.466111475e+00,-1.984364821e-01,-1.589902280e-01
6.599000000e+03,-1.016520368e+00,-3.088881786e+00,-2.809120521e-01,-1.482084691e-02
6.599100000e+03,-1.159838289e-01,2.598989008e+00,-2.672149837e-01,1.611237785e-01
6.599200000e+03,-2.377023720e-01,1.851844330e+00,-8.534201954e-02,2.956188925e-01
6.599300000e+03,-3.862001178e-01,1.336369708e+00,7.026058632e-02,2.942019544e-01
6.599400000e+03,-1.934218767e+00,7.958637442e-01,1.770846906e-01,1.808306189e-01
6.599500000e+03,-7.012176474e-02,1.388131375e-01,3.106677524e-01,4.340390879e-02
6.599600000e+03,-1.509351567e+00,-6.140592686e-01,2.172312704e-01,-1.531433225e-01
6.599700000e+03,-1.746274107e+00,-1.308741757e+00,6.700325733e-02,-2.498045603e-01
6.599800000e+03,-2.062510402e-01,-1.851624306e+00,-8.558631922e-02,-2.967100977e-01
6.599900000e+03,-1.658093026e+00,-2.519835922e+00,-2.123778502e-01,-1.521824104e-01
6.600000000e+03,-8.400806236e-01,-3.134614439e+00,-2.870684039e-01,-2.003257329e-03
6.600100000e+03,-8.637835000e-01,2.493392577e+00,-2.282247557e-01,1.728501629e-01
6.600200000e+03,-7.250007188e-03,1.869871297e+00,-9.309446254e-02,3.019381107e-01
6.600300000e+03,3.098277064e-01,1.266491346e+00,9.819218241e-02,3.126547231e-01
6.600400000e+03,-8.284449979e-01,6.460506783e-01,2.295276873e-01,1.730618893e-01
6.600500000e+03,-1.118473543e+00,7.840283006e-02,2.771661238e-01,2.177524430e-02
6.600600000e+03,-1.231440523e+00,-5.650223073e-01,2.317752443e-01,-1.469381107e-01
6.600700000e+03,-1.669683288e+00,-1.157052748e+00,1.049022801e-01,-2.389087948e-01
6.600800000e+03,-1.448146130e-01,-1.906408429e+00,-1.024267101e-01,-2.936482085e-01
6.600900000e+03,-1.398065005e+00,-2.362953456e+00,-1.916449511e-01,-1.890716612e-01
6.601000000e+03,-1.255409381e+00,3.134451193e+00,-2.736644951e-01,1.954397394e-03
6.601100000e+03,-1.169400910e+00,2.468471367e+00,-2.161074919e-01,1.723127036e-01
6.601200000e+03,-4.514451205e-01,1.876745990e+00,-9.042345277e-02,2.862703583e-01
6.601300000e+03,-4.023237980e-01,1.202731704e+00,1.086319218e-01,2.816938111e-01
6.601400000e+03,-5.188076437e-01,6.932192439e-01,2.291368078e-01,1.903583062e-01
6.601500000e+03,-1.998210251e+00,-2.586803699e-02,2.511563518e-01,-6.498371336e-03
6.601600000e+03,-6.651595464e-01,-6.078972529e-01,2.404397394e-01,-1.672964169e-01
6.601700000e+03,-5.307220656e-01,-1.258671847e+00,9.135179153e-02,-2.831107492e-01
6.601800000e+03,-3.902930822e-01,-1.890604871e+00,-9.504885993e-02,-2.870032573e-01
6.601900000e+03,-8.693144800e-01,-2.444944814e+00,-2.194462541e-01,-1.835830619e-01
6.602000000e+03,-1.368183728e+00,-3.132609415e+00,-2.701302932e-01,-2.426710098e-03
6.602100000e+03,-2.104634892e-01,2.505848236e+00,-2.483550489e-01,1.832736156e-01
6.602200000e+03,-7.749671485e-01,1.894274118e+00,-9.193811075e-02,2.742345277e-01
6.602300000e+03,-4.482688286e-01,1.397641472e+00,5.174267101e-02,2.958306189e-01
6.602400000e+03,-3.749117445e-01,6.209246125e-01,2.463355049e-01,1.762052117e-01
6.602500000e+03,4.056414555e-01,-1.617202428e-02,3.313029316e-01,-5.358306189e-03
6.602600000e+03,-1.164032556e+00,-7.107085645e-01,2.096091205e-01,-1.804234528e-01
6.602700000e+03,-1.096946193e+00,-1.293483961e+00,7.630293160e-02,-2.680618893e-01
6.602800000e+03,-1.147896550e+00,-1.873344572e+00,-8.255700326e-02,-2.644951140e-01
6.602900000e+03,-1.442764975e+00,-2.500742833e+00,-2.146905537e-01,-1.601302932e-01
6.603000000e+03,-8.838616003e-01,2.991639776e+00,-2.824267101e-01,4.267100977e-02
6.603100000e+03,-5.207599964e-01,2.356697178e+00,-2.107003257e-01,2.104885993e-01
6.603200000e+03,-6.316898903e-01,1.743129495e+00,-5.042345277e-02,2.896905537e-01
6.603300000e+03,-1.274337609e+00,1.123179569e+00,1.181921824e-01,2.461726384e-01
6.603400000e+03,-7.034962589e-01,5.477657596e-01,2.489576547e-01,1.518729642e-01
6.603500000e+03,-1.238476407e+00,1.410570716e-01,2.714820847e-01,3.855048860e-02
6.603600000e+03,-6.517389459e-01,-7.145214148e-01,2.216123779e-01,-1.922312704e-01
6.603700000e+03,5.426434813e-01,-1.389133900e+00,6.081433225e-02,-3.310749186e-01
6.603800000e+03,-8.233178292e-01,-2.033177793e+00,-1.283061889e-01,-2.574267101e-01
6.603900000e+03,-7.288901832e-02,-2.661894574e+00,-2.781921824e-01,-1.447231270e-01
6.604000000e+03,-3.463637951e-01,2.926894363e+00,-2.968892508e-01,6.473941368e-02
6.604100000e+03,-2.616717343e-01,2.441118563e+00,-2.345928339e-01,1.977850163e-01
6.604200000e+03,4.613231182e-01,1.905242356e+00,-1.094625407e-01,3.150000000e-01
6.604300000e+03,-7.726123311e-01,1.103699674e+00,1.302768730e-01,2.583224756e-01
6.604400000e+03,-4.573325855e-01,4.550530843e-01,2.694788274e-01,1.318566775e-01
6.604500000e+03,-2.838492885e-01,-4.961559508e-02,3.056840391e-01,-1.517915309e-02
6.604600000e+03,-3.417296537e-03,-6.962027807e-01,2.425407166e-01,-2.027198697e-01
6.604700000e+03,-1.078736125e+00,-1.414994784e+00,4.333876221e-02,-2.759120521e-01
6.604800000e+03,-5.161109559e-01,-1.961858223e+00,-1.135830619e-01,-2.754885993e-01
6.604900000e+03,1.450609969e-01,-2.515455202e+00,-2.605537459e-01,-1.884364821e-01
6.605000000e+03,-4.242710118e-01,3.121419051e+00,-3.010912052e-01,6.074918567e-03
6.605100000e+03,-6.511511256e-01,2.446008570e+00,-2.252280130e-01,1.880130293e-01
6.605200000e+03,-2.171241148e+00,1.850313182e+00,-6.794788274e-02,2.367263844e-01
6.605300000e+03,-4.885885304e-01,1.185393186e+00,1.123778502e-01,2.770032573e-01
6.605400000e+03,-2.162049050e-01,5.514128451e-01,2.627361564e-01,1.615960912e-01
6.605500000e+03,-3.194066274e-01,-1.532546208e-01,3.012377850e-01,-4.653094463e-02
6.605600000e+03,-8.988330240e-01,-5.922323483e-01,2.365798046e-01,-1.591693811e-01
6.605700000e+03,-1.000973022e+00,-1.282533596e+00,8.011400651e-02,-2.701791531e-01
6.605800000e+03,-3.129260330e-01,-1.954415920e+00,-1.141693811e-01,-2.828664495e-01
6.605900000e+03,2.874351285e-01,-2.603249630e+00,-2.806351792e-01,-1.675895765e-01
6.606000000e+03,-9.121059206e-01,3.021516231e+00,-2.826547231e-01,3.410423453e-02
6.606100000e+03,-8.788970199e-01,2.433640123e+00,-2.171172638e-01,1.858469055e-01
6.606200000e+03,-7.264387499e-01,1.757561467e+00,-5.400651466e-02,2.857980456e-01
6.606300000e+03,-1.596089967e-01,1.147581227e+00,1.275081433e-01,2.830781759e-01
6.606400000e+03,-6.001133871e-01,5.162164017e-01,2.566612378e-01,1.456677524e-01
6.606500000e+03,-4.949028160e-01,-5.427665899e-02,2.982736156e-01,-1.620521173e-02
6.606600000e+03,-1.744356710e+00,-7.983532286e-01,1.805374593e-01,-1.852768730e-01
6.606700000e+03,-2.111146254e-01,-1.384712525e+00,5.710097720e-02,-3.033061889e-01
6.606800000e+03,-8.868376406e-01,-2.093479870e+00,-1.425407166e-01,-2.474104235e-01
6.606900000e+03,-9.564301940e-02,-2.594921784e+00,-2.671824104e-01,-1.625895765e-01
6.607000000e+03,-1.344610468e+00,3.061177707e+00,-2.700000000e-01,2.175895765e-02
6.607100000e+03,-1.111421269e+00,2.411435859e+00,-2.073127036e-01,1.855863192e-01
6.607200000e+03,-1.676761901e+00,1.683605922e+00,-2.934853420e-02,2.590553746e-01
6.607300000e+03,-1.010076629e+00,1.140893799e+00,1.173289902e-01,2.558957655e-01
6.607400000e+03,-1.739373122e+00,4.939584153e-01,2.278990228e-01,1.227198697e-01
6.607500000e+03,-6.074381242e-01,-1.903220712e-01,2.895439739e-01,-5.578175896e-02
6.607600000e+03,-2.818392735e-01,-7.039002076e-01,2.333713355e-01,-1.981270358e-01
6.607700000e+03,-1.216551681e+00,-1.333304124e+00,6.467426710e-02,-2.671824104e-01
6.607800000e+03,-2.828981651e+00,-1.916008280e+00,-7.726384365e-02,-2.148534202e-01
6.607900000e+03,-4.508155857e-01,-2.656546259e+00,-2.656026059e-01,-1.399837134e-01
6.608000000e+03,-6.296363135e-01,3.078700619e+00,-2.935342020e-01,1.848534202e-02
6.608100000e+03,-8.871547780e-01,2.344134246e+00,-1.994462541e-01,2.043159609e-01
6.608200000e+03,-1.246849896e+00,1.779502039e+00,-5.675895765e-02,2.679967427e-01
6.608300000e+03,-1.225267290e+00,1.083860097e+00,1.285016287e-01,2.427035831e-01
6.608400000e+03,-2.147921322e+00,3.934517872e-01,2.280781759e-01,9.467426710e-02
6.608500000e+03,-3.329679324e-01,-1.529544818e-01,3.007817590e-01,-4.636807818e-02
6.608600000e+03,-5.111242075e-01,-8.731905245e-01,1.915309446e-01,-2.285016287e-01
6.608700000e+03,-1.633702736e+00,-1.505481031e+00,1.710097720e-02,-2.614495114e-01
6.608800000e+03,-1.233028283e+00,-1.977737977e+00,-1.085993485e-01,-2.519706840e-01
6.608900000e+03,2.941320942e-01,-2.689011417e+00,-2.941856678e-01,-1.430456026e-01
6.609000000e+03,-7.420849513e-01,3.065621010e+00,-2.894951140e-01,2.203583062e-02
6.609100000e+03,-1.454137951e+00,2.310626539e+00,-1.803257329e-01,1.975570033e-01
6.609200000e+03,-1.420537844e+00,1.709348052e+00,-3.708469055e-02,2.659446254e-01
6.609300000e+03,-1.724600436e+00,1.113918848e+00,1.143811075e-01,2.326872964e-01
6.609400000e+03,-1.085093445e+00,4.792024319e-01,2.476547231e-01,1.286807818e-01
6.609500000e+03,-5.241717341e-01,-8.259151180e-02,2.966938111e-01,-2.456026059e-02
6.609600000e+03,-1.535657473e-01,-8.705341349e-01,2.002117264e-01,-2.375732899e-01
6.609700000e+03,-1.227137307e+00,-1.511918589e+00,1.615635179e-02,-2.740879479e-01
6.609800000e+03,-5.539860433e-01,-2.014974805e+00,-1.274918567e-01,-2.678990228e-01
6.609900000e+03,-7.712783365e-01,-2.775614972e+00,-2.701954397e-01,-1.035504886e-01
6.610000000e+03,-1.270416263e+00,2.853687512e+00,-2.619543974e-01,7.757328990e-02
6.610100000e+03,-3.139566145e+00,2.276600035e+00,-1.428990228e-01,1.676710098e-01
6.610200000e+03,-1.608515943e+00,1.644682710e+00,-1.939739414e-02,2.620521173e-01
6.610300000e+03,-3.521521503e-01,1.037413458e+00,1.543973941e-01,2.614820847e-01
6.610400000e+03,-7.575215746e-01,4.309202305e-01,2.633224756e-01,1.210586319e-01
6.610500000e+03,-5.557993107e-01,-2.051378269e-01,2.904071661e-01,-6.042345277e-02
6.610600000e+03,-1.123333207e+00,-8.563719494e-01,1.820521173e-01,-2.099185668e-01
6.610700000e+03,-9.845563789e-01,-1.393527720e+00,4.978827362e-02,-2.779153094e-01
6.610800000e+03,-1.798741600e+00,-2.148730564e+00,-1.404397394e-01,-2.153257329e-01
6.610900000e+03,-2.683161668e+00,-2.668879195e+00,-2.067263844e-01,-1.057166124e-01
6.611000000e+03,-1.275726280e+00,2.863260220e+00,-2.625244300e-01,7.501628664e-02
6.611100000e+03,-1.768585077e+00,2.370569783e+00,-1.850162866e-01,1.797719870e-01
6.611200000e+03,-7.634352813e-01,1.754019781e+00,-5.276872964e-02,2.847719870e-01
6.611300000e+03,-8.488859883e-01,9.366430755e-01,1.699185668e-01,2.310260586e-01
6.611400000e+03,-1.069079629e+00,4.415818301e-01,2.527850163e-01,1.194951140e-01
6.611500000e+03,-6.178296931e-01,-4.351538755e-01,2.670684039e-01,-1.241530945e-01
6.611600000e+03,-2.479770599e-01,-8.547032601e-01,2.017426710e-01,-2.318403909e-01
6.611700000e+03,-1.225608297e+00,-1.541612731e+00,8.013029316e-03,-2.744951140e-01
6.611800000e+03,-1.099701449e+00,-2.089159401e+00,-1.380456026e-01,-2.420195440e-01
6.611900000e+03,-5.512053184e-01,-2.832510633e+00,-2.827198697e-01,-9.027687296e-02
6.612000000e+03,-1.386378398e+00,2.967931895e+00,-2.655211726e-01,4.657980456e-02
6.612100000e+03,-1.495911666e+00,2.271080832e+00,-1.715472313e-01,2.035504886e-01
6.612200000e+03,-1.250319439e+00,1.590543908e+00,-5.407166124e-03,2.737785016e-01
6.612300000e+03,-7.001070179e-01,1.054170686e+00,1.441042345e-01,2.536644951e-01
6.612400000e+03,-6.930220706e-01,3.288063555e-01,2.763355049e-01,9.428338762e-02
6.612500000e+03,-1.255769438e+00,-2.049705536e-01,2.679315961e-01,-5.570032573e-02
6.612600000e+03,-9.106117472e-01,-8.663327682e-01,1.844136808e-01,-2.169706840e-01
6.612700000e+03,-5.685773475e-01,-1.612873843e+00,-1.245928339e-02,-2.959283388e-01
6.612800000e+03,-9.321630957e-01,-2.088164475e+00,-1.404885993e-01,-2.468729642e-01
6.612900000e+03,-2.777788398e+00,-2.743097726e+00,-2.116775244e-01,-8.912052117e-02
6.613000000e+03,-9.039459560e-01,2.842597901e+00,-2.723289902e-01,8.394136808e-02
6.613100000e+03,-3.139734698e-03,2.204312400e+00,-1.871335505e-01,2.547719870e-01
6.613200000e+03,-1.205705817e+00,1.533331629e+00,1.030944625e-02,2.750488599e-01
6.613300000e+03,-9.833065320e-01,9.962151992e-01,1.534690554e-01,2.370358306e-01
6.613400000e+03,-6.764744100e-01,3.852620921e-01,2.710912052e-01,1.099348534e-01
6.613500000e+03,-3.906961854e-01,-3.181218884e-01,2.871498371e-01,-9.456026059e-02
6.613600000e+03,-9.033844200e-01,-9.522143142e-01,1.652605863e-01,-2.321824104e-01
6.613700000e+03,-1.420815361e+00,-1.412368662e+00,4.236156352e-02,-2.651465798e-01
6.613800000e+03,-1.688926294e+00,-2.107106805e+00,-1.330293160e-01,-2.237947883e-01
6.613900000e+03,-6.457134101e-01,-2.867613791e+00,-2.826221498e-01,-7.942996743e-02
6.614000000e+03,-1.332988747e+00,2.890555665e+00,-2.627361564e-01,6.737785016e-02
6.614100000e+03,-1.038731076e+00,2.142747627e+00,-1.518729642e-01,2.359283388e-01
6.614200000e+03,-1.356948083e+00,1.617537424e+00,-1.263843648e-02,2.701954397e-01
6.614300000e+03,-2.668980110e+00,9.452797469e-01,1.361726384e-01,1.885342020e-01
6.614400000e+03,-1.087514307e+00,2.410712164e-01,2.709446254e-01,6.661237785e-02
6.614500000e+03,-1.812905132e+00,-3.484023440e-01,2.412377850e-01,-8.762214984e-02
6.614600000e+03,-1.232082947e+00,-9.650639755e-01,1.562377850e-01,-2.255863192e-01
6.614700000e+03,-1.378443837e+00,-1.567536847e+00,8.794788274e-04,-2.698208469e-01
6.614800000e+03,-1.000575027e+00,-2.148252083e+00,-1.538436482e-01,-2.361237785e-01
6.614900000e+03,-3.887479416e-01,-2.742712280e+00,-2.786482085e-01,-1.174429967e-01
6.615000000e+03,-1.491902135e+00,2.862864585e+00,-2.560423453e-01,7.327361564e-02
6.615100000e+03,-8.163700554e-01,2.175339058e+00,-1.636156352e-01,2.368403909e-01
6.615200000e+03,-1.006218812e+00,1.636652851e+00,-1.853420195e-02,2.810260586e-01
6.615300000e+03,-9.616771837e-01,8.109084382e-01,1.950000000e-01,2.052117264e-01
6.615400000e+03,-2.159779565e+00,1.890803356e-01,2.422149837e-01,4.635179153e-02
6.615500000e+03,-1.511329640e+00,-3.289025655e-01,2.514820847e-01,-8.583061889e-02
6.615600000e+03,-1.021845778e+00,-1.039736091e+00,1.423778502e-01,-2.424104235e-01
6.615700000e+03,-1.425829048e+00,-1.546274774e+00,6.579804560e-03,-2.682736156e-01
6.615800000e+03,-1.755716322e+00,-2.162960182e+00,-1.442019544e-01,-2.143648208e-01
6.615900000e+03,-7.479444068e-01,-2.907859874e+00,-2.822475570e-01,-6.719869707e-02
6.616000000e+03,-1.283076071e+00,2.808986300e+00,-2.578501629e-01,8.907166124e-02
6.616100000e+03,-9.790120550e-01,2.148150319e+00,-1.542019544e-01,2.367263844e-01
6.616200000e+03,-2.022666449e+00,1.695151321e+00,-3.107491857e-02,2.485993485e-01
6.616300000e+03,-9.132961478e-01,9.199146448e-01,1.724755700e-01,2.264657980e-01
6.616400000e+03,-1.055223219e+00,1.833437872e-01,2.753583062e-01,5.105863192e-02
6.616500000e+03,-1.156473237e+00,-4.288284810e-01,2.517426710e-01,-1.150977199e-01
6.616600000e+03,-1.400355981e+00,-8.771814976e-01,1.720684039e-01,-2.069543974e-01
6.616700000e+03,-1.397975947e+00,-1.633875529e+00,-1.697068404e-02,-2.686807818e-01
6.616800000e+03,-5.973856350e-01,-2.247648207e+00,-1.849022801e-01,-2.301302932e-01
6.616900000e+03,-1.244687837e+00,-2.748657837e+00,-2.531270358e-01,-1.049185668e-01
6.617000000e+03,-1.974496453e+00,2.698415855e+00,-2.275895765e-01,1.080293160e-01
6.617100000e+03,-9.242964708e-01,2.137872640e+00,-1.527198697e-01,2.398045603e-01
6.617200000e+03,-5.090557599e-01,1.444802089e+00,3.747557003e-02,2.958631922e-01
6.617300000e+03,-2.057503136e+00,8.550056262e-01,1.637459283e-01,1.882899023e-01
6.617400000e+03,-2.239802131e+00,3.093144333e-01,2.327524430e-01,7.438110749e-02
6.617500000e+03,-7.048448482e-01,-3.017719399e-01,2.784039088e-01,-8.666123779e-02
6.617600000e+03,3.953463396e-01,-1.100018086e+00,1.501140065e-01,-2.949511401e-01
6.617700000e+03,-1.022022659e+00,-1.573229553e+00,-6.840390879e-04,-2.811237785e-01
6.617800000e+03,-1.542984799e+00,-2.335879687e+00,-1.833713355e-01,-1.909771987e-01
6.617900000e+03,-7.240962778e-01,-2.921381436e+00,-2.839087948e-01,-6.355048860e-02
6.618000000e+03,-1.992508258e+00,2.720053179e+00,-2.293973941e-01,1.028664495e-01
6.618100000e+03,-9.885661621e-01,2.243653557e+00,-1.758794788e-01,2.207003257e-01
6.618200000e+03,-1.156570859e+00,1.474505802e+00,2.661237785e-02,2.755211726e-01
6.618300000e+03,-9.582373999e-01,9.008605354e-01,1.758469055e-01,2.219869707e-01
6.618400000e+03,-1.281932338e+00,3.777684194e-01,2.535993485e-01,1.006351792e-01
6.618500000e+03,-9.905558082e-01,-4.094092343e-01,2.588273616e-01,-1.123127036e-01
6.618600000e+03,-1.891944026e+00,-9.483136050e-01,1.482899023e-01,-2.066286645e-01
6.618700000e+03,-1.091229864e+00,-1.628057013e+00,-1.596091205e-02,-2.784364821e-01
6.618800000e+03,-2.566074439e+00,-2.470018447e+00,-1.842345277e-01,-1.464332248e-01
6.618900000e+03,-1.721590234e+00,-2.870797059e+00,-2.499185668e-01,-6.938110749e-02
6.619000000e+03,-2.270301074e+00,2.898820275e+00,-2.363517915e-01,5.853420195e-02
6.619100000e+03,-2.556559734e+00,2.081205032e+00,-1.150977199e-01,2.055700326e-01
6.619200000e+03,-1.770739764e+00,1.578626921e+00,-2.019543974e-03,2.578990228e-01
6.619300000e+03,-1.626103702e+00,8.459952722e-01,1.738599349e-01,1.963192182e-01
6.619400000e+03,-2.038854462e+00,1.399628210e-01,2.476221498e-01,3.488599349e-02
6.619500000e+03,-2.886947726e+00,-5.004585328e-01,1.989902280e-01,-1.088273616e-01
6.619600000e+03,-1.012295296e+00,-1.204013040e+00,1.009283388e-01,-2.627198697e-01
6.619700000e+03,-2.113097660e+00,-1.679262828e+00,-2.684039088e-02,-2.464820847e-01
6.619800000e+03,-8.426603796e-01,-2.273999679e+00,-1.855863192e-01,-2.189087948e-01
6.619900000e+03,-1.936374745e+00,-2.977629111e+00,-2.496416938e-01,-4.130293160e-02
6.620000000e+03,-2.151578841e+00,2.820593226e+00,-2.342345277e-01,7.788273616e-02
6.620100000e+03,-1.188009285e+00,2.154442373e+00,-1.519869707e-01,2.301465798e-01
6.620200000e+03,-1.222012146e+00,1.516169260e+00,1.500000000e-02,2.743159609e-01
6.620300000e+03,-1.074911248e+00,7.558010030e-01,2.033387622e-01,1.916449511e-01
6.620400000e+03,-2.151794340e+00,1.637710736e-01,2.435342020e-01,4.024429967e-02
6.620500000e+03,-5.978351442e-01,-3.488841327e-01,2.774104235e-01,-1.009120521e-01
6.620600000e+03,-2.042098248e+00,-8.679578532e-01,1.615798046e-01,-1.907328990e-01
6.620700000e+03,-1.917392652e+00,-1.713992212e+00,-3.618892508e-02,-2.509934853e-01
6.620800000e+03,-1.889423861e+00,-2.293185523e+00,-1.682084691e-01,-1.908631922e-01
6.620900000e+03,-2.335071129e+00,-2.923552307e+00,-2.359609121e-01,-5.228013029e-02
6.621000000e+03,-9.990260844e-01,2.644837543e+00,-2.478013029e-01,1.343322476e-01
6.621100000e+03,-2.597917608e+00,2.071168581e+00,-1.124918567e-01,2.057328990e-01
6.621200000e+03,-1.129501283e+00,1.523854911e+00,1.302931596e-02,2.773615635e-01
6.621300000e+03,-1.548897359e+00,8.042901254e-01,1.835179153e-01,1.905863192e-01
6.621400000e+03,-1.959164291e+00,1.681935670e-01,2.488110749e-01,4.224755700e-02
6.621500000e+03,-3.783076702e+00,-2.838769070e-01,1.963843648e-01,-5.729641694e-02
6.621600000e+03,-2.209189977e+00,-9.977707717e-01,1.329478827e-01,-2.060423453e-01
6.621700000e+03,-1.997241526e+00,-1.790210502e+00,-5.469055375e-02,-2.452442997e-01
6.621800000e+03,-1.490363468e+00,-2.326141687e+00,-1.826058632e-01,-1.939250814e-01
6.621900000e+03,-6.549528789e-01,-3.130318485e+00,-2.932410423e-01,-3.306188925e-03
6.622000000e+03,-1.336035180e+00,2.577282062e+00,-2.291042345e-01,1.450162866e-01
6.622100000e+03,-1.937720772e+00,2.192871775e+00,-1.474267101e-01,2.056026059e-01
6.622200000e+03,-1.794299688e+00,1.383025049e+00,4.801302932e-02,2.526872964e-01
6.622300000e+03,-2.227751184e+00,7.988122799e-01,1.706840391e-01,1.753257329e-01
6.622400000e+03,-1.702016477e+00,2.394171711e-01,2.525407166e-01,6.164495114e-02
6.622500000e+03,-2.149058972e+00,-5.516074491e-01,2.102931596e-01,-1.293973941e-01
6.622600000e+03,-2.526101567e+00,-1.305583464e+00,6.197068404e-02,-2.281596091e-01
6.622700000e+03,-1.945590331e+00,-1.669734084e+00,-2.496742671e-02,-2.515309446e-01
6.622800000e+03,-1.225256705e+00,-2.328303918e+00,-1.886970684e-01,-1.995276873e-01
6.622900000e+03,-3.327983149e+00,-3.087472897e+00,-2.152605863e-01,-1.166123779e-02
6.623000000e+03,-8.779794225e-01,2.635529099e+00,-2.500000000e-01,1.385504886e-01
6.623100000e+03,-2.137834290e+00,2.056010606e+00,-1.153094463e-01,2.186970684e-01
6.623200000e+03,-1.915723983e+00,1.415940348e+00,3.912052117e-02,2.506026059e-01
6.623300000e+03,-1.684121129e+00,6.640975405e-01,2.051302932e-01,1.605537459e-01
6.623400000e+03,-1.501527760e+00,2.665849601e-01,2.566286645e-01,7.008143322e-02
6.623500000e+03,-1.195989179e+00,-6.169239520e-01,2.247557003e-01,-1.594136808e-01
6.623600000e+03,-2.369932957e+00,-1.241963708e+00,7.773615635e-02,-2.278175896e-01
6.623700000e+03,-1.145367811e+00,-1.733104816e+00,-4.478827362e-02,-2.735179153e-01
6.623800000e+03,-1.965487892e+00,-2.453800203e+00,-1.948534202e-01,-1.600977199e-01
6.623900000e+03,-9.941794348e-01,-3.006629326e+00,-2.794625407e-01,-3.794788274e-02
6.624000000e+03,-1.926437354e+00,2.747523577e+00,-2.339087948e-01,9.726384365e-02
6.624100000e+03,-3.732054427e+00,1.784614901e+00,-4.366449511e-02,2.010912052e-01
6.624200000e+03,-2.791305367e+00,1.329469483e+00,5.480456026e-02,2.226710098e-01
6.624300000e+03,-1.476838459e+00,6.872500630e-01,2.062214984e-01,1.692508143e-01
6.624400000e+03,-6.524629792e-01,1.146793212e-01,2.914169381e-01,3.356677524e-02
6.624500000e+03,-2.656326141e+00,-5.160843860e-01,2.025732899e-01,-1.149348534e-01
6.624600000e+03,-1.314423356e+00,-1.168925679e+00,1.063192182e-01,-2.501628664e-01
6.624700000e+03,-2.563419225e+00,-1.811093502e+00,-5.602605863e-02,-2.286482085e-01
6.624800000e+03,-2.044626450e+00,-2.511334940e+00,-2.018892508e-01,-1.472801303e-01
6.624900000e+03,-1.847147576e+00,-2.992217587e+00,-2.528013029e-01,-3.804560261e-02
6.625000000e+03,-2.945585283e+00,2.597676751e+00,-1.927687296e-01,1.165798046e-01
6.625100000e+03,-1.690632186e+00,1.994643072e+00,-1.070521173e-01,2.372638436e-01
6.625200000e+03,-8.629716558e-01,1.266998651e+00,8.565146580e-02,2.732084691e-01
6.625300000e+03,-1.293241464e+00,8.668055040e-01,1.763680782e-01,2.077035831e-01
6.625400000e+03,-2.294057624e+00,-4.716837205e-02,2.425570033e-01,-1.144951140e-02
6.625500000e+03,-1.803968058e+00,-5.501931592e-01,2.190065147e-01,-1.343322476e-01
6.625600000e+03,-1.669365412e+00,-1.198357002e+00,9.495114007e-02,-2.430456026e-01
6.625700000e+03,-1.894898207e+00,-1.845127578e+00,-6.887622150e-02,-2.447394137e-01
6.625800000e+03,-1.800550632e+00,-2.523339408e+00,-2.094462541e-01,-1.489739414e-01
6.625900000e+03,-2.412335713e+00,3.098064972e+00,-2.393159609e-01,1.042345277e-02
6.626000000e+03,-2.246837975e+00,2.385773893e+00,-1.776710098e-01,1.674592834e-01
6.626100000e+03,-3.575640363e+00,1.941385745e+00,-7.587947883e-02,1.952931596e-01
6.626200000e+03,-2.236063166e+00,1.275089453e+00,7.123778502e-02,2.338436482e-01
6.626300000e+03,-7.969114929e-01,7.045972949e-01,2.198045603e-01,1.868729642e-01
6.626400000e+03,-2.545577206e+00,2.140289469e-03,2.358957655e-01,5.048859935e-04
6.626500000e+03,-1.574874156e+00,-4.404242322e-01,2.386156352e-01,-1.124592834e-01
6.626600000e+03,-2.650228028e+00,-1.429521857e+00,3.281758958e-02,-2.307491857e-01
6.626700000e+03,-2.448882256e+00,-1.840683286e+00,-6.359934853e-02,-2.299022801e-01
6.626800000e+03,-1.477265184e+00,-2.534522806e+00,-2.191042345e-01,-1.521824104e-01
6.626900000e+03,-1.304680439e+00,-3.092196148e+00,-2.717915309e-01,-1.343648208e-02
6.627000000e+03,-2.575793166e+00,2.691144575e+00,-2.116286645e-01,1.023452769e-01
6.627100000e+03,-2.936962771e+00,1.975754497e+00,-8.884364821e-02,2.072638436e-01
6.627200000e+03,-1.029722211e+00,1.347083272e+00,6.231270358e-02,2.738762215e-01
6.627300000e+03,-3.793121569e+00,6.561427208e-01,1.619055375e-01,1.246579805e-01
6.627400000e+03,-2.543525162e+00,-9.214096024e-02,2.349511401e-01,-2.171009772e-02
6.627500000e+03,-1.219915915e+00,-6.348358760e-01,2.212540717e-01,-1.629641694e-01
6.627600000e+03,-2.135947693e+00,-1.280229010e+00,7.084690554e-02,-2.369218241e-01
6.627700000e+03,-2.378550603e+00,-1.982749163e+00,-9.628664495e-02,-2.203583062e-01
6.627800000e+03,-2.827253032e+00,-2.327950565e+00,-1.568566775e-01,-1.659771987e-01
6.627900000e+03,-1.970252115e+00,2.937277929e+00,-2.468078176e-01,5.114006515e-02
6.628000000e+03,-1.515057545e+00,2.493725724e+00,-2.117915309e-01,1.602931596e-01
6.628100000e+03,-2.723945967e+00,1.878305751e+00,-6.995114007e-02,2.202605863e-01
6.628200000e+03,-2.811216162e+00,1.313403770e+00,5.824104235e-02,2.212540717e-01
6.628300000e+03,-2.114357416e+00,5.578054271e-01,2.103257329e-01,1.312214984e-01
6.628400000e+03,-1.813977693e+00,4.342332820e-02,2.563843648e-01,1.114006515e-02
6.628500000e+03,-2.031497855e+00,-4.631819784e-01,2.239087948e-01,-1.118241042e-01
6.628600000e+03,-3.131859345e+00,-1.183130167e+00,8.335504886e-02,-2.041368078e-01
6.628700000e+03,-4.603197981e+00,-1.779500244e+00,-3.856677524e-02,-1.821009772e-01
6.628800000e+03,-2.666619513e+00,-2.503258336e+00,-1.868241042e-01,-1.386156352e-01
6.628900000e+03,-2.951889978e+00,2.990681488e+00,-2.225570033e-01,3.384364821e-02
6.629000000e+03,-9.169112863e-01,2.485418924e+00,-2.254560261e-01,1.735993485e-01
6.629100000e+03,-2.654054614e+00,1.763681175e+00,-4.465798046e-02,2.286482085e-01
6.629200000e+03,-4.502041884e+00,1.157217204e+00,7.568403909e-02,1.724429967e-01
6.629300000e+03,-3.830564466e+00,6.458705829e-01,1.624755700e-01,1.224592834e-01
6.629400000e+03,-2.290408746e+00,1.066000518e-02,2.429153094e-01,2.589576547e-03
6.629500000e+03,-1.412041292e+00,-4.060852551e-01,2.469218241e-01,-1.061726384e-01
6.629600000e+03,-2.993344309e+00,-1.318271569e+00,5.597719870e-02,-2.169381107e-01
6.629700000e+03,-1.532701952e+00,-1.875447887e+00,-7.951140065e-02,-2.528664495e-01
6.629800000e+03,-2.839110899e+00,-2.527204259e+00,-1.863517915e-01,-1.314657980e-01
6.629900000e+03,-2.994345754e+00,-3.042336348e+00,-2.229153094e-01,-2.219869707e-02
6.630000000e+03,-2.446010078e+00,2.553173581e+00,-1.984853420e-01,1.324429967e-01
6.630100000e+03,-2.326822991e+00,1.920780985e+00,-8.294788274e-02,2.272475570e-01
6.630200000e+03,-2.912295303e+00,1.283464643e+00,6.408794788e-02,2.168729642e-01
6.630300000e+03,-4.673868689e-01,6.596655557e-01,2.367915309e-01,1.836482085e-01
6.630400000e+03,-2.756922215e+00,-1.103598633e-02,2.302117264e-01,-2.540716612e-03
6.630500000e+03,-2.776138319e+00,-5.967334300e-01,1.900162866e-01,-1.290879479e-01
6.630600000e+03,-2.373884755e+00,-1.255296226e+00,7.465798046e-02,-2.287296417e-01
6.630700000e+03,-1.213128055e+00,-1.867018042e+00,-8.027687296e-02,-2.630293160e-01
6.630800000e+03,-2.878357861e+00,-2.498966749e+00,-1.817426710e-01,-1.360586319e-01
6.630900000e+03,-1.863986885e+00,-3.083537759e+00,-2.547231270e-01,-1.480456026e-02
6.631000000e+03,-2.272989999e+00,2.376918383e+00,-1.756514658e-01,1.685179153e-01
6.631100000e+03,-3.001482804e+00,1.878234530e+00,-6.773615635e-02,2.133387622e-01
6.631200000e+03,-4.071000202e+00,1.169535387e+00,7.729641694e-02,1.821824104e-01
6.631300000e+03,-3.583438795e+00,4.222295537e-01,1.909446254e-01,8.578175896e-02
6.631400000e+03,-3.082869792e+00,-8.242759545e-02,2.209934853e-01,-1.825732899e-02
6.631500000e+03,-2.942821474e+00,-8.970373588e-01,1.406026059e-01,-1.761074919e-01
6.631600000e+03,-2.527400646e+00,-1.269374641e+00,7.017915309e-02,-2.257328990e-01
6.631700000e+03,-2.202805410e+00,-1.994452199e+00,-1.008794788e-01,-2.236970684e-01
6.631800000e+03,-3.501046637e+00,-2.456801254e+00,-1.636807818e-01,-1.336644951e-01
6.631900000e+03,-1.892504568e+00,-3.139287182e+00,-2.543159609e-01,-5.863192182e-04
6.632000000e+03,-3.040027532e+00,2.354023951e+00,-1.572312704e-01,1.579153094e-01
6.632100000e+03,-1.827055651e+00,1.939818317e+00,-9.242671010e-02,2.389902280e-01
6.632200000e+03,-2.426772353e+00,1.227960213e+00,8.039087948e-02,2.252280130e-01
6.632300000e+03,-3.596224467e+00,6.306753051e-01,1.688110749e-01,1.232573290e-01
6.632400000e+03,-2.881153889e+00,-1.582471094e-01,2.241205212e-01,-3.576547231e-02
6.632500000e+03,-3.287897893e+00,-3.852403836e-01,2.007003257e-01,-8.138436482e-02
6.632600000e+03,-2.997140331e+00,-1.427325669e+00,3.201954397e-02,-2.216449511e-01
6.632700000e+03,-3.417999590e+00,-1.924054384e+00,-7.381107492e-02,-2.001791531e-01
6.632800000e+03,-1.756915912e+00,-2.745385358e+00,-2.383061889e-01,-9.969055375e-02
6.632900000e+03,-3.388140433e+00,2.889639548e+00,-2.073289902e-01,5.337133550e-02
6.633000000e+03,-3.289119041e+00,2.487561659e+00,-1.718566775e-01,1.317426710e-01
6.633100000e+03,-1.606994316e+00,1.599926336e+00,-7.654723127e-03,2.627035831e-01
6.633200000e+03,-3.795281891e+00,1.035886978e+00,1.041368078e-01,1.757491857e-01
6.633300000e+03,-1.187676729e+00,5.398017601e-01,2.365960912e-01,1.417589577e-01
6.633400000e+03,-1.778521902e+00,-2.559242776e-01,2.492833876e-01,-6.522801303e-02
6.633500000e+03,-3.043145881e+00,-7.530812749e-01,1.625244300e-01,-1.523452769e-01
6.633600000e+03,-2.599988707e+00,-1.392340993e+00,4.161237785e-02,-2.307003257e-01
6.633700000e+03,-1.262896171e+00,-1.872824867e+00,-8.133550489e-02,-2.610586319e-01
6.633800000e+03,-2.457621697e+00,-2.724145546e+00,-2.178338762e-01,-9.661237785e-02
6.633900000e+03,-3.674198117e+00,3.136560854e+00,-2.071498371e-01,1.042345277e-03
6.634000000e+03,-2.506755264e+00,2.443448600e+00,-1.815146580e-01,1.523127036e-01
6.634100000e+03,-2.942990795e+00,1.584311948e+00,-3.045602606e-03,2.253257329e-01
6.634200000e+03,-2.672784721e+00,1.123786691e+00,1.004885993e-01,2.096254072e-01
6.634300000e+03,-3.110867541e+00,4.505650441e-01,1.989739414e-01,9.625407166e-02
6.634400000e+03,-3.042314690e+00,-3.304198552e-01,2.107328990e-01,-7.228013029e-02
6.634500000e+03,-3.267103008e+00,-8.191433104e-01,1.482410423e-01,-1.585993485e-01
6.634600000e+03,-2.796191393e+00,-1.455705223e+00,2.631921824e-02,-2.276710098e-01
6.634700000e+03,-2.966351176e+00,-1.917505593e+00,-7.636807818e-02,-2.113680782e-01
6.634800000e+03,-4.659204477e+00,-2.727982108e+00,-1.693485342e-01,-7.433224756e-02
6.634900000e+03,-2.416736915e+00,2.861844682e+00,-2.301140065e-01,6.610749186e-02
6.635000000e+03,-2.708647761e+00,2.320868227e+00,-1.578175896e-01,1.693811075e-01
6.635100000e+03,-4.206509562e+00,1.787996472e+00,-4.198697068e-02,1.902605863e-01
6.635200000e+03,-2.641425562e+00,1.068552548e+00,1.123127036e-01,2.044951140e-01
6.635300000e+03,-3.279288959e+00,4.406982848e-01,1.960749186e-01,9.247557003e-02
6.635400000e+03,-2.497783788e+00,-2.560865417e-01,2.294625407e-01,-6.008143322e-02
6.635500000e+03,-1.696730950e+00,-7.104599486e-01,1.971824104e-01,-1.696416938e-01
6.635600000e+03,-2.966987560e+00,-1.469959425e+00,2.262214984e-02,-2.235830619e-01
6.635700000e+03,-4.014793219e+00,-2.014842906e+00,-8.557003257e-02,-1.798697068e-01
6.635800000e+03,-2.843032773e+00,-2.598011864e+00,-1.950977199e-01,-1.178990228e-01
6.635900000e+03,-3.825860060e+00,2.985993176e+00,-2.011074919e-01,3.154723127e-02
6.636000000e+03,-2.514247284e+00,2.386650322e+00,-1.724267101e-01,1.622312704e-01
6.636100000e+03,-2.429244506e+00,1.747402195e+00,-4.200325733e-02,2.353583062e-01
6.636200000e+03,-3.000078273e+00,1.004385152e+00,1.201302932e-01,1.889087948e-01
6.636300000e+03,-2.133860230e+00,4.999930898e-01,2.170684039e-01,1.185830619e-01
6.636400000e+03,-2.668234988e+00,-2.336166737e-01,2.262703583e-01,-5.384364821e-02
6.636500000e+03,-4.308827923e+00,-9.489834971e-01,1.121661238e-01,-1.565146580e-01
6.636600000e+03,-2.484020312e+00,-1.441347969e+00,3.066775244e-02,-2.355863192e-01
6.636700000e+03,-3.112011296e+00,-2.028149114e+00,-9.758957655e-02,-1.982899023e-01
6.636800000e+03,-2.903742883e+00,-2.693872901e+00,-2.040553746e-01,-9.799674267e-02
6.636900000e+03,-3.040990169e+00,2.900088661e+00,-2.163517915e-01,5.328990228e-02
6.637000000e+03,-2.347867305e+00,2.302578065e+00,-1.612540717e-01,1.795439739e-01
6.637100000e+03,-3.496256616e+00,1.647745450e+00,-1.625407166e-02,2.108143322e-01
6.637200000e+03,-2.095629347e+00,1.075363111e+00,1.181107492e-01,2.185667752e-01
6.637300000e+03,-3.599979355e+00,4.017289566e-01,1.922964169e-01,8.169381107e-02
6.637400000e+03,-2.074966917e+00,-2.963303738e-01,2.381758958e-01,-7.271986971e-02
6.637500000e+03,-2.494327534e+00,-8.646863158e-01,1.539739414e-01,-1.805537459e-01
6.637600000e+03,-2.980271486e+00,-1.287800650e+00,6.265472313e-02,-2.154560261e-01
6.637700000e+03,-2.835079528e+00,-2.159491849e+00,-1.266938111e-01,-1.897557003e-01
6.637800000e+03,-2.517407202e+00,-2.797642873e+00,-2.228013029e-01,-7.980456026e-02
6.637900000e+03,-2.577537342e+00,2.989385878e+00,-2.323127036e-01,3.563517915e-02
6.638000000e+03,-2.259739749e+00,2.108935839e+00,-1.249511401e-01,2.093322476e-01
6.638100000e+03,-2.221928846e+00,1.652302490e+00,-1.993485342e-02,2.440390879e-01
6.638200000e+03,-2.127101639e+00,1.055191985e+00,1.220521173e-01,2.153583062e-01
6.638300000e+03,-3.373603257e+00,5.203989867e-01,1.860586319e-01,1.066286645e-01
6.638400000e+03,-3.077416798e+00,-1.823088842e-01,2.182084691e-01,-4.022801303e-02
6.638500000e+03,-3.382635054e+00,-9.119069043e-01,1.311563518e-01,-1.693811075e-01
6.638600000e+03,-2.743172728e+00,-1.576799927e+00,-1.384364821e-03,-2.305863192e-01
6.638700000e+03,-2.459171851e+00,-2.191395458e+00,-1.385504886e-01,-1.938273616e-01
6.638800000e+03,-1.982524825e+00,-2.673835796e+00,-2.246579805e-01,-1.134853420e-01
6.638900000e+03,-3.467225369e+00,2.815156644e+00,-2.009446254e-01,6.802931596e-02
6.639000000e+03,-1.520889031e+00,2.184141205e+00,-1.527850163e-01,2.170521173e-01
6.639100000e+03,-3.992625430e+00,1.637559795e+00,-1.332247557e-02,1.992508143e-01
6.639200000e+03,-2.050823213e+00,9.552777340e-01,1.441856678e-01,2.038925081e-01
6.639300000e+03,-2.878888758e+00,4.636796932e-01,2.030456026e-01,1.015309446e-01
6.639400000e+03,-1.889217240e+00,-2.340634561e-01,2.474755700e-01,-5.900651466e-02
6.639500000e+03,-3.182626070e+00,-8.753541201e-01,1.404560261e-01,-1.683061889e-01
6.639600000e+03,-3.552108517e+00,-1.531015943e+00,8.355048860e-03,-2.099185668e-01
6.639700000e+03,-2.530110246e+00,-2.158665128e+00,-1.310586319e-01,-1.966449511e-01
6.639800000e+03,-3.666667552e+00,-2.861188916e+00,-1.992345277e-01,-5.737785016e-02
6.639900000e+03,-3.160177029e+00,2.791928963e+00,-2.064820847e-01,7.529315961e-02
6.640000000e+03,-4.240002092e+00,2.248171394e+00,-1.216449511e-01,1.512377850e-01
6.640100000e+03,-1.820996612e+00,1.658943266e+00,-2.257328990e-02,2.554234528e-01
6.640200000e+03,-2.507470889e+00,9.312958566e-01,1.414006515e-01,1.901140065e-01
6.640300000e+03,-2.653464507e+00,2.967463688e-01,2.228013029e-01,6.812703583e-02
6.640400000e+03,-2.799191331e+00,-2.775184931e-01,2.203420195e-01,-6.276872964e-02
6.640500000e+03,-2.802491945e+00,-8.468351823e-01,1.516938111e-01,-1.715798046e-01
6.640600000e+03,-3.849473690e+00,-1.478487702e+00,1.871335505e-02,-2.021498371e-01
6.640700000e+03,-2.531281831e+00,-2.148188691e+00,-1.289739414e-01,-1.979804560e-01
6.640800000e+03,-2.797630596e+00,-2.760809115e+00,-2.127361564e-01,-8.516286645e-02
6.640900000e+03,-2.496529849e+00,2.905505605e+00,-2.306514658e-01,5.548859935e-02
6.641000000e+03,-4.002358101e+00,2.066910968e+00,-9.495114007e-02,1.754234528e-01
6.641100000e+03,-3.331328173e+00,1.710160226e+00,-2.993485342e-02,2.134039088e-01
6.641200000e+03,-2.936963156e+00,1.034216578e+00,1.152768730e-01,1.938110749e-01
6.641300000e+03,-2.489246637e+00,2.180737300e-01,2.318078176e-01,5.136807818e-02
6.641400000e+03,-3.835541797e+00,-2.222482401e-01,1.983387622e-01,-4.482084691e-02
6.641500000e+03,-3.635657821e+00,-8.899187674e-01,1.309771987e-01,-1.616775244e-01
6.641600000e+03,-3.392344872e+00,-1.534483279e+00,7.768729642e-03,-2.138436482e-01
6.641700000e+03,-2.651489684e+00,-2.250339782e+00,-1.464495114e-01,-1.812703583e-01
6.641800000e+03,-3.552269250e+00,-2.686127374e+00,-1.886644951e-01,-9.241042345e-02
6.641900000e+03,-2.194372293e+00,2.733305383e+00,-2.254397394e-01,9.752442997e-02
6.642000000e+03,-3.398397380e+00,2.180474034e+00,-1.224429967e-01,1.753094463e-01
6.642100000e+03,-3.074066550e+00,1.572997512e+00,-4.885993485e-04,2.219706840e-01
6.642200000e+03,-2.292875613e+00,9.377302283e-01,1.436807818e-01,1.957980456e-01
6.642300000e+03,-2.612414791e+00,2.828200610e-01,2.247882736e-01,6.532573290e-02
6.642400000e+03,-2.805671104e+00,-3.488621724e-01,2.151465798e-01,-7.825732899e-02
6.642500000e+03,-3.272516881e+00,-8.978491151e-01,1.352280130e-01,-1.696579805e-01
6.642600000e+03,-3.349904593e+00,-1.605643904e+00,-7.491856678e-03,-2.149022801e-01
6.642700000e+03,-1.888214070e+00,-2.365292144e+00,-1.815472313e-01,-1.782736156e-01
6.642800000e+03,-3.283606837e+00,-2.946968395e+00,-2.125895765e-01,-4.190553746e-02
6.642900000e+03,-1.958184724e+00,2.786575487e+00,-2.366612378e-01,8.773615635e-02
6.643000000e+03,-3.023641776e+00,2.057119115e+00,-1.043485342e-01,1.973778502e-01
6.643100000e+03,-4.958216424e+00,1.586109624e+00,-2.736156352e-03,1.786644951e-01
6.643200000e+03,-1.821483062e+00,8.050721745e-01,1.777035831e-01,1.848371336e-01
6.643300000e+03,-3.060518653e+00,6.987211651e-02,2.217752443e-01,1.552117264e-02
6.643400000e+03,-3.290191468e+00,-3.877839030e-01,2.004397394e-01,-8.187296417e-02
6.643500000e+03,-2.859348664e+00,-1.032844321e+00,1.165798046e-01,-1.953908795e-01
6.643600000e+03,-2.518124297e+00,-1.503504826e+00,1.591205212e-02,-2.361074919e-01
6.643700000e+03,-2.564017430e+00,-2.320423785e+00,-1.603908795e-01,-1.722964169e-01
6.643800000e+03,-2.981799770e+00,-2.769107567e+00,-2.089576547e-01,-8.164495114e-02
6.643900000e+03,-3.543885072e+00,2.770593088e+00,-1.959771987e-01,7.623778502e-02
6.644000000e+03,-3.624887681e+00,2.050806684e+00,-9.620521173e-02,1.847882736e-01
6.644100000e+03,-4.474481017e+00,1.517234553e+00,1.011400651e-02,1.886482085e-01
6.644200000e+03,-2.691533356e+00,7.962710778e-01,1.622312704e-01,1.657980456e-01
6.644300000e+03,-3.699417598e+00,2.606227085e-01,1.995765472e-01,5.322475570e-02
6.644400000e+03,-3.403447139e+00,-3.387895666e-01,2.015635179e-01,-7.102605863e-02
6.644500000e+03,-2.560497489e+00,-9.629202776e-01,1.344951140e-01,-1.933061889e-01
6.644600000e+03,-2.958754515e+00,-1.500432895e+00,1.581433225e-02,-2.243811075e-01
6.644700000e+03,-4.157092381e+00,-2.219001836e+00,-1.183061889e-01,-1.562052117e-01
6.644800000e+03,-3.468462415e+00,-2.919800670e+00,-2.069218241e-01,-4.666123779e-02
6.644900000e+03,-3.315132937e+00,2.807723215e+00,-2.039739414e-01,7.074918567e-02
6.645000000e+03,-3.059184166e+00,2.100563231e+00,-1.123615635e-01,1.918729642e-01
6.645100000e+03,-2.870252806e+00,1.533662146e+00,8.436482085e-03,2.270846906e-01
6.645200000e+03,-3.193243604e+00,7.344074835e-01,1.625081433e-01,1.467263844e-01
6.645300000e+03,-3.408518659e+00,2.018370506e-01,2.092508143e-01,4.281758958e-02
6.645400000e+03,-2.592975005e+00,-5.022775262e-01,2.056351792e-01,-1.129478827e-01
6.645500000e+03,-2.678339239e+00,-1.044780755e+00,1.166449511e-01,-2.009120521e-01
6.645600000e+03,-3.182377891e+00,-1.696459847e+00,-2.747557003e-02,-2.174918567e-01
6.645700000e+03,-1.781487285e+00,-2.240679008e+00,-1.599348534e-01,-2.019218241e-01
6.645800000e+03,-2.628936805e+00,-2.880366118e+00,-2.257166124e-01,-6.034201954e-02
6.645900000e+03,-2.518485007e+00,2.555193531e+00,-1.971009772e-01,1.309446254e-01
6.646000000e+03,-3.764844491e+00,2.027693283e+00,-9.043973941e-02,1.839739414e-01
6.646100000e+03,-2.363132559e+00,1.451866810e+00,2.858306189e-02,2.392019544e-01
6.646200000e+03,-4.290462491e+00,8.312496224e-01,1.300488599e-01,1.425570033e-01
6.646300000e+03,-3.193600311e+00,8.946107312e-02,2.180618893e-01,1.956026059e-02
6.646400000e+03,-2.756521480e+00,-4.278920406e-01,2.094788274e-01,-9.553745928e-02
6.646500000e+03,-4.108511870e+00,-1.114689328e+00,8.679153094e-02,-1.769055375e-01
6.646600000e+03,-2.826129871e+00,-1.831444652e+00,-5.885993485e-02,-2.206840391e-01
6.646700000e+03,-3.770533899e+00,-2.393247895e+00,-1.501302932e-01,-1.393973941e-01
6.646800000e+03,-3.564661003e+00,-3.112164259e+00,-2.096905537e-01,-6.172638436e-03
6.646900000e+03,-2.706078985e+00,2.634275558e+00,-2.024104235e-01,1.125081433e-01
6.647000000e+03,-2.660436282e+00,2.057942880e+00,-1.089739414e-01,2.057166124e-01
6.647100000e+03,-3.287266955e+00,1.404448520e+00,3.586319218e-02,2.135993485e-01
6.647200000e+03,-2.939735411e+00,7.719620947e-01,1.615309446e-01,1.572475570e-01
6.647300000e+03,-3.667878729e+00,-1.492778241e-02,2.072801303e-01,-3.094462541e-03
6.647400000e+03,-4.146755315e+00,-4.946160871e-01,1.726710098e-01,-9.312703583e-02
6.647500000e+03,-4.204554944e+00,-1.175934493e+00,7.496742671e-02,-1.798859935e-01
6.647600000e+03,-3.610800844e+00,-1.835823046e+00,-5.465798046e-02,-2.013843648e-01
6.647700000e+03,-2.169836800e+00,-2.235324691e+00,-1.519055375e-01,-1.939087948e-01
6.647800000e+03,-3.231277915e+00,-3.082235772e+00,-2.176058632e-01,-1.293159609e-02
6.647900000e+03,-3.945379747e+00,2.713756799e+00,-1.826872964e-01,8.330618893e-02
6.648000000e+03,-2.723647799e+00,2.032395404e+00,-1.029315961e-01,2.069218241e-01
6.648100000e+03,-4.736404467e+00,1.269782458e+00,5.434853420e-02,1.750651466e-01
6.648200000e+03,-2.726977662e+00,7.253426213e-01,1.728664495e-01,1.532573290e-01
6.648300000e+03,-2.530703653e+00,3.074468805e-02,2.361889251e-01,7.263843648e-03
6.648400000e+03,-3.902207886e+00,-4.827073607e-01,1.787296417e-01,-9.366449511e-02
6.648500000e+03,-3.971846112e+00,-1.243694102e+00,6.431596091e-02,-1.895602606e-01
6.648600000e+03,-2.596448299e+00,-1.826571815e+00,-5.933224756e-02,-2.268892508e-01
6.648700000e+03,-2.717436978e+00,-2.360775675e+00,-1.642833876e-01,-1.627850163e-01
6.648800000e+03,-3.378762739e+00,3.077258773e+00,-2.138762215e-01,1.377850163e-02
6.648900000e+03,-4.359473608e+00,2.652831391e+00,-1.690228013e-01,8.988599349e-02
6.649000000e+03,-5.722748660e+00,2.005373040e+00,-6.889250814e-02,1.484201954e-01
6.649100000e+03,-3.160263720e+00,1.264653392e+00,6.623778502e-02,2.095602606e-01
6.649200000e+03,-3.538678505e+00,7.392417189e-01,1.554885993e-01,1.417589577e-01
6.649300000e+03,-4.046137367e+00,-1.230920107e-03,1.984690554e-01,-2.442996743e-04
6.649400000e+03,-3.579157941e+00,-4.418748648e-01,1.893159609e-01,-8.956026059e-02
6.649500000e+03,-3.399975658e+00,-1.167895075e+00,8.382736156e-02,-1.966775244e-01
6.649600000e+03,-3.551208697e+00,-1.923143569e+00,-7.250814332e-02,-1.971986971e-01
6.649700000e+03,-2.229168441e+00,-2.485535781e+00,-1.938599349e-01,-1.492345277e-01
6.649800000e+03,-4.693543958e+00,3.115862064e+00,-1.841530945e-01,4.739413681e-03
6.649900000e+03,-3.811797041e+00,2.475995782e+00,-1.603745928e-01,1.259120521e-01
6.650000000e+03,-2.281461079e+00,1.815888695e+00,-5.900651466e-02,2.359120521e-01
6.650100000e+03,-3.397005163e+00,1.326907370e+00,5.164495114e-02,2.075407166e-01
6.650200000e+03,-3.151414573e+00,6.357575895e-01,1.770195440e-01,1.306351792e-01
6.650300000e+03,-3.675128109e+00,1.195663290e-01,2.056514658e-01,2.470684039e-02
6.650400000e+03,-3.744289122e+00,-7.135436593e-01,1.553583062e-01,-1.344951140e-01
6.650500000e+03,-3.978791765e+00,-1.292988805e+00,5.485342020e-02,-1.923452769e-01
6.650600000e+03,-5.055581947e+00,-1.925402737e+00,-6.135179153e-02,-1.657003257e-01
6.650700000e+03,-3.243916704e+00,-2.612850368e+00,-1.879478827e-01,-1.098045603e-01
6.650800000e+03,-4.729206533e+00,-2.937232933e+00,-1.796416938e-01,-3.723127036e-02
6.650900000e+03,-3.506207998e+00,2.573396641e+00,-1.780130293e-01,1.136482085e-01
6.651000000e+03,-4.733761756e+00,1.782981491e+00,-3.861563518e-02,1.792508143e-01
6.651100000e+03,-3.276731556e+00,1.262512572e+00,6.579804560e-02,2.066286645e-01
6.651200000e+03,-4.328255273e+00,5.293558497e-01,1.658306189e-01,9.701954397e-02
6.651300000e+03,-3.321124799e+00,1.270890957e-01,2.140065147e-01,2.734527687e-02
6.651400000e+03,-3.218383569e+00,-6.930571560e-01,1.679478827e-01,-1.394788274e-01
6.651500000e+03,-3.473475183e+00,-1.130307681e+00,9.039087948e-02,-1.917589577e-01
6.651600000e+03,-3.613514750e+00,-1.941994848e+00,-7.566775244e-02,-1.943973941e-01
6.651700000e+03,-3.500108383e+00,-2.540488030e+00,-1.742996743e-01,-1.195276873e-01
6.651800000e+03,-3.866047507e+00,3.088840610e+00,-2.023452769e-01,1.068403909e-02
6.651900000e+03,-3.685972469e+00,2.543218111e+00,-1.709283388e-01,1.165309446e-01
6.652000000e+03,-4.443497959e+00,1.924117624e+00,-6.560260586e-02,1.778827362e-01
6.652100000e+03,-2.482608842e+00,9.886109269e-01,1.306514658e-01,1.984690554e-01
6.652200000e+03,-3.589524261e+00,4.832522573e-01,1.852280130e-01,9.719869707e-02
6.652300000e+03,-2.211430094e+00,-1.925226343e-01,2.406188925e-01,-4.690553746e-02
6.652400000e+03,-3.299192940e+00,-5.791057810e-01,1.810260586e-01,-1.183713355e-01
6.652500000e+03,-4.358471996e+00,-1.412164584e+00,3.024429967e-02,-1.890553746e-01
6.652600000e+03,-2.057273210e+00,-1.964743993e+00,-9.578175896e-02,-2.304234528e-01
6.652700000e+03,-4.426571453e+00,-2.583175097e+00,-1.611074919e-01,-1.006514658e-01
6.652800000e+03,-2.972896643e+00,3.084195358e+00,-2.242019544e-01,1.288273616e-02
6.652900000e+03,-4.086395070e+00,2.519033482e+00,-1.604885993e-01,1.151954397e-01
6.653000000e+03,-2.684206368e+00,1.799661624e+00,-5.267100977e-02,2.261074919e-01
6.653100000e+03,-4.014010584e+00,1.152173535e+00,8.097719870e-02,1.820032573e-01
6.653200000e+03,-3.316149510e+00,3.832243328e-01,2.002117264e-01,8.071661238e-02
6.653300000e+03,-3.999455038e+00,3.044951122e-02,1.994462541e-01,6.074918567e-03
6.653400000e+03,-3.127910897e+00,-6.761245616e-01,1.720684039e-01,-1.380456026e-01
6.653500000e+03,-4.785269353e+00,-1.321158471e+00,4.503257329e-02,-1.766286645e-01
6.653600000e+03,-4.211836299e+00,-1.810115132e+00,-4.615635179e-02,-1.891693811e-01
6.653700000e+03,-4.309232587e+00,-2.685510627e+00,-1.728664495e-01,-8.480456026e-02
6.653800000e+03,-2.993251409e+00,-3.133669004e+00,-2.240390879e-01,-1.775244300e-03
6.653900000e+03,-3.467888481e+00,2.544603921e+00,-1.754397394e-01,1.192508143e-01
6.654000000e+03,-3.489542300e+00,1.824978158e+00,-5.320846906e-02,2.048045603e-01
6.654100000e+03,-4.325529628e+00,1.261132124e+00,5.856677524e-02,1.830456026e-01
6.654200000e+03,-4.009420448e+00,6.318482628e-01,1.608306189e-01,1.177198697e-01
6.654300000e+03,-3.775029115e+00,-2.423357694e-01,1.987785016e-01,-4.913680782e-02
6.654400000e+03,-4.639327356e+00,-6.075229004e-01,1.521986971e-01,-1.058143322e-01
6.654500000e+03,-2.885831165e+00,-1.324703167e+00,5.526058632e-02,-2.200000000e-01
6.654600000e+03,-2.558803082e+00,-1.844926336e+00,-6.376221498e-02,-2.267426710e-01
6.654700000e+03,-4.859770495e+00,-2.780817915e+00,-1.690879479e-01,-6.379478827e-02
6.654800000e+03,-3.548530203e+00,3.058502905e+00,-2.094462541e-01,1.744299674e-02
6.654900000e+03,-4.360276372e+00,2.440100152e+00,-1.462214984e-01,1.235342020e-01
6.655000000e+03,-4.286230672e+00,1.674578179e+00,-2.000000000e-02,1.920195440e-01
6.655100000e+03,-3.712198688e+00,1.118273104e+00,9.017915309e-02,1.854885993e-01
6.655200000e+03,-3.490642919e+00,5.270327475e-01,1.828664495e-01,1.064169381e-01
6.655300000e+03,-4.104151690e+00,-5.124139832e-02,1.968892508e-01,-1.009771987e-02
6.655400000e+03,-1.890302907e+00,-8.098475972e-01,1.754234528e-01,-1.842182410e-01
6.655500000e+03,-3.565261432e+00,-1.581122848e+00,-2.166123779e-03,-2.097557003e-01
6.655600000e+03,-3.458637463e+00,-1.997804656e+00,-8.794788274e-02,-1.932899023e-01
6.655700000e+03,-5.215810871e+00,-2.734198191e+00,-1.592671010e-01,-6.872964169e-02
6.655800000e+03,-4.101017051e+00,3.010907463e+00,-1.955374593e-01,2.570032573e-02
6.655900000e+03,-4.580781288e+00,2.445669941e+00,-1.432247557e-01,1.196416938e-01
6.656000000e+03,-3.697897674e+00,2.049957501e+00,-9.524429967e-02,1.833224756e-01
6.656100000e+03,-2.673310771e+00,1.157523332e+00,9.335504886e-02,2.128827362e-01
6.656200000e+03,-3.564549126e+00,3.327984722e-01,1.982736156e-01,6.853420195e-02
6.656300000e+03,-2.994748087e+00,-3.825257689e-02,2.238436482e-01,-8.566775244e-03
6.656400000e+03,-3.663162834e+00,-8.254966849e-01,1.406677524e-01,-1.524267101e-01
6.656500000e+03,-3.073538649e+00,-1.362767309e+00,4.584690554e-02,-2.171986971e-01
6.656600000e+03,-4.137562755e+00,-1.908833111e+00,-6.513029316e-02,-1.852768730e-01
6.656700000e+03,-2.946464276e+00,-2.683377313e+00,-2.020195440e-01,-9.964169381e-02
6.656800000e+03,-3.649071446e+00,2.909505461e+00,-2.021824104e-01,4.778501629e-02
6.656900000e+03,-3.689893733e+00,2.441398548e+00,-1.581270358e-01,1.332410423e-01
6.657000000e+03,-2.042082412e+00,1.773239058e+00,-5.026058632e-02,2.448697068e-01
6.657100000e+03,-2.389995678e+00,9.708875086e-01,1.355863192e-01,1.982247557e-01
6.657200000e+03,-3.293501917e+00,5.953073804e-01,1.792019544e-01,1.213680782e-01
6.657300000e+03,-2.865330744e+00,-9.160023025e-02,2.264169381e-01,-2.079804560e-02
6.657400000e+03,-3.695713534e+00,-7.667826997e-01,1.488110749e-01,-1.433713355e-01
6.657500000e+03,-4.145711443e+00,-1.377177528e+00,3.775244300e-02,-1.925407166e-01
6.657600000e+03,-2.376355747e+00,-2.223181035e+00,-1.460260586e-01,-1.911400651e-01
6.657700000e+03,-3.223616979e+00,-2.835327900e+00,-2.080293160e-01,-6.578175896e-02
6.657800000e+03,-4.311045247e+00,2.850881378e+00,-1.844299674e-01,5.517915309e-02
6.657900000e+03,-3.001905735e+00,2.165539630e+00,-1.254071661e-01,1.853908795e-01
6.658000000e+03,-5.063041907e+00,1.559633399e+00,1.970684039e-03,1.765309446e-01
6.658100000e+03,-4.056129018e+00,1.150369799e+00,8.091205212e-02,1.809771987e-01
6.658200000e+03,-3.616788200e+00,2.381970512e-01,2.026384365e-01,4.920195440e-02
6.658300000e+03,-3.307869019e+00,-3.626876176e-01,2.020195440e-01,-7.666123779e-02
6.658400000e+03,-2.389350054e+00,-8.763879776e-01,1.536970684e-01,-1.845602606e-01
6.658500000e+03,-4.577019784e+00,-1.720083108e+00,-2.776872964e-02,-1.846254072e-01
6.658600000e+03,-3.050527980e+00,-2.148671615e+00,-1.215798046e-01,-1.864332248e-01
6.658700000e+03,-3.635550752e+00,-2.619524274e+00,-1.803583062e-01,-1.037622150e-01
6.658800000e+03,-3.053215316e+00,2.896951295e+00,-2.158794788e-01,5.389250814e-02
6.658900000e+03,-3.240368135e+00,2.109202054e+00,-1.116612378e-01,1.869543974e-01
6.659000000e+03,-3.013915751e+00,1.780881996e+00,-4.661237785e-02,2.185993485e-01
6.659100000e+03,-4.342618938e+00,1.120477717e+00,8.348534202e-02,1.726872964e-01
6.659200000e+03,-4.259491336e+00,4.197784759e-01,1.768403909e-01,7.892508143e-02
6.659300000e+03,-3.738805953e+00,-2.967751669e-01,1.966286645e-01,-6.013029316e-02
6.659400000e+03,-3.591928232e+00,-9.281830544e-01,1.253257329e-01,-1.674104235e-01
6.659500000e+03,-3.384607728e+00,-1.456788458e+00,2.436482085e-02,-2.127850163e-01
6.659600000e+03,-4.363083535e+00,-2.298025319e+00,-1.272149837e-01,-1.429478827e-01
6.659700000e+03,-3.449270371e+00,-3.019708315e+00,-2.110097720e-01,-2.584690554e-02
6.659800000e+03,-3.104516667e+00,2.844409183e+00,-2.114983713e-01,6.477198697e-02
6.659900000e+03,-4.120405210e+00,2.172687245e+00,-1.114169381e-01,1.621986971e-01
6.660000000e+03,-2.140911055e+00,1.428768799e+00,3.498371336e-02,2.446579805e-01
6.660100000e+03,-4.022409068e+00,1.013281356e+00,1.052931596e-01,1.688762215e-01
6.660200000e+03,-2.328299460e+00,2.323051947e-01,2.353745928e-01,5.568403909e-02
6.660300000e+03,-3.499709475e+00,-4.166595203e-01,1.932736156e-01,-8.553745928e-02
6.660400000e+03,-3.451561864e+00,-9.795206212e-01,1.184690554e-01,-1.764495114e-01
6.660500000e+03,-4.717635830e+00,-1.812700128e+00,-4.400651466e-02,-1.783550489e-01
6.660600000e+03,-4.515306084e+00,-2.211577697e+00,-1.124104235e-01,-1.507328990e-01
6.660700000e+03,-4.209069164e+00,-2.763306632e+00,-1.810097720e-01,-7.193811075e-02
6.660800000e+03,-4.491222790e+00,2.847132642e+00,-1.804397394e-01,5.472312704e-02
6.660900000e+03,-4.499617274e+00,2.198111519e+00,-1.105700326e-01,1.525081433e-01
6.661000000e+03,-3.204057575e+00,1.535038732e+00,7.817589577e-03,2.185342020e-01
6.661100000e+03,-3.829742018e+00,9.255983237e-01,1.223615635e-01,1.625732899e-01
6.661200000e+03,-3.728068100e+00,2.517709681e-01,1.993811075e-01,5.128664495e-02
6.661300000e+03,-2.885676864e+00,-3.852528183e-01,2.102117264e-01,-8.524429967e-02
6.661400000e+03,-4.876026927e+00,-1.119141359e+00,7.872964169e-02,-1.622964169e-01
6.661500000e+03,-2.147773508e+00,-1.613479477e+00,-1.053745928e-02,-2.467263844e-01
6.661600000e+03,-3.148396294e+00,-2.227055961e+00,-1.342833876e-01,-1.743648208e-01
6.661700000e+03,-3.442924234e+00,-3.039981516e+00,-2.116449511e-01,-2.157980456e-02
6.661800000e+03,-2.903503711e+00,2.843664996e+00,-2.164006515e-01,6.644951140e-02
6.661900000e+03,-3.341664390e+00,2.127502723e+00,-1.137296417e-01,1.827361564e-01
6.662000000e+03,-3.141174045e+00,1.476454522e+00,2.074918567e-02,2.192833876e-01
6.662100000e+03,-5.483432658e+00,7.989552621e-01,1.173127036e-01,1.205374593e-01
6.662200000e+03,-3.058791989e+00,2.262718215e-01,2.166938111e-01,4.988599349e-02
6.662300000e+03,-2.976150129e+00,-4.167142241e-01,2.052768730e-01,-9.086319218e-02
6.662400000e+03,-3.881411674e+00,-1.033911942e+00,1.034527687e-01,-1.738110749e-01
6.662500000e+03,-1.954189718e+00,-1.619704729e+00,-1.234527687e-02,-2.522149837e-01
6.662600000e+03,-2.865968162e+00,-2.328229754e+00,-1.562052117e-01,-1.651954397e-01
6.662700000e+03,-2.531934171e+00,-3.037314664e+00,-2.349837134e-01,-2.459283388e-02
6.662800000e+03,-2.610812209e+00,2.631980743e+00,-2.043811075e-01,1.142182410e-01
6.662900000e+03,-3.204094844e+00,2.159811118e+00,-1.214820847e-01,1.818241042e-01
6.663000000e+03,-3.306527593e+00,1.187043208e+00,8.091205212e-02,2.003908795e-01
6.663100000e+03,-3.737979421e+00,6.955596687e-01,1.578664495e-01,1.317752443e-01
6.663200000e+03,-3.479316762e+00,1.853337824e-01,2.082247557e-01,3.903908795e-02
6.663300000e+03,-3.819433426e+00,-6.214019018e-01,1.656351792e-01,-1.185993485e-01
6.663400000e+03,-3.832065399e+00,-1.013775542e+00,1.075407166e-01,-1.726710098e-01
6.663500000e+03,-3.420456925e+00,-1.615709922e+00,-9.576547231e-03,-2.130781759e-01
6.663600000e+03,-3.400232101e+00,-2.355224872e+00,-1.510260586e-01,-1.513192182e-01
6.663700000e+03,-3.260756330e+00,-2.987905993e+00,-2.146905537e-01,-3.325732899e-02
6.663800000e+03,-2.976958668e+00,2.692060609e+00,-2.021661238e-01,9.754071661e-02
6.663900000e+03,-4.526228533e+00,1.925983911e+00,-6.530944625e-02,1.760749186e-01
6.664000000e+03,-4.004848483e+00,1.442217033e+00,2.557003257e-02,1.977687296e-01
6.664100000e+03,-4.073195449e+00,7.146173789e-01,1.494462541e-01,1.296579805e-01
6.664200000e+03,-1.790425508e+00,-6.428625463e-02,2.567915309e-01,-1.653094463e-02
6.664300000e+03,-2.599086002e+00,-5.622590389e-01,1.983550489e-01,-1.249837134e-01
6.664400000e+03,-4.822427715e+00,-1.281797670e+00,5.172638436e-02,-1.739739414e-01
6.664500000e+03,-3.293498794e+00,-1.736959428e+00,-3.579804560e-02,-2.134527687e-01
6.664600000e+03,-1.545854271e+00,-2.382827001e+00,-1.920684039e-01,-1.821009772e-01
6.664700000e+03,-3.471439087e+00,-2.971645670e+00,-2.089902280e-01,-3.586319218e-02
6.664800000e+03,-3.098728448e+00,2.608126337e+00,-1.905863192e-01,1.125570033e-01
6.664900000e+03,-3.499873516e+00,2.090439459e+00,-1.049511401e-01,1.834527687e-01
6.665000000e+03,-4.992122555e+00,1.307529727e+00,4.631921824e-02,1.718566775e-01
6.665100000e+03,-4.149595121e+00,7.772357984e-01,1.398045603e-01,1.375407166e-01
6.665200000e+03,-3.527610703e+00,1.124073069e-01,2.093485342e-01,2.363192182e-02
6.665300000e+03,-2.791645811e+00,-5.850280634e-01,1.911726384e-01,-1.266286645e-01
6.665400000e+03,-3.521210663e+00,-1.043678284e+00,1.060586319e-01,-1.822149837e-01
6.665500000e+03,-3.227241785e+00,-1.896915728e+00,-6.986970684e-02,-2.065960912e-01
6.665600000e+03,-2.951338286e+00,-2.509956131e+00,-1.816938111e-01,-1.329315961e-01
6.665700000e+03,-3.062514624e+00,-3.016774136e+00,-2.205374593e-01,-2.767100977e-02
6.665800000e+03,-2.023501935e+00,2.665529643e+00,-2.226547231e-01,1.148045603e-01
6.665900000e+03,-1.195196022e+00,1.870716126e+00,-8.141693811e-02,2.632736156e-01
6.666000000e+03,-3.732892920e+00,1.364645402e+00,4.211726384e-02,2.014006515e-01
6.666100000e+03,-2.994380096e+00,7.298483287e-01,1.669543974e-01,1.493648208e-01
6.666200000e+03,-3.725158635e+00,2.568326310e-01,1.991856678e-01,5.231270358e-02
6.666300000e+03,-2.786810652e+00,-5.563193924e-01,1.948371336e-01,-1.211563518e-01
6.666400000e+03,-2.237373896e+00,-1.306730028e+00,6.379478827e-02,-2.359446254e-01
6.666500000e+03,-5.053970346e+00,-1.681148236e+00,-1.946254072e-02,-1.756514658e-01
6.666600000e+03,-3.494875463e+00,-2.587687411e+00,-1.798534202e-01,-1.112377850e-01
6.666700000e+03,-3.546841513e+00,3.128963540e+00,-2.101954397e-01,2.654723127e-03
6.666800000e+03,-5.546571741e+00,2.547151790e+00,-1.383387622e-01,9.351791531e-02
6.666900000e+03,-3.897823066e+00,1.987128534e+00,-8.164495114e-02,1.846416938e-01
6.667000000e+03,-2.657013978e+00,1.243649744e+00,7.483713355e-02,2.205374593e-01
6.667100000e+03,-2.057306511e+00,6.067211094e-01,2.050000000e-01,1.422801303e-01
6.667200000e+03,-2.443076089e+00,4.668736024e-02,2.384364821e-01,1.114006515e-02
6.667300000e+03,-3.909230533e+00,-5.493688610e-01,1.719543974e-01,-1.052768730e-01
6.667400000e+03,-4.311300401e+00,-1.302258805e+00,5.107491857e-02,-1.856026059e-01
6.667500000e+03,-2.056832652e+00,-1.842085540e+00,-6.687296417e-02,-2.404234528e-01
6.667600000e+03,-2.569142403e+00,-2.435384266e+00,-1.789902280e-01,-1.526710098e-01
6.667700000e+03,-2.699073632e+00,-3.071121309e+00,-2.311889251e-01,-1.631921824e-02
6.667800000e+03,-4.420245334e+00,2.665454316e+00,-1.689576547e-01,8.713355049e-02
6.667900000e+03,-3.891960543e+00,1.718051898e+00,-2.964169381e-02,1.998371336e-01
6.668000000e+03,-4.461512061e+00,1.130903346e+00,8.057003257e-02,1.711889251e-01
6.668100000e+03,-2.904724978e+00,4.895552184e-01,1.997557003e-01,1.064332248e-01
6.668200000e+03,-2.733870494e+00,5.626166969e-02,2.304723127e-01,1.298045603e-02
6.668300000e+03,-5.483234975e+00,-5.584043075e-01,1.426547231e-01,-8.912052117e-02
6.668400000e+03,-2.733051148e+00,-1.362373583e+00,4.776872964e-02,-2.258631922e-01
6.668500000e+03,-2.440682965e+00,-1.857163425e+00,-6.744299674e-02,-2.290390879e-01
6.668600000e+03,-3.055253001e+00,-2.490579715e+00,-1.769543974e-01,-1.348045603e-01
6.668700000e+03,-4.093609918e+00,3.046644859e+00,-1.964983713e-01,1.871335505e-02
6.668800000e+03,-2.937454910e+00,2.424685533e+00,-1.699837134e-01,1.481596091e-01
6.668900000e+03,-3.495327331e+00,1.915053312e+00,-7.136807818e-02,1.990553746e-01
6.669000000e+03,-4.216376439e+00,1.082857300e+00,9.123778502e-02,1.719055375e-01
6.669100000e+03,-3.714531247e+00,5.058019460e-01,1.803745928e-01,9.990228013e-02
6.669200000e+03,-2.483336232e+00,-7.045766889e-02,2.370032573e-01,-1.672638436e-02
6.669300000e+03,-3.452946733e+00,-8.102222942e-01,1.464820847e-01,-1.539413681e-01
6.669400000e+03,-2.778972019e+00,-1.390314826e+00,4.122149837e-02,-2.259120521e-01
6.669500000e+03,-3.258053187e+00,-1.992939489e+00,-8.903908795e-02,-1.982410423e-01
6.669600000e+03,-2.489999197e+00,-2.546968764e+00,-1.966612378e-01,-1.329967427e-01
6.669700000e+03,-2.595206006e+00,2.928903768e+00,-2.292671010e-01,4.951140065e-02
6.669800000e+03,-3.710640825e+00,2.436897064e+00,-1.571498371e-01,1.336319218e-01
6.669900000e+03,-1.619610990e+00,1.604998086e+00,-8.973941368e-03,2.622801303e-01
6.670000000e+03,-2.194708045e+00,1.163936828e+00,9.719869707e-02,2.255700326e-01
6.670100000e+03,-2.434737762e+00,3.886456439e-01,2.211074919e-01,9.053745928e-02
6.670200000e+03,-3.823596149e+00,-2.075291822e-01,1.992508143e-01,-4.195439739e-02
6.670300000e+03,-3.502847803e+00,-6.617868642e-01,1.666775244e-01,-1.298371336e-01
6.670400000e+03,-3.036002389e+00,-1.400123175e+00,3.786644951e-02,-2.197068404e-01
6.670500000e+03,-3.916146054e+00,-2.104893642e+00,-1.025570033e-01,-1.734039088e-01
6.670600000e+03,-3.214150837e+00,-2.587016459e+00,-1.856840391e-01,-1.150162866e-01
6.670700000e+03,-3.296837608e+00,2.943828008e+00,-2.121335505e-01,4.250814332e-02
6.670800000e+03,-3.341038770e+00,2.442117097e+00,-1.647068404e-01,1.385830619e-01
6.670900000e+03,-4.764678246e+00,1.561436643e+00,1.710097720e-03,1.827035831e-01
6.671000000e+03,-3.798250555e+00,1.162281216e+00,8.112377850e-02,1.874104235e-01
6.671100000e+03,-3.902746916e+00,3.288466166e-01,1.909609121e-01,6.516286645e-02
6.671200000e+03,-2.870597377e+00,-5.363784996e-02,2.269055375e-01,-1.218241042e-02
6.671300000e+03,-4.121141944e+00,-7.521473638e-01,1.436807818e-01,-1.344299674e-01
6.671400000e+03,-3.992672055e+00,-1.396275312e+00,3.467426710e-02,-1.966612378e-01
6.671500000e+03,-2.479980338e+00,-1.949088685e+00,-8.778501629e-02,-2.208794788e-01
6.671600000e+03,-1.108057890e+00,-2.649497968e+00,-2.453257329e-01,-1.315146580e-01
6.671700000e+03,-2.534768808e+00,2.982531577e+00,-2.332084691e-01,3.741042345e-02
6.671800000e+03,-3.612302652e+00,2.413024920e+00,-1.556677524e-01,1.389087948e-01
6.671900000e+03,-3.367906214e+00,1.644407374e+00,-1.578175896e-02,2.140065147e-01
6.672000000e+03,-2.796635396e+00,1.113091948e+00,1.012703583e-01,2.055863192e-01
6.672100000e+03,-2.650204425e+00,4.074609180e-01,2.139902280e-01,9.236156352e-02
6.672200000e+03,-3.473508070e+00,-2.131108550e-01,2.071986971e-01,-4.483713355e-02
6.672300000e+03,-2.942036955e+00,-9.095313231e-01,1.384039088e-01,-1.778664495e-01
6.672400000e+03,-3.540708812e+00,-1.527426144e+00,9.120521173e-03,-2.101628664e-01
6.672500000e+03,-1.982226065e+00,-1.920910680e+00,-8.633550489e-02,-2.364332248e-01
6.672600000e+03,-3.193484762e+00,-2.587700800e+00,-1.862052117e-01,-1.151628664e-01
6.672700000e+03,-3.059911600e+00,2.780104133e+00,-2.079641694e-01,7.863192182e-02
6.672800000e+03,-4.316244665e+00,2.271452592e+00,-1.240390879e-01,1.470684039e-01
6.672900000e+03,-2.944411996e+00,1.570796327e+00,0.000000000e+00,2.253094463e-01
6.673000000e+03,-3.910620314e+00,1.119794837e+00,8.786644951e-02,1.814332248e-01
6.673100000e+03,-3.373473399e+00,2.911730962e-01,2.054234528e-01,6.156351792e-02
6.673200000e+03,-2.812749844e+00,-2.116104940e-01,2.236482085e-01,-4.804560261e-02
6.673300000e+03,-3.102337509e+00,-9.226723691e-01,1.335667752e-01,-1.763843648e-01
6.673400000e+03,-2.899015499e+00,-1.579209763e+00,-1.905537459e-03,-2.264820847e-01
6.673500000e+03,-2.444753885e+00,-2.039479755e+00,-1.078013029e-01,-2.129153094e-01
6.673600000e+03,-1.581920374e+00,-2.868555389e+00,-2.538110749e-01,-7.107491857e-02
6.673700000e+03,-3.479220588e+00,2.800611363e+00,-1.996579805e-01,7.084690554e-02
6.673800000e+03,-2.158246350e+00,2.112540750e+00,-1.271824104e-01,2.113355049e-01
6.673900000e+03,-2.477874403e+00,1.429063971e+00,3.358306189e-02,2.353583062e-01
6.674000000e+03,-3.543209369e+00,9.386178854e-01,1.242671010e-01,1.696579805e-01
6.674100000e+03,-1.718857752e+00,2.345951998e-01,2.523452769e-01,6.030944625e-02
6.674200000e+03,-2.661501298e+00,-3.003971556e-01,2.223452769e-01,-6.887622150e-02
6.674300000e+03,-2.613145098e+00,-8.539889199e-01,1.537785016e-01,-1.764657980e-01
6.674400000e+03,-1.971293934e+00,-1.501593027e+00,1.742671010e-02,-2.514169381e-01
6.674500000e+03,-3.199708909e+00,-2.247281149e+00,-1.369706840e-01,-1.706026059e-01
6.674600000e+03,-2.728932183e+00,-2.970323094e+00,-2.275895765e-01,-3.936482085e-02
6.674700000e+03,-2.150440664e+00,2.737783671e+00,-2.270195440e-01,9.700325733e-02
6.674800000e+03,-3.168859653e+00,2.230187013e+00,-1.345114007e-01,1.735342020e-01
6.674900000e+03,-3.317662093e+00,1.460780756e+00,2.369706840e-02,2.145276873e-01
6.675000000e+03,-3.859800715e+00,9.569053579e-01,1.168078176e-01,1.657491857e-01
6.675100000e+03,-2.040380187e+00,3.381688651e-01,2.358631922e-01,8.294788274e-02
6.675200000e+03,-4.107242561e+00,-4.382547170e-01,1.784527687e-01,-8.363192182e-02
6.675300000e+03,-3.320722001e+00,-9.789205327e-01,1.203745928e-01,-1.790553746e-01
6.675400000e+03,-3.869696290e+00,-1.557608511e+00,2.671009772e-03,-2.025244300e-01
6.675500000e+03,-2.553471628e+00,-2.208133291e+00,-1.402442997e-01,-1.894136808e-01
6.675600000e+03,-4.312892031e+00,-3.051009378e+00,-1.916775244e-01,-1.741042345e-02
6.675700000e+03,-3.391595822e+00,2.732973456e+00,-1.963843648e-01,8.503257329e-02
6.675800000e+03,-4.170890685e+00,2.060582259e+00,-9.203583062e-02,1.726384365e-01
6.675900000e+03,-2.497128512e+00,1.550334961e+00,4.853420195e-03,2.371661238e-01
6.676000000e+03,-2.966491561e+00,8.113304255e-01,1.547394137e-01,1.629804560e-01
6.676100000e+03,-1.967223325e+00,2.872434405e-01,2.418078176e-01,7.143322476e-02
6.676200000e+03,-2.962242705e+00,-2.728273491e-01,2.165309446e-01,-6.058631922e-02
6.676300000e+03,-4.063573866e+00,-8.949253255e-01,1.239087948e-01,-1.545276873e-01
6.676400000e+03,-3.476494949e+00,-1.708954593e+00,-2.918566775e-02,-2.099022801e-01
6.676500000e+03,-1.851018336e+00,-2.301048473e+00,-1.704560261e-01,-1.903745928e-01
6.676600000e+03,-2.664869753e+00,-3.040134023e+00,-2.314820847e-01,-2.356677524e-02
6.676700000e+03,-2.579626701e+00,2.694777532e+00,-2.119055375e-01,1.015309446e-01
6.676800000e+03,-2.529559099e+00,2.075291036e+00,-1.142345277e-01,2.068892508e-01
6.676900000e+03,-2.655493310e+00,1.622210752e+00,-1.197068404e-02,2.326221498e-01
6.677000000e+03,-2.527466264e+00,6.835965531e-01,1.832736156e-01,1.492996743e-01
6.677100000e+03,-2.291161146e+00,1.114642876e-01,2.414006515e-01,2.701954397e-02
6.677200000e+03,-2.481508060e+00,-4.987177153e-01,2.086970684e-01,-1.136644951e-01
6.677300000e+03,-2.577708666e+00,-1.144656317e+00,9.714983713e-02,-2.140065147e-01
6.677400000e+03,-2.871417919e+00,-1.518947919e+00,1.177524430e-02,-2.269055375e-01
6.677500000e+03,-3.515626419e+00,-2.355048140e+00,-1.490065147e-01,-1.493485342e-01
6.677600000e+03,-2.865664896e+00,-2.988632893e+00,-2.247068404e-01,-3.464169381e-02
6.677700000e+03,-3.063339264e+00,2.775171194e+00,-2.074918567e-01,7.962540717e-02
6.677800000e+03,-2.469713091e+00,2.002759550e+00,-9.962540717e-02,2.161074919e-01
6.677900000e+03,-1.720837064e+00,1.457157600e+00,2.941368078e-02,2.577198697e-01
6.678000000e+03,-2.414437455e+00,9.571955423e-01,1.378990228e-01,1.957980456e-01
6.678100000e+03,-2.448407638e+00,3.974958030e-01,2.199511401e-01,9.234527687e-02
6.678200000e+03,-4.737851413e+00,-4.980701447e-01,1.610097720e-01,-8.755700326e-02
6.678300000e+03,-2.868435301e+00,-1.175812287e+00,8.745928339e-02,-2.097882736e-01
6.678400000e+03,-2.086408179e+00,-1.684331800e+00,-2.817589577e-02,-2.471009772e-01
6.678500000e+03,-1.586422476e+00,-2.369615623e+00,-1.887622150e-01,-1.837622150e-01
6.678600000e+03,-3.889518471e+00,-3.106284752e+00,-2.019543974e-01,-7.133550489e-03
6.678700000e+03,-2.798821613e+00,2.480262698e+00,-1.808143322e-01,1.407166124e-01
6.678800000e+03,-3.743184777e+00,1.962045642e+00,-7.837133550e-02,1.899837134e-01
6.678900000e+03,-2.495532869e+00,1.510214475e+00,1.436482085e-02,2.368241042e-01
6.679000000e+03,-2.586560013e+00,6.462342143e-01,1.874429967e-01,1.413843648e-01
6.679100000e+03,-3.011166683e+00,-3.569332161e-03,2.235830619e-01,-7.980456026e-04
6.679200000e+03,-1.311548910e+00,-5.945812374e-01,2.252442997e-01,-1.523127036e-01
6.679300000e+03,-2.414711516e+00,-1.263477051e+00,7.244299674e-02,-2.282573290e-01
6.679400000e+03,-1.932648892e+00,-1.811483840e+00,-6.034201954e-02,-2.458469055e-01
6.679500000e+03,-3.504396454e+00,-2.336076151e+00,-1.463355049e-01,-1.523452769e-01
6.679600000e+03,-1.897831803e+00,-2.986020169e+00,-2.510912052e-01,-3.938110749e-02
6.679700000e+03,-2.048273863e+00,2.636324315e+00,-2.185830619e-01,1.209120521e-01
6.679800000e+03,-3.922100427e+00,1.955238568e+00,-7.550488599e-02,1.866286645e-01
6.679900000e+03,-3.803357894e+00,1.329707866e+00,4.872964169e-02,1.981921824e-01
6.680000000e+03,-8.072614034e-01,7.701709140e-01,2.068403909e-01,2.006351792e-01
6.680100000e+03,-3.675874631e+00,2.414381697e-02,2.070521173e-01,5.000000000e-03
6.680200000e+03,-3.004662452e+00,-6.901902689e-01,1.725407166e-01,-1.424592834e-01
6.680300000e+03,-2.776309734e+00,-1.192672966e+00,8.480456026e-02,-2.134853420e-01
6.680400000e+03,-3.025425936e+00,-1.713116441e+00,-3.166123779e-02,-2.209609121e-01
6.680500000e+03,-2.319707766e+00,-2.310276596e+00,-1.631596091e-01,-1.788762215e-01
6.680600000e+03,-3.382989486e+00,-3.117489025e+00,-2.141530945e-01,-5.162866450e-03
6.680700000e+03,-2.316740306e+00,2.530684891e+00,-1.983876221e-01,1.389250814e-01
6.680800000e+03,-2.413641343e+00,2.013823912e+00,-1.026710098e-01,2.163843648e-01
6.680900000e+03,-3.373980526e+00,1.428824085e+00,3.034201954e-02,2.122801303e-01
6.681000000e+03,-1.359334656e+00,7.441190382e-01,1.989413681e-01,1.831596091e-01
6.681100000e+03,-2.368162387e+00,1.116176077e-02,2.407491857e-01,2.687296417e-03
6.681200000e+03,-2.749952933e+00,-6.445331148e-01,1.841856678e-01,-1.384364821e-01
6.681300000e+03,-3.831608529e+00,-1.393986140e+00,3.578175896e-02,-2.002605863e-01
6.681400000e+03,-4.117751035e+00,-2.033703880e+00,-8.789902280e-02,-1.761237785e-01
6.681500000e+03,-4.340031592e+00,-2.511011468e+00,-1.549674267e-01,-1.131270358e-01
6.681600000e+03,-3.909387303e+00,-3.029722231e+00,-2.003583062e-01,-2.250814332e-02
6.681700000e+03,-2.808938991e+00,2.441797196e+00,-1.750651466e-01,1.473941368e-01
6.681800000e+03,-2.288209901e+00,1.908486516e+00,-8.050488599e-02,2.292671010e-01
6.681900000e+03,-1.258257287e+00,1.180241092e+00,1.041530945e-01,2.529804560e-01
6.682000000e+03,-2.228542130e+00,6.494655439e-01,1.948534202e-01,1.479641694e-01
6.682100000e+03,-3.592420793e+00,-2.021612108e-01,2.048534202e-01,-4.198697068e-02
6.682200000e+03,-3.014190968e+00,-5.971983506e-01,1.848208469e-01,-1.256840391e-01
6.682300000e+03,-3.094355298e+00,-1.187189841e+00,8.288273616e-02,-2.053583062e-01
6.682400000e+03,-2.583571674e+00,-2.023527610e+00,-1.027361564e-01,-2.112052117e-01
6.682500000e+03,-2.852270427e+00,-2.690995710e+00,-2.049837134e-01,-9.916938111e-02
6.682600000e+03,-2.724091694e+00,2.994901600e+00,-2.286156352e-01,3.377850163e-02
6.682700000e+03,-2.264340769e+00,2.335349403e+00,-1.686644951e-01,1.758469055e-01
6.682800000e+03,-2.653437852e+00,1.889032074e+00,-7.289902280e-02,2.212866450e-01
6.682900000e+03,-3.155777831e+00,8.274659023e-01,1.488110749e-01,1.618892508e-01
6.683000000e+03,-2.777742384e+00,4.496935512e-01,2.068403909e-01,9.983713355e-02
6.683100000e+03,-1.432853487e+00,4.216600687e-02,2.678990228e-01,1.130293160e-02
6.683200000e+03,-2.287005665e+00,-8.699915384e-01,1.567100977e-01,-1.857491857e-01
6.683300000e+03,-3.377329892e+00,-1.203595218e+00,7.695439739e-02,-2.000651466e-01
6.683400000e+03,-3.634846457e+00,-2.115175485e+00,-1.077687296e-01,-1.780130293e-01
6.683500000e+03,-3.521977430e+00,-2.459515936e+00,-1.636482085e-01,-1.328990228e-01
6.683600000e+03,-3.064429884e+00,2.811150697e+00,-2.101954397e-01,7.210097720e-02
6.683700000e+03,-2.259936549e+00,2.376414754e+00,-1.758306189e-01,1.688599349e-01
6.683800000e+03,-2.470207499e+00,1.767681806e+00,-4.654723127e-02,2.333550489e-01
6.683900000e+03,-1.779637772e+00,1.117693689e+00,1.127850163e-01,2.316449511e-01
6.684000000e+03,-3.126849116e+00,6.352331738e-01,1.775895765e-01,1.309120521e-01
6.684100000e+03,-1.736969060e+00,-6.162226630e-02,2.584201954e-01,-1.594462541e-02
6.684200000e+03,-2.769554574e+00,-7.826930302e-01,1.629967427e-01,-1.621172638e-01
6.684300000e+03,-1.203027676e+00,-1.445714956e+00,3.434853420e-02,-2.731758958e-01
6.684400000e+03,-3.041554831e+00,-2.072995833e+00,-1.072475570e-01,-1.952931596e-01
6.684500000e+03,-4.993084608e+00,-2.719660886e+00,-1.623615635e-01,-7.288273616e-02
6.684600000e+03,-2.128601179e+00,2.895911743e+00,-2.400651466e-01,6.019543974e-02
6.684700000e+03,-3.043267341e+00,2.475643948e+00,-1.751628664e-01,1.376221498e-01
6.684800000e+03,-2.387364590e+00,1.557643651e+00,3.159609121e-03,2.402117264e-01
6.684900000e+03,-5.049050115e+00,1.112338769e+00,7.825732899e-02,1.585667752e-01
6.685000000e+03,-2.473123621e+00,5.455860779e-01,2.033387622e-01,1.234364821e-01
6.685100000e+03,-3.077171213e+00,-3.936731961e-01,2.049185668e-01,-8.511400651e-02
6.685200000e+03,-2.180238960e+00,-8.208867702e-01,1.676872964e-01,-1.800325733e-01
6.685300000e+03,-3.556606207e+00,-1.484904628e+00,1.801302932e-02,-2.092019544e-01
6.685400000e+03,-1.085149705e+00,-1.832406150e+00,-7.218241042e-02,-2.695928339e-01
6.685500000e+03,-3.565970582e+00,-2.656691603e+00,-1.855700326e-01,-9.776872964e-02
6.685600000e+03,-2.773569969e+00,2.779711122e+00,-2.149022801e-01,8.135179153e-02
6.685700000e+03,-3.175053274e+00,2.363910467e+00,-1.563355049e-01,1.539413681e-01
6.685800000e+03,-2.644089589e+00,1.696329249e+00,-2.920195440e-02,2.314006515e-01
6.685900000e+03,-2.648778249e+00,8.831250708e-01,1.479641694e-01,1.801302932e-01
6.686000000e+03,-2.485258047e+00,4.918609796e-01,2.093811075e-01,1.121824104e-01
6.686100000e+03,-1.656447621e+00,-4.937260928e-01,2.301140065e-01,-1.238436482e-01
6.686200000e+03,-1.777717144e+00,-9.204569183e-01,1.560260586e-01,-2.050977199e-01
6.686300000e+03,-3.477123742e+00,-1.529588898e+00,8.729641694e-03,-2.117263844e-01
6.686400000e+03,-2.010575366e+00,-2.244046927e+00,-1.564332248e-01,-1.961400651e-01
6.686500000e+03,-2.475763969e+00,-2.960060676e+00,-2.338925081e-01,-4.293159609e-02
6.686600000e+03,-1.152850453e+00,2.923434042e+00,-2.703583062e-01,5.993485342e-02
6.686700000e+03,-3.203112928e+00,2.216829453e+00,-1.316612378e-01,1.746254072e-01
6.686800000e+03,-2.828818794e+00,1.577715397e+00,-1.579804560e-03,2.283224756e-01
6.686900000e+03,-1.923589070e+00,9.632558364e-01,1.446579805e-01,2.080618893e-01
6.687000000e+03,-3.222250905e+00,2.936371691e-01,2.088762215e-01,6.315960912e-02
6.687100000e+03,-3.539771894e+00,-2.521698120e-01,2.037296417e-01,-5.249185668e-02
6.687200000e+03,-3.688630640e+00,-8.980109333e-01,1.288762215e-01,-1.617426710e-01
6.687300000e+03,-2.365643796e+00,-1.591626647e+00,-5.016286645e-03,-2.407817590e-01
6.687400000e+03,-4.053818214e+00,-2.094241562e+00,-9.912052117e-02,-1.717426710e-01
6.687500000e+03,-2.862946834e+00,-2.714846629e+00,-2.070358306e-01,-9.413680782e-02
6.687600000e+03,-2.781671479e+00,2.776777102e+00,-2.144625407e-01,8.190553746e-02
6.687700000e+03,-2.357327691e+00,2.135805214e+00,-1.290716612e-01,2.035993485e-01
6.687800000e+03,-2.763552233e+00,1.574052952e+00,-7.491856678e-04,2.300488599e-01
6.687900000e+03,-3.880045647e+00,7.915463268e-01,1.421661238e-01,1.439250814e-01
6.688000000e+03,-1.729234491e+00,3.049956772e-01,2.471824104e-01,7.781758958e-02
6.688100000e+03,-1.954979499e+00,-2.849448448e-01,2.423127036e-01,-7.097719870e-02
6.688200000e+03,-2.368900395e+00,-1.046481259e+00,1.205211726e-01,-2.084039088e-01
6.688300000e+03,-1.705810011e+00,-1.558009460e+00,3.322475570e-03,-2.598208469e-01
6.688400000e+03,-3.477841249e+00,-2.141381021e+00,-1.144462541e-01,-1.783224756e-01
6.688500000e+03,-2.040476752e+00,-2.828926578e+00,-2.378990228e-01,-7.690553746e-02
6.688600000e+03,-1.332308413e+00,2.617762262e+00,-2.348859935e-01,1.356840391e-01
6.688700000e+03,-2.359598729e+00,2.083756383e+00,-1.182736156e-01,2.099837134e-01
6.688800000e+03,-3.355371280e+00,1.482236066e+00,1.900651466e-02,2.140553746e-01
6.688900000e+03,-2.815649773e+00,8.621237040e-01,1.488273616e-01,1.736156352e-01
6.689000000e+03,-2.828494823e+00,2.153576997e-01,2.230618893e-01,4.879478827e-02
6.689100000e+03,-1.022828356e+00,-2.665366193e-01,2.711726384e-01,-7.403908795e-02
6.689200000e+03,-1.332891933e+00,-9.691707694e-01,1.535179153e-01,-2.236156352e-01
6.689300000e+03,-2.904643151e+00,-1.504548852e+00,1.498371336e-02,-2.258469055e-01
6.689400000e+03,-4.229948642e+00,-2.238992260e+00,-1.203908795e-01,-1.525244300e-01
6.689500000e+03,-2.779297080e+00,-2.859191503e+00,-2.205374593e-01,-6.399022801e-02
6.689600000e+03,-2.417771246e+00,2.783044938e+00,-2.241693811e-01,8.400651466e-02
6.689700000e+03,-3.130992501e+00,2.248247821e+00,-1.382247557e-01,1.718241042e-01
6.689800000e+03,-3.140548539e+00,1.428805166e+00,3.117263844e-02,2.180618893e-01
6.689900000e+03,-2.543779990e+00,8.736629409e-01,1.514820847e-01,1.808957655e-01
