6.590000000e+03,-2.164821414e+01,-2.505563386e+00,-2.104234528e-02,-1.553745928e-02
6.590100000e+03,-2.119417564e+01,1.441017358e+00,3.566775244e-03,2.732899023e-02
6.590200000e+03,-2.071367034e+01,2.856727973e-01,2.794788274e-02,8.208469055e-03
6.590300000e+03,-2.591761727e+01,8.545517854e-01,1.050488599e-02,1.206840391e-02
6.590400000e+03,-2.219787369e+01,4.657241412e-01,2.193811075e-02,1.102605863e-02
6.590500000e+03,-1.578833193e+01,-2.630982582e+00,-4.480456026e-02,-2.509771987e-02
6.590600000e+03,-2.614077297e+01,1.198823490e+00,5.667752443e-03,1.452768730e-02
6.590700000e+03,-2.353671765e+01,-7.048042632e-02,2.099348534e-02,-1.482084691e-03
6.590800000e+03,-3.155699538e+01,-1.891930738e+00,-2.638436482e-03,-7.931596091e-03
6.590900000e+03,-1.976210948e+01,1.511128284e+00,1.938110749e-03,3.244299674e-02
6.591000000e+03,-3.163908117e+01,-1.340606662e+00,1.889250814e-03,-8.061889251e-03
6.591100000e+03,-3.778896072e+01,-5.992815512e-02,4.071661238e-03,-2.442996743e-04
6.591200000e+03,-2.778177977e+01,-3.101210578e+00,-1.289902280e-02,-5.211726384e-04
6.591300000e+03,-2.052444018e+01,-1.399628210e-01,2.947882736e-02,-4.153094463e-03
6.591400000e+03,-1.671178691e+01,-1.884029965e-01,4.535830619e-02,-8.648208469e-03
6.591500000e+03,-1.804782110e+01,-1.139164279e+00,1.656351792e-02,-3.596091205e-02
6.591600000e+03,-3.268573364e+01,-2.553590050e+00,-6.107491857e-03,-4.071661238e-03
6.591700000e+03,-2.508426764e+01,-2.741679575e+00,-1.622149837e-02,-6.856677524e-03
6.591800000e+03,-2.164173162e+01,-1.742200811e-02,2.617263844e-02,-4.560260586e-04
6.591900000e+03,-1.399551138e+01,2.387029758e+00,-4.599348534e-02,4.324104235e-02
6.592000000e+03,-1.961535567e+01,-1.716665209e+00,-4.804560261e-03,-3.270358306e-02
6.592100000e+03,-2.083004467e+01,-1.527148513e+00,1.254071661e-03,-2.871335505e-02
6.592200000e+03,-4.336062135e+01,-1.246647695e+00,6.840390879e-04,-2.035830619e-03
6.592300000e+03,-1.730906780e+01,1.042558702e+00,2.172638436e-02,3.723127036e-02
6.592400000e+03,-2.037209184e+01,-2.081340933e+00,-1.480456026e-02,-2.643322476e-02
6.592500000e+03,-2.326438939e+01,2.860408486e+00,-2.086319218e-02,6.026058632e-03
6.592600000e+03,-1.811666274e+01,2.540479818e+00,-3.239413681e-02,2.221498371e-02
6.592700000e+03,-4.444814313e+01,3.064161567e+00,-1.889250814e-03,1.465798046e-04
6.592800000e+03,-1.915464721e+01,7.368092456e-01,2.581433225e-02,2.342019544e-02
6.592900000e+03,-2.241752521e+01,-2.949934189e+00,-2.350162866e-02,-4.560260586e-03
6.593000000e+03,-2.126426577e+01,-3.112008328e-01,2.602605863e-02,-8.371335505e-03
6.593100000e+03,-3.131043973e+01,-6.510767214e-01,6.840390879e-03,-5.211726384e-03
6.593200000e+03,-1.560506016e+01,-1.445016283e+00,6.579804560e-03,-5.203583062e-02
6.593300000e+03,-2.242235999e+01,-3.896073773e-01,2.213355049e-02,-9.087947883e-03
6.593400000e+03,-3.799287101e+01,-5.993399862e-01,3.289902280e-03,-2.247557003e-03
6.593500000e+03,-2.432979016e+01,3.523204273e-01,1.802931596e-02,6.628664495e-03
6.593600000e+03,-1.718103717e+01,3.025549636e+00,-4.345276873e-02,5.065146580e-03
6.593700000e+03,-2.438356963e+01,-2.781523931e+00,-1.786644951e-02,-6.726384365e-03
6.593800000e+03,-1.837882106e+01,-3.375621843e-01,3.596091205e-02,-1.262214984e-02
6.593900000e+03,-2.489415540e+01,-9.785277516e-01,1.004885993e-02,-1.493485342e-02
6.594000000e+03,-1.615525512e+01,-1.829736529e+00,-1.260586319e-02,-4.758957655e-02
6.594100000e+03,-2.032056194e+01,-3.083999872e-01,2.903908795e-02,-9.250814332e-03
6.594200000e+03,-2.471895385e+01,-1.235586125e+00,6.042345277e-03,-1.734527687e-02
6.594300000e+03,-2.820156464e+01,1.464671901e+00,1.302931596e-03,1.223127036e-02
6.594400000e+03,-2.668929144e+01,1.925270149e+00,-5.081433225e-03,1.372964169e-02
6.594500000e+03,-2.815931601e+01,-2.178114357e-01,1.206840391e-02,-2.671009772e-03
6.594600000e+03,-3.260383181e+01,2.626808562e+00,-6.449511401e-03,3.648208469e-03
6.594700000e+03,-2.165484463e+01,2.945296934e+00,-2.563517915e-02,5.097719870e-03
6.594800000e+03,-1.857129380e+01,2.659576972e+00,-3.302931596e-02,1.728013029e-02
6.594900000e+03,-2.225511341e+01,-9.361090923e-01,1.446254072e-02,-1.964169381e-02
6.595000000e+03,-1.842684710e+01,-1.284057133e-01,3.758957655e-02,-4.853420195e-03
6.595100000e+03,-1.909804441e+01,-1.361291735e+00,7.296416938e-03,-3.431596091e-02
6.595200000e+03,-2.415300428e+01,-1.668150360e+00,-1.905537459e-03,-1.951140065e-02
6.595300000e+03,-1.568352172e+01,-1.884223649e+00,-1.602605863e-02,-4.944625407e-02
6.595400000e+03,-2.200635826e+01,-4.282384895e-01,2.283387622e-02,-1.042345277e-02
6.595500000e+03,-1.947739707e+01,1.322877188e+00,8.241042345e-03,3.255700326e-02
6.595600000e+03,-2.613334187e+01,9.935024311e-01,8.517915309e-03,1.307817590e-02
6.595700000e+03,-2.343055006e+01,-2.961739154e+00,-2.096091205e-02,-3.811074919e-03
6.595800000e+03,-2.371111531e+01,-5.169915784e-01,1.793159609e-02,-1.019543974e-02
6.595900000e+03,-1.803485329e+01,-1.497206229e+00,2.915309446e-03,-3.954397394e-02
6.596000000e+03,-2.011416921e+01,3.124370974e+00,-3.120521173e-02,5.374592834e-04
6.596100000e+03,-2.524621739e+01,-7.494137033e-01,1.265472313e-02,-1.177524430e-02
6.596200000e+03,-1.453016343e+01,2.733926799e+00,-5.449511401e-02,2.353420195e-02
6.596300000e+03,-1.982240785e+01,2.996769753e+00,-3.193811075e-02,4.657980456e-03
6.596400000e+03,-2.185731365e+01,1.782561482e-01,2.513029316e-02,4.527687296e-03
6.596500000e+03,-2.653751921e+01,2.853381921e+00,-1.428338762e-02,4.234527687e-03
6.596600000e+03,-1.923451617e+01,-1.415493819e+00,5.342019544e-03,-3.412052117e-02
6.596700000e+03,-2.186580950e+01,-2.089863252e+00,-1.265472313e-02,-2.214983713e-02
6.596800000e+03,-2.205705797e+01,1.404252800e+00,4.136807818e-03,2.460912052e-02
6.596900000e+03,-2.578174215e+01,2.993743288e+00,-1.607491857e-02,2.394136808e-03
6.597000000e+03,-2.094892680e+01,-1.263216335e+00,8.583061889e-03,-2.701954397e-02
6.597100000e+03,-2.502443976e+01,-1.224065496e+00,6.026058632e-03,-1.667752443e-02
6.597200000e+03,-2.016454046e+01,1.209199764e+00,1.097719870e-02,2.902280130e-02
6.597300000e+03,-1.936232122e+01,2.569651326e+00,-2.861563518e-02,1.842019544e-02
6.597400000e+03,-1.756099411e+01,1.728975362e+00,-6.596091205e-03,4.135179153e-02
6.597500000e+03,-2.633337149e+01,1.972323011e+00,-5.960912052e-03,1.403908795e-02
6.597600000e+03,-2.101527154e+01,1.724810031e+00,-4.315960912e-03,2.780130293e-02
6.597700000e+03,-1.359596895e+01,1.051252914e+00,3.281758958e-02,5.737785016e-02
6.597800000e+03,-1.725849798e+01,2.965657664e-01,4.146579805e-02,1.267100977e-02
6.597900000e+03,-2.294216726e+01,2.800415972e+00,-2.123778502e-02,7.540716612e-03
6.598000000e+03,-2.811610055e+01,-2.098398899e+00,-6.254071661e-03,-1.073289902e-02
6.598100000e+03,-2.793402120e+01,1.150225502e+00,5.179153094e-03,1.157980456e-02
6.598200000e+03,-2.238261121e+01,5.793578274e-01,2.011400651e-02,1.315960912e-02
6.598300000e+03,-2.773491210e+01,2.961177987e+00,-1.276872964e-02,2.328990228e-03
6.598400000e+03,-2.535464733e+01,1.813041345e-01,1.679153094e-02,3.078175896e-03
6.598500000e+03,-2.748495947e+01,2.212590536e+00,-7.996742671e-03,1.070032573e-02
6.598600000e+03,-1.519954997e+01,2.075275454e+00,-2.656351792e-02,4.811074919e-02
6.598700000e+03,-2.596482102e+01,-1.934957458e+00,-5.667752443e-03,-1.486970684e-02
6.598800000e+03,-3.224552027e+01,-6.987890237e-01,5.912052117e-03,-4.967426710e-03
6.598900000e+03,-2.471225610e+01,-1.255490065e+00,5.700325733e-03,-1.747557003e-02
6.599000000e+03,-1.952597183e+01,2.808738299e+00,-3.156351792e-02,1.091205212e-02
6.599100000e+03,-2.683771909e+01,-4.940180149e-01,1.267100977e-02,-6.824104235e-03
6.599200000e+03,-3.188582191e+01,-1.348396055e+00,1.775244300e-03,-7.850162866e-03
6.599300000e+03,-1.778162217e+01,-1.510119502e+00,2.475570033e-03,-4.074918567e-02
6.599400000e+03,-2.626559947e+01,2.071411439e+00,-7.377850163e-03,1.348534202e-02
6.599500000e+03,-1.735472049e+01,3.018603843e+00,-4.255700326e-02,5.260586319e-03
6.599600000e+03,-2.977025832e+01,1.608873152e+00,-3.908794788e-04,1.026058632e-02
6.599700000e+03,-1.923911207e+01,2.801488691e+00,-3.254071661e-02,1.151465798e-02
6.599800000e+03,-2.410187960e+01,4.817468515e-01,1.747557003e-02,9.136807818e-03
6.599900000e+03,-1.388229781e+01,2.822741109e+00,-6.073289902e-02,2.004885993e-02
6.600000000e+03,-2.905882144e+01,1.097345110e+00,5.081433225e-03,9.918566775e-03
6.600100000e+03,-2.585841161e+01,3.094057639e+00,-1.609120521e-02,7.654723127e-04
6.600200000e+03,-2.582152935e+01,-1.728497277e+00,-2.540716612e-03,-1.597719870e-02
6.600300000e+03,-3.082280989e+01,7.004695294e-01,6.954397394e-03,5.863192182e-03
6.600400000e+03,-2.790419939e+01,1.645176300e-01,1.255700326e-02,2.084690554e-03
6.600500000e+03,-3.684453771e+01,-1.041432887e+00,2.296416938e-03,-3.925081433e-03
6.600600000e+03,-3.163458062e+01,-2.775689108e+00,-7.736156352e-03,-2.964169381e-03
6.600700000e+03,-1.926369696e+01,-8.815711415e-01,2.188925081e-02,-2.656351792e-02
6.600800000e+03,-2.460834069e+01,8.262675866e-01,1.260586319e-02,1.368078176e-02
6.600900000e+03,-1.986062825e+01,3.022203985e+00,-3.190553746e-02,3.827361564e-03
6.601000000e+03,-2.128050237e+01,-2.797002952e+00,-2.568403909e-02,-9.218241042e-03
6.601100000e+03,-1.767413921e+01,-2.018231046e+00,-1.788273616e-02,-3.726384365e-02
6.601200000e+03,-1.670289260e+01,1.380794731e+00,8.729641694e-03,4.539087948e-02
6.601300000e+03,-2.152189619e+01,1.208865429e+00,9.397394137e-03,2.482084691e-02
6.601400000e+03,-2.731898089e+01,-1.747547237e+00,-2.394136808e-03,-1.340390879e-02
6.601500000e+03,-2.382966113e+01,1.361156481e+00,4.234527687e-03,1.990228013e-02
6.601600000e+03,-1.983855752e+01,-9.353840204e-01,1.912052117e-02,-2.592833876e-02
6.601700000e+03,-2.916993961e+01,-1.975493750e+00,-4.332247557e-03,-1.011400651e-02
6.601800000e+03,-2.409273559e+01,-1.092389642e+00,9.087947883e-03,-1.752442997e-02
6.601900000e+03,-3.167464457e+01,2.410685946e+00,-6.140065147e-03,5.504885993e-03
6.602000000e+03,-1.886890600e+01,-2.461849352e-01,3.493485342e-02,-8.778501629e-03
6.602100000e+03,-2.354648972e+01,-1.267911458e+00,6.270358306e-03,-2.006514658e-02
