6.500000000e+03,-3.552519457e+00,8.277864911e-01,4.494140625e-02,4.892252604e-02
6.500500000e+03,-3.356958286e+00,-6.483328570e-01,5.415771484e-02,-4.102864583e-02
6.501000000e+03,-5.243234573e+00,-2.353879290e+00,-3.857584635e-02,-3.875488281e-02
6.501500000e+03,-3.423919197e+00,-7.383533698e-01,4.986409505e-02,-4.538004557e-02
6.502000000e+03,-3.234440659e+00,-1.777917273e+00,-1.417073568e-02,-6.743652344e-02
6.502500000e+03,-3.703132905e+00,-1.396989866e+00,1.129069010e-02,-6.430582682e-02
6.503000000e+03,-4.559880439e+00,-2.935380236e+00,-5.790364583e-02,-1.211263021e-02
6.503500000e+03,-4.237494211e+00,4.270695948e-01,5.587972005e-02,2.542968750e-02
6.504000000e+03,-4.037174822e+00,-2.051632178e+00,-2.905843099e-02,-5.570231120e-02
6.504500000e+03,-6.595861813e+00,2.746304013e-02,4.677815755e-02,1.284993490e-03
6.505000000e+03,-6.606989224e+00,-1.997150012e+00,-1.932779948e-02,-4.255208333e-02
6.505500000e+03,-6.636123726e+00,1.693701566e+00,-5.710449219e-03,4.622802734e-02
6.506000000e+03,-7.257061372e+00,-1.872178844e+00,-1.287272135e-02,-4.141113281e-02
6.506500000e+03,-8.393784491e+00,-2.388295079e+00,-2.775227865e-02,-2.602539063e-02
6.507000000e+03,-7.904776934e+00,1.000111214e+00,2.174316406e-02,3.387125651e-02
6.507500000e+03,-7.185059072e+00,8.828708303e-01,2.776367188e-02,3.378173828e-02
6.508000000e+03,-8.387269676e+00,-2.602251460e-01,3.679280599e-02,-9.796549479e-03
6.508500000e+03,-8.202023768e+00,2.721908868e+00,-3.552001953e-02,1.584879557e-02
6.509000000e+03,-7.454732760e+00,1.441793182e+00,5.453287760e-03,4.203776042e-02
6.509500000e+03,-5.778499960e+00,2.137544968e+00,-2.760335286e-02,4.337483724e-02
6.510000000e+03,-4.101276764e+00,9.541692879e-01,3.606445312e-02,5.087890625e-02
6.510500000e+03,-4.894846243e+00,2.585322718e+00,-4.833740234e-02,3.005452474e-02
6.511000000e+03,-3.453577716e+00,1.670031129e+00,-6.656901042e-03,6.686197917e-02
6.511500000e+03,-3.251548111e+00,-1.681269298e+00,-7.582194010e-03,-6.835449219e-02
6.512000000e+03,-1.936618688e+00,3.137310787e+00,-8.001383464e-02,3.426106771e-04
6.512500000e+03,-3.384452176e+00,1.613512360e+00,-2.892252604e-03,6.766764323e-02
6.513000000e+03,-2.590875363e+00,-2.543570205e-01,7.182128906e-02,-1.867268880e-02
6.513500000e+03,-1.588782674e+00,-3.014978496e+00,-8.261718750e-02,-1.051676432e-02
6.514000000e+03,-1.840886370e+00,-1.230865379e+00,2.697428385e-02,-7.627197266e-02
6.514500000e+03,-2.053925775e+00,2.205054286e+00,-4.677897135e-02,6.358805339e-02
6.515000000e+03,-3.170334570e+00,-2.324731212e+00,-4.751871745e-02,-5.060709635e-02
6.515500000e+03,-2.833923721e+00,1.640073364e+00,-4.995117188e-03,7.198811849e-02
6.516000000e+03,-3.019178926e+00,1.703267922e+00,-9.330240885e-03,7.001953125e-02
6.516500000e+03,-3.304225950e+00,-2.038639328e+00,-3.082682292e-02,-6.101236979e-02
6.517000000e+03,-3.996140750e+00,-7.211124777e-01,4.741048177e-02,-4.167561849e-02
6.517500000e+03,-4.355632932e+00,1.871512116e+00,-1.793945313e-02,5.784667969e-02
6.518000000e+03,-4.163399785e+00,5.768518148e-01,5.190022786e-02,3.377034505e-02
6.518500000e+03,-6.002417425e+00,7.024514993e-01,3.824300130e-02,3.237223307e-02
6.519000000e+03,-7.649445761e+00,2.055886910e+00,-1.932779948e-02,3.666829427e-02
6.519500000e+03,-8.950101088e+00,1.679675589e+00,-3.877766927e-03,3.547444661e-02
6.520000000e+03,-7.119243672e+00,-3.647178724e-01,4.116129557e-02,-1.571533203e-02
6.520500000e+03,-6.039131493e+00,1.937084849e+00,-1.786946615e-02,4.658365885e-02
6.521000000e+03,-7.153593083e+00,-6.813468874e-01,3.408691406e-02,-2.764078776e-02
6.521500000e+03,-8.069455954e+00,-1.022026165e+00,2.060139974e-02,-3.369466146e-02
6.522000000e+03,-6.046236086e+00,-2.318601896e+00,-3.390136719e-02,-3.655110677e-02
6.522500000e+03,-6.087136177e+00,-1.334509430e+00,1.161539714e-02,-4.823974609e-02
6.523000000e+03,-6.128083503e+00,-1.084949963e+00,2.306070964e-02,-4.367024740e-02
6.523500000e+03,-5.235258712e+00,4.596138712e-02,5.467366536e-02,2.514648437e-03
6.524000000e+03,-5.249132966e+00,-2.823539071e+00,-5.190348307e-02,-1.708821615e-02
6.524500000e+03,-5.304356139e+00,5.385199891e-01,4.661295573e-02,2.784749349e-02
6.525000000e+03,-5.362857033e+00,1.251135723e+00,1.694824219e-02,5.120117187e-02
6.525500000e+03,-4.502284274e+00,-2.660159634e+00,-5.278157552e-02,-2.757486979e-02
6.526000000e+03,-3.592465995e+00,-1.220254708e+00,2.270833333e-02,-6.210530599e-02
6.526500000e+03,-4.055148931e+00,2.067241431e+00,-2.986246745e-02,5.512776693e-02
6.527000000e+03,-2.967629181e+00,2.600041839e+00,-6.089111328e-02,3.662841797e-02
6.527500000e+03,-3.074841778e+00,-4.752526242e-01,6.240885417e-02,-3.211507161e-02
6.528000000e+03,-2.993262761e+00,-1.040685455e+00,3.582356771e-02,-6.112548828e-02
6.528500000e+03,-3.875645077e+00,-2.754777555e+00,-5.927652995e-02,-2.414550781e-02
6.529000000e+03,-4.827764641e+00,1.269631258e+00,1.701497396e-02,5.477864583e-02
6.529500000e+03,-3.983837093e+00,1.576898601e+00,-3.857421875e-04,6.321207682e-02
6.530000000e+03,-5.432310714e+00,-1.843663834e+00,-1.441894531e-02,-5.152425130e-02
6.530500000e+03,-4.685663474e+00,1.884293184e+00,-1.798095703e-02,5.546468099e-02
6.531000000e+03,-5.033366674e+00,-2.787453619e+00,-5.254231771e-02,-1.942626953e-02
6.531500000e+03,-5.434033865e+00,-8.597245997e-01,3.491210938e-02,-4.052978516e-02
6.532000000e+03,-6.903383212e+00,-1.277109878e+00,1.307535807e-02,-4.323404948e-02
6.532500000e+03,-6.113384880e+00,-1.118169785e+00,2.163411458e-02,-4.448730469e-02
6.533000000e+03,-6.999273369e+00,-5.577129756e-01,3.790283203e-02,-2.364257812e-02
6.533500000e+03,-1.067158504e+01,-3.084397666e+00,-2.922200521e-02,-1.673177083e-03
6.534000000e+03,-9.549448350e+00,2.000628944e+00,-1.387939453e-02,3.027669271e-02
6.534500000e+03,-8.041377547e+00,-1.553932683e+00,6.681315104e-04,-3.961588542e-02
6.535000000e+03,-7.181580785e+00,2.017520657e+00,-1.889811198e-02,3.945149740e-02
6.535500000e+03,-7.872762211e+00,2.830479561e-01,3.879069010e-02,1.128255208e-02
6.536000000e+03,-1.122651772e+01,2.266062069e+00,-1.758951823e-02,2.108479818e-02
6.536500000e+03,-9.250214476e+00,-6.729897597e-01,2.695719401e-02,-2.148844401e-02
6.537000000e+03,-8.674126554e+00,-2.131990865e-02,3.682942708e-02,-7.853190104e-04
6.537500000e+03,-7.209452433e+00,-7.419266313e-01,3.214355469e-02,-2.946370443e-02
6.538000000e+03,-6.982625042e+00,2.719882808e+00,-4.083658854e-02,1.832031250e-02
6.538500000e+03,-9.920387607e+00,2.282235473e+00,-2.083740234e-02,2.417236328e-02
6.539000000e+03,-7.760051653e+00,8.604683306e-01,2.668701172e-02,3.102783203e-02
6.539500000e+03,-5.646575170e+00,6.515331898e-01,4.150716146e-02,3.165445964e-02
6.540000000e+03,-6.131498008e+00,1.491931925e+00,3.889160156e-03,4.921223958e-02
6.540500000e+03,-4.855052314e+00,1.157171636e+00,2.298258464e-02,5.235839844e-02
6.541000000e+03,-5.678904351e+00,-2.267836678e+00,-3.338541667e-02,-3.987548828e-02
6.541500000e+03,-6.694901694e+00,1.793798115e+00,-1.023193359e-02,4.511962891e-02
6.542000000e+03,-5.268770636e+00,1.134412529e-03,5.452067057e-02,6.184895833e-05
6.542500000e+03,-6.564944414e+00,2.808931568e+00,-4.438802083e-02,1.533610026e-02
6.543000000e+03,-5.510169709e+00,2.626150910e+00,-4.613688151e-02,2.613769531e-02
6.543500000e+03,-6.741295103e+00,1.977780272e+00,-1.821614583e-02,4.225992839e-02
6.544000000e+03,-6.441318683e+00,4.884117433e-01,4.206624349e-02,2.235188802e-02
6.544500000e+03,-7.305307299e+00,2.382003649e+00,-3.127115885e-02,2.969726563e-02
6.545000000e+03,-8.039362172e+00,-1.459329547e+00,4.408365885e-03,-3.938476562e-02
6.545500000e+03,-6.445822041e+00,-7.589138907e-01,3.454589844e-02,-3.276285807e-02
6.546000000e+03,-7.869925940e+00,1.475416920e-01,3.997233073e-02,5.940755208e-03
6.546500000e+03,-9.183354004e+00,-1.161693618e+00,1.381917318e-02,-3.187337240e-02
6.547000000e+03,-8.122906565e+00,-2.903638882e+00,-3.814534505e-02,-9.252115885e-03
6.547500000e+03,-8.239718473e+00,-1.549528752e+00,8.235677083e-04,-3.871826172e-02
6.548000000e+03,-1.097062865e+01,1.327716095e+00,6.806640625e-03,2.744791667e-02
6.548500000e+03,-1.225766274e+01,-1.986411457e+00,-9.845377604e-03,-2.230875651e-02
6.549000000e+03,-1.188422521e+01,2.739790413e+00,-2.342854818e-02,9.955240885e-03
6.549500000e+03,-1.276572674e+01,-2.846028187e+00,-2.200195313e-02,-6.699218750e-03
6.550000000e+03,-1.515633047e+01,2.608436948e+00,-1.504150391e-02,8.876953125e-03
6.550500000e+03,-1.392177183e+01,2.298569904e+00,-1.339274089e-02,1.503255208e-02
6.551000000e+03,-1.139069038e+01,-2.597557638e+00,-2.305419922e-02,-1.394612630e-02
6.551500000e+03,-1.116876606e+01,1.266117748e-01,2.742024740e-02,3.490397135e-03
6.552000000e+03,-1.106452732e+01,2.142097102e+00,-1.512695313e-02,2.353271484e-02
6.552500000e+03,-1.138822222e+01,-1.341548711e+00,6.124674479e-03,-2.624674479e-02
6.553000000e+03,-8.910120446e+00,1.505006498e-01,3.544514974e-02,5.375162760e-03
6.553500000e+03,-9.345780926e+00,1.414013291e+00,5.323893229e-03,3.367838542e-02
6.554000000e+03,-1.003411948e+01,-1.066744252e+00,1.521321615e-02,-2.758138021e-02
6.554500000e+03,-1.009796264e+01,2.550955305e+00,-2.597086589e-02,1.741292318e-02
6.555000000e+03,-9.983803098e+00,-2.278012823e+00,-2.058430990e-02,-2.408365885e-02
6.555500000e+03,-1.042973715e+01,-2.223380030e-01,2.935546875e-02,-6.636555990e-03
6.556000000e+03,-1.104507373e+01,2.014491765e+00,-1.203613281e-02,2.532307943e-02
6.556500000e+03,-1.110871438e+01,-9.637519593e-01,1.587727865e-02,-2.286051432e-02
6.557000000e+03,-1.162785225e+01,2.599421823e+00,-2.245849609e-02,1.352864583e-02
6.557500000e+03,-1.324527296e+01,-1.481121574e+00,1.949055990e-03,-2.167643229e-02
6.558000000e+03,-1.280166240e+01,2.045249172e+00,-1.046386719e-02,2.037434896e-02
6.558500000e+03,-1.380957727e+01,-2.251806389e+00,-1.284016927e-02,-1.584554036e-02
6.559000000e+03,-1.435739240e+01,2.294819828e+00,-1.268391927e-02,1.434488932e-02
6.559500000e+03,-1.258154498e+01,-2.553657305e+00,-1.954752604e-02,-1.302978516e-02
6.560000000e+03,-1.750179671e+01,-2.854631827e+00,-1.278727214e-02,-3.773600260e-03
6.560500000e+03,-2.051500401e+01,2.548991721e+00,-7.817382813e-03,5.263671875e-03
6.561000000e+03,-1.717699128e+01,2.042227517e+00,-6.285807292e-03,1.233072917e-02
6.561500000e+03,-2.119683921e+01,-2.587428865e+00,-7.408854167e-03,-4.584960938e-03
6.562000000e+03,-2.899133999e+01,-1.457855638e-01,3.513997396e-03,-5.159505208e-04
6.562500000e+03,-2.784520864e+01,5.226829248e-01,3.511555990e-03,2.023111979e-03
6.563000000e+03,-2.963037663e+01,1.661679498e+00,-2.994791667e-04,3.286132813e-03
6.563500000e+03,-2.106383143e+01,2.539019953e-02,8.844401042e-03,2.246093750e-04
6.564000000e+03,-1.722395668e+01,1.316803605e-01,1.364664714e-02,1.807454427e-03
6.564500000e+03,-2.125479968e+01,1.441997798e+00,1.111653646e-03,8.583170573e-03
6.565000000e+03,-2.415204877e+01,4.054433012e-01,5.697428385e-03,2.445475260e-03
6.565500000e+03,-2.039184839e+01,-1.919014535e+00,-3.261718750e-03,-8.985188802e-03
6.566000000e+03,-1.956527466e+01,-1.778499861e+00,-2.167968750e-03,-1.028727214e-02
6.566500000e+03,-2.390180253e+01,-1.081424134e+00,2.999674479e-03,-5.632324219e-03
6.567000000e+03,-2.305798992e+01,3.074654998e+00,-7.016601562e-03,4.703776042e-04
6.567500000e+03,-1.309761142e+01,-7.113496703e-01,1.676839193e-02,-1.445231120e-02
6.568000000e+03,-1.686847087e+01,-3.090384549e+00,-1.432210286e-02,-7.340494792e-04
6.568500000e+03,-1.672520142e+01,2.462449410e+00,-1.134440104e-02,9.157714844e-03
6.569000000e+03,-1.854290032e+01,-2.652707984e+00,-1.044108073e-02,-5.554199219e-03
6.569500000e+03,-1.784083869e+01,-1.890780666e+00,-4.033203125e-03,-1.217122396e-02
6.570000000e+03,-2.870021333e+01,-1.901165545e+00,-1.191406250e-03,-3.474121094e-03
6.570500000e+03,-2.580147001e+01,-2.771342327e+00,-4.780273438e-03,-1.855468750e-03
6.571000000e+03,-2.056090877e+01,2.331037871e-01,9.121093750e-03,2.165527344e-03
6.571500000e+03,-1.785944465e+01,3.117941299e-01,1.217773437e-02,3.924967448e-03
6.572000000e+03,-1.854895247e+01,3.124032475e+00,-1.181640625e-02,2.075195312e-04
6.572500000e+03,-4.116177046e+01,-8.255345958e-01,5.932617188e-04,-6.429036458e-04
6.573000000e+03,-1.886665947e+01,-2.102469694e+00,-5.776367188e-03,-9.820963542e-03
6.573500000e+03,-2.594444384e+01,5.004540839e-01,4.425455729e-03,2.420247396e-03
6.574000000e+03,-2.221053233e+01,1.962608045e+00,-2.960611979e-03,7.165527344e-03
6.574500000e+03,-3.029339710e+01,1.261083241e+00,9.318033854e-04,2.911783854e-03
6.575000000e+03,-2.675577221e+01,-2.697592306e+00,-4.148763021e-03,-1.973470052e-03
6.575500000e+03,-2.581866674e+01,-2.818434074e+00,-4.852701823e-03,-1.625162760e-03
6.576000000e+03,-2.283783569e+01,-6.756395887e-01,5.628255208e-03,-4.510904948e-03
6.576500000e+03,-2.078447295e+01,-8.082632007e-01,6.311035156e-03,-6.606445313e-03
6.577000000e+03,-1.535082893e+01,-7.313275558e-01,1.271158854e-02,-1.140625000e-02
6.577500000e+03,-2.376119657e+01,-2.224254102e-01,6.325683594e-03,-1.430664062e-03
6.578000000e+03,-1.666022797e+01,-5.863277177e-01,1.223551432e-02,-8.127441406e-03
6.578500000e+03,-1.717539228e+01,7.158380994e-01,1.044514974e-02,9.084472656e-03
6.579000000e+03,-1.900291845e+01,2.497826806e-01,1.086832682e-02,2.772623698e-03
6.579500000e+03,-1.921353491e+01,1.139567092e+00,4.576009115e-03,9.945475260e-03
6.580000000e+03,-1.558075962e+01,1.992463403e+00,-6.807454427e-03,1.517578125e-02
6.580500000e+03,-1.953659488e+01,2.463875566e+00,-8.216959635e-03,6.613769531e-03
6.581000000e+03,-2.554069632e+01,-2.943472194e+00,-5.180664062e-03,-1.040039062e-03
6.581500000e+03,-2.959301897e+01,1.662767936e+00,-3.043619792e-04,3.299967448e-03
6.582000000e+03,-3.054432815e+01,-3.029846174e+00,-2.951660156e-03,-3.312174479e-04
6.582500000e+03,-1.945715713e+01,3.640946236e-01,9.947102865e-03,3.790690104e-03
6.583000000e+03,-2.342267430e+01,2.183034985e+00,-3.875325521e-03,5.518391927e-03
6.583500000e+03,-2.174679384e+01,-2.678840809e-01,7.886555990e-03,-2.164713542e-03
6.584000000e+03,-2.301489070e+01,1.930025224e+00,-2.484537760e-03,6.616210937e-03
6.584500000e+03,-2.033266046e+01,4.796063161e-01,8.538411458e-03,4.440917969e-03
6.585000000e+03,-2.465437456e+01,1.049649249e+00,2.913411458e-03,5.074869792e-03
6.585500000e+03,-1.523212433e+01,1.615511021e+00,-7.739257812e-04,1.729654948e-02
6.586000000e+03,-1.827344103e+01,1.501228421e+00,8.479817708e-04,1.216959635e-02
6.586500000e+03,-1.446448516e+01,-1.729239155e+00,-2.984212240e-03,-1.867675781e-02
6.587000000e+03,-2.049160716e+01,-2.415236385e+00,-7.064615885e-03,-6.276041667e-03
6.587500000e+03,-2.106349981e+01,4.846278669e-01,7.828776042e-03,4.121907552e-03
6.588000000e+03,-1.708743373e+01,-6.421160520e-01,1.119873047e-02,-8.374837240e-03
6.588500000e+03,-1.590312896e+01,7.448138767e-01,1.178304036e-02,1.086344401e-02
6.589000000e+03,-1.317910296e+01,-1.983723102e+00,-8.800455729e-03,-2.008707682e-02
6.589500000e+03,-1.446644360e+01,-2.829300817e+00,-1.799479167e-02,-5.809733073e-03
6.590000000e+03,-1.087520205e+01,-7.261317785e-01,2.137939453e-02,-1.898437500e-02
6.590500000e+03,-1.302220615e+01,-2.177509594e+00,-1.273193359e-02,-1.834472656e-02
6.591000000e+03,-1.277407262e+01,2.347879715e+00,-1.611165365e-02,1.638183594e-02
6.591500000e+03,-1.312720970e+01,-2.181195921e+00,-1.264567057e-02,-1.807779948e-02
6.592000000e+03,-1.173093445e+01,-2.318161630e+00,-1.761067708e-02,-1.900390625e-02
6.592500000e+03,-1.149922517e+01,-1.638497624e+00,-1.800130208e-03,-2.654866536e-02
6.593000000e+03,-1.371218456e+01,1.024489606e+00,1.071533203e-02,1.762288411e-02
6.593500000e+03,-1.032743037e+01,-2.515558791e+00,-2.467773437e-02,-1.784342448e-02
6.594000000e+03,-1.199258641e+01,-2.673978477e+00,-2.244140625e-02,-1.133219401e-02
6.594500000e+03,-1.512457921e+01,1.839039440e+00,-4.645996094e-03,1.690266927e-02
6.595000000e+03,-1.338559929e+01,-1.380130582e+00,4.058430990e-03,-2.102701823e-02
6.595500000e+03,-9.918136427e+00,2.936257578e+00,-3.125162760e-02,6.508789063e-03
6.596000000e+03,-9.170907506e+00,-2.406555556e-01,3.378743490e-02,-8.291829427e-03
6.596500000e+03,-1.111300739e+01,2.499326018e+00,-2.227620443e-02,1.666422526e-02
6.597000000e+03,-1.311988431e+01,2.277119957e+00,-1.433105469e-02,1.679768880e-02
6.597500000e+03,-1.040209593e+01,2.100440392e+00,-1.525390625e-02,2.605550130e-02
6.598000000e+03,-1.173950018e+01,1.888709083e+00,-8.090820313e-03,2.458658854e-02
6.598500000e+03,-1.273901854e+01,9.925096063e-02,2.295654297e-02,2.285970052e-03
6.599000000e+03,-1.110816228e+01,3.017810623e+00,-2.762207031e-02,3.436686198e-03
6.599500000e+03,-9.001611329e+00,2.680397001e+00,-3.176839193e-02,1.578694661e-02
6.600000000e+03,-1.359701984e+01,-1.966147550e+00,-8.049316406e-03,-1.928792318e-02
6.600500000e+03,-1.361812872e+01,1.928287846e+00,-7.295735677e-03,1.953125000e-02
6.601000000e+03,-1.205348250e+01,-2.521199168e+00,-2.031250000e-02,-1.451334635e-02
6.601500000e+03,-1.174250675e+01,1.641653383e+00,-1.831868490e-03,2.580973307e-02
6.602000000e+03,-1.204711360e+01,7.332267101e-01,1.856282552e-02,1.672037760e-02
6.602500000e+03,-1.446999364e+01,-2.822510647e+00,-1.794759115e-02,-5.929361979e-03
6.603000000e+03,-1.127525318e+01,7.749163923e-04,2.730468750e-02,2.115885417e-05
6.603500000e+03,-9.481918591e+00,-2.618558258e+00,-2.907877604e-02,-1.676676432e-02
6.604000000e+03,-1.071406957e+01,2.086359109e+00,-1.436035156e-02,2.534098307e-02
6.604500000e+03,-1.225436625e+01,-2.576483069e+00,-2.060139974e-02,-1.306315104e-02
6.605000000e+03,-1.074632029e+01,-2.968855266e+00,-2.858723958e-02,-4.987792969e-03
6.605500000e+03,-1.268806852e+01,2.679921141e+00,-2.077636719e-02,1.033691406e-02
6.606000000e+03,-1.214116917e+01,1.699396240e-01,2.435791016e-02,4.179687500e-03
6.606500000e+03,-1.249745910e+01,-2.588622841e+00,-2.018554687e-02,-1.245849609e-02
6.607000000e+03,-1.196840693e+01,-1.442517507e+00,3.225097656e-03,-2.500325521e-02
6.607500000e+03,-1.473100099e+01,2.819533431e+00,-1.739908854e-02,5.805664063e-03
6.608000000e+03,-1.543347520e+01,-3.018711440e+00,-1.678955078e-02,-2.073567708e-03
6.608500000e+03,-1.316207423e+01,-8.493149687e-01,1.451334635e-02,-1.649820964e-02
6.609000000e+03,-1.180154524e+01,2.944333719e+00,-2.520100911e-02,5.036621094e-03
6.609500000e+03,-1.394508326e+01,-2.966955672e+00,-1.977376302e-02,-3.488769531e-03
6.610000000e+03,-1.494800734e+01,-2.621318063e+00,-1.552246094e-02,-8.893229167e-03
6.610500000e+03,-1.523591826e+01,2.330888069e+00,-1.192382813e-02,1.254313151e-02
6.611000000e+03,-1.343434636e+01,1.849064490e+00,-5.849609375e-03,2.047607422e-02
6.611500000e+03,-1.408780666e+01,-2.208710533e+00,-1.176269531e-02,-1.586751302e-02
6.612000000e+03,-1.275910210e+01,4.392629709e-01,2.083170573e-02,9.788411458e-03
6.612500000e+03,-1.212297732e+01,2.647608999e+00,-2.180501302e-02,1.174235026e-02
6.613000000e+03,-1.170228375e+01,1.603767929e+00,-8.569335937e-04,2.598063151e-02
6.613500000e+03,-1.035334294e+01,-2.055530167e+00,-1.414794922e-02,-2.686442057e-02
6.614000000e+03,-8.879344489e+00,2.708145353e+00,-3.265055339e-02,1.511067708e-02
6.614500000e+03,-1.170179962e+01,-2.086098397e+00,-1.281087240e-02,-2.262044271e-02
6.615000000e+03,-1.104167966e+01,5.167025919e-01,2.438720703e-02,1.385660807e-02
6.615500000e+03,-1.196221269e+01,-7.555590010e-01,1.836344401e-02,-1.729899089e-02
6.616000000e+03,-1.239063007e+01,6.520342965e-01,1.908772786e-02,1.457194010e-02
6.616500000e+03,-1.245615438e+01,-1.310587640e+00,6.131998698e-03,-2.303141276e-02
6.617000000e+03,-1.555485379e+01,-6.648595850e-01,1.312906901e-02,-1.029215495e-02
6.617500000e+03,-1.144335585e+01,2.953422320e+00,-2.630859375e-02,5.009765625e-03
6.618000000e+03,-1.261380307e+01,-1.820101156e+00,-5.774739583e-03,-2.268147786e-02
6.618500000e+03,-1.131986388e+01,-1.586524895e+00,-4.272460938e-04,-2.716145833e-02
6.619000000e+03,-1.117181339e+01,1.161321905e+00,1.100097656e-02,2.534749349e-02
6.619500000e+03,-1.109162242e+01,-9.990135048e-01,1.509114583e-02,-2.345214844e-02
6.620000000e+03,-1.363589739e+01,-1.816581311e+00,-5.062662760e-03,-2.018147786e-02
6.620500000e+03,-1.176094831e+01,2.153536419e+00,-1.420898437e-02,2.155843099e-02
6.621000000e+03,-1.146545013e+01,-1.499113367e+00,1.913248698e-03,-2.664469401e-02
6.621500000e+03,-1.055134742e+01,6.490347315e-01,2.364339193e-02,1.793782552e-02
6.622000000e+03,-1.043941672e+01,-2.832366164e+00,-2.863688151e-02,-9.148763021e-03
6.622500000e+03,-1.094713401e+01,9.447684097e-01,1.661458333e-02,2.297851563e-02
6.623000000e+03,-1.421833532e+01,-2.769166435e-02,1.944986979e-02,-5.387369792e-04
6.623500000e+03,-1.060774212e+01,-1.567925944e+00,8.463541667e-05,-2.948567708e-02
6.624000000e+03,-8.227613327e+00,2.534469974e+00,-3.185058594e-02,2.212483724e-02
6.624500000e+03,-8.937777229e+00,-1.010304784e-01,3.555419922e-02,-3.604329427e-03
6.625000000e+03,-1.259826577e+01,-1.065561891e-02,2.344563802e-02,-2.498372396e-04
6.625500000e+03,-9.900702788e+00,-1.735489094e+00,-5.244140625e-03,-3.155354818e-02
6.626000000e+03,-1.059202475e+01,-2.999898198e+00,-2.924316406e-02,-4.171549479e-03
6.626500000e+03,-1.073460501e+01,-1.776090044e+00,-5.923665365e-03,-2.844807943e-02
6.627000000e+03,-1.167366872e+01,2.004101991e+00,-1.095052083e-02,2.367024740e-02
6.627500000e+03,-7.945155634e+00,1.354672157e+00,8.591308594e-03,3.913085938e-02
6.628000000e+03,-1.149993277e+01,-2.113230050e+00,-1.373535156e-02,-2.278808594e-02
6.628500000e+03,-1.199521359e+01,-1.002550474e-01,2.500651042e-02,-2.515462240e-03
6.629000000e+03,-1.254206244e+01,-1.302472510e+00,6.256510417e-03,-2.275472005e-02
6.629500000e+03,-1.015004918e+01,3.130019460e+00,-3.107910156e-02,3.597005208e-04
6.630000000e+03,-1.152648327e+01,6.535763037e-01,2.105957031e-02,1.612874349e-02
6.630500000e+03,-1.100681630e+01,-1.632155223e+00,-1.726888021e-03,-2.810872396e-02
6.631000000e+03,-1.034497757e+01,-1.100346753e+00,1.377604167e-02,-2.708984375e-02
6.631500000e+03,-9.115668394e+00,-1.310731447e+00,9.003092448e-03,-3.383463542e-02
6.632000000e+03,-1.016972305e+01,-3.109072484e+00,-3.099446615e-02,-1.008300781e-03
6.632500000e+03,-8.544285371e+00,-2.359395464e+00,-2.652506510e-02,-2.635579427e-02
6.633000000e+03,-9.056029869e+00,2.863597401e+00,-3.389973958e-02,9.674479167e-03
6.633500000e+03,-1.646276895e+01,-5.135370641e-01,1.308837891e-02,-7.381998698e-03
6.634000000e+03,-9.259921353e+00,1.834169347e+00,-8.964843750e-03,3.324788411e-02
6.634500000e+03,-1.075967599e+01,-2.586765456e+00,-2.462809245e-02,-1.526367188e-02
6.635000000e+03,-1.059306389e+01,-1.189281999e+00,1.099690755e-02,-2.741210937e-02
6.635500000e+03,-8.045428027e+00,2.848860442e+00,-3.791829427e-02,1.142822266e-02
6.636000000e+03,-1.198667268e+01,-1.843630588e+00,-6.778971354e-03,-2.422688802e-02
6.636500000e+03,-8.483699958e+00,-1.105901884e+00,1.688151042e-02,-3.365804036e-02
6.637000000e+03,-1.192134523e+01,-9.288234637e-01,1.517740885e-02,-2.030110677e-02
6.637500000e+03,-1.106685572e+01,-1.525824921e+00,1.257324219e-03,-2.793945312e-02
6.638000000e+03,-1.259274505e+01,-2.292873015e+00,-1.550699870e-02,-1.760660807e-02
6.638500000e+03,-1.039821913e+01,-2.354841878e+00,-2.132975260e-02,-2.138753255e-02
6.639000000e+03,-9.998360336e+00,5.531282122e-01,2.691243490e-02,1.661621094e-02
6.639500000e+03,-1.101039036e+01,-8.407424558e-01,1.877360026e-02,-2.097574870e-02
6.640000000e+03,-1.339755527e+01,-1.710949742e+00,-2.987467448e-03,-2.117594401e-02
6.640500000e+03,-9.949611241e+00,2.974223057e+00,-3.136230469e-02,5.298665365e-03
6.641000000e+03,-1.212836709e+01,-7.761677994e-01,1.766194661e-02,-1.733886719e-02
6.641500000e+03,-9.138929005e+00,3.779096998e-01,3.245442708e-02,1.288411458e-02
6.642000000e+03,-1.162361357e+01,3.110097965e+00,-2.621826172e-02,8.260091146e-04
6.642500000e+03,-1.133187475e+01,-2.936736917e+00,-2.656005859e-02,-5.518391927e-03
6.643000000e+03,-1.085845133e+01,-1.630773256e+00,-1.717122396e-03,-2.859537760e-02
6.643500000e+03,-1.170765485e+01,-1.829271458e-01,2.554524740e-02,-4.725748698e-03
6.644000000e+03,-1.162372341e+01,1.294947058e+00,7.144368490e-03,2.523925781e-02
6.644500000e+03,-1.183049335e+01,6.991561142e-01,1.960449219e-02,1.648437500e-02
6.645000000e+03,-1.055001792e+01,6.943486234e-01,2.281005859e-02,1.899332682e-02
6.645500000e+03,-1.062335766e+01,1.620724346e+00,-1.468912760e-03,2.939615885e-02
6.646000000e+03,-1.030449260e+01,-2.092560171e-01,2.986735026e-02,-6.342773438e-03
6.646500000e+03,-1.230056998e+01,-1.006395049e+00,1.297932943e-02,-2.050130208e-02
6.647000000e+03,-1.165530377e+01,-1.355515542e-01,2.589599609e-02,-3.531901042e-03
6.647500000e+03,-1.021825431e+01,-1.081359029e+00,1.449788411e-02,-2.721761068e-02
6.648000000e+03,-1.281913730e+01,-2.906561419e+00,-2.222981771e-02,-5.323079427e-03
6.648500000e+03,-1.082756280e+01,9.249230723e-01,1.730387370e-02,2.295817057e-02
6.649000000e+03,-1.281965122e+01,-5.664342999e-01,1.928710938e-02,-1.226562500e-02
6.649500000e+03,-1.313348738e+01,1.263275990e+00,6.673177083e-03,2.101155599e-02
6.650000000e+03,-1.081701560e+01,1.604107904e+00,-9.586588542e-04,2.876790365e-02
6.650500000e+03,-1.207432617e+01,-4.300890344e-01,2.263671875e-02,-1.038411458e-02
6.651000000e+03,-1.321846987e+01,-2.409734769e-01,2.120035807e-02,-5.209960937e-03
6.651500000e+03,-1.195567043e+01,1.472423430e+00,2.479654948e-03,2.512532552e-02
6.652000000e+03,-1.308680421e+01,-6.083196283e-01,1.818847656e-02,-1.266682943e-02
6.652500000e+03,-1.541575099e+01,2.351397845e-01,1.648518880e-02,3.949381510e-03
6.653000000e+03,-1.222759398e+01,6.470530900e-01,1.952311198e-02,1.475097656e-02
6.653500000e+03,-2.116950529e+01,-9.848276511e-02,8.697916667e-03,-8.593750000e-04
6.654000000e+03,-1.613514977e+01,1.669053467e+00,-1.530761719e-03,1.552897135e-02
6.654500000e+03,-1.273985228e+01,2.210621397e+00,-1.377278646e-02,1.850504557e-02
6.655000000e+03,-1.300425760e+01,-2.469901816e+00,-1.751546224e-02,-1.392496745e-02
6.655500000e+03,-1.676309002e+01,-1.077785233e+00,6.870117188e-03,-1.278727214e-02
6.656000000e+03,-1.144320529e+01,-2.323400335e+00,-1.830647786e-02,-1.954833984e-02
6.656500000e+03,-1.242234861e+01,-2.178808337e+00,-1.366780599e-02,-1.963867187e-02
6.657000000e+03,-1.456916188e+01,1.270337907e+00,5.530598958e-03,1.784993490e-02
6.657500000e+03,-1.876401346e+01,-3.789465818e-01,1.071126302e-02,-4.265136719e-03
6.658000000e+03,-1.372066882e+01,3.123660545e+00,-2.060139974e-02,3.694661458e-04
6.658500000e+03,-1.471472552e+01,-7.014403759e-01,1.403808594e-02,-1.185872396e-02
6.659000000e+03,-1.751149463e+01,2.007331196e+00,-5.630696615e-03,1.206868490e-02
6.659500000e+03,-2.168336774e+01,-3.219379841e-01,7.814941406e-03,-2.606608073e-03
6.660000000e+03,-1.672926273e+01,1.681595389e+00,-1.611328125e-03,1.448323568e-02
6.660500000e+03,-1.682503195e+01,-2.789201314e-01,1.385579427e-02,-3.968098958e-03
6.661000000e+03,-1.886731639e+01,1.407784900e+00,1.848958333e-03,1.124186198e-02
6.661500000e+03,-2.070470711e+01,1.862734976e+00,-2.653808594e-03,8.830566406e-03
6.662000000e+03,-2.166551027e+01,1.078223695e+00,3.903808594e-03,7.273763021e-03
6.662500000e+03,-1.751952346e+01,-1.507892461e-01,1.315429687e-02,-1.998697917e-03
6.663000000e+03,-2.290611587e+01,-2.585765752e+00,-6.079101563e-03,-3.776041667e-03
6.663500000e+03,-1.799264731e+01,1.298902173e+00,3.383789062e-03,1.213704427e-02
6.664000000e+03,-2.424464845e+01,-2.475802243e+00,-4.824218750e-03,-3.789062500e-03
6.664500000e+03,-2.870750842e+01,4.836826225e-01,3.248697917e-03,1.706542969e-03
6.665000000e+03,-3.700634765e+01,2.222484522e+00,-8.561197917e-04,1.122233073e-03
6.665500000e+03,-3.129571281e+01,7.509581825e-01,1.991373698e-03,1.858723958e-03
6.666000000e+03,-1.986316337e+01,-9.229693618e-01,6.130371094e-03,-8.100585937e-03
6.666500000e+03,-2.191017151e+01,-6.123873270e-01,6.567382813e-03,-4.613444010e-03
6.667000000e+03,-2.764691227e+01,1.511683209e+00,2.449544271e-04,4.138997396e-03
6.667500000e+03,-2.487823707e+01,8.146649911e-01,3.912760417e-03,4.148763021e-03
6.668000000e+03,-2.697299102e+01,-1.007891205e-01,4.458007813e-03,-4.508463542e-04
6.668500000e+03,-1.826198338e+01,-1.147620404e+00,5.016276042e-03,-1.113769531e-02
6.669000000e+03,-1.931921477e+01,-2.727195976e+00,-9.899902344e-03,-4.354654948e-03
6.669500000e+03,-2.161304757e+01,-1.661953011e+00,-7.560221354e-04,-8.270670573e-03
6.670000000e+03,-3.830111609e+01,-2.369918191e+00,-8.715820313e-04,-8.479817708e-04
6.670500000e+03,-1.952755669e+01,-1.407370846e+00,1.717936198e-03,-1.041829427e-02
6.671000000e+03,-1.767340328e+01,-2.787332431e+00,-1.225992839e-02,-4.534505208e-03
6.671500000e+03,-2.492164869e+01,2.990284494e+00,-5.609537760e-03,8.553059896e-04
6.672000000e+03,-2.147300609e+01,2.085995801e+00,-4.158528646e-03,7.344563802e-03
6.672500000e+03,-1.717396742e+01,-1.979030001e+00,-5.496419271e-03,-1.270751953e-02
6.673000000e+03,-2.124601357e+01,8.036649150e-01,6.013183594e-03,6.236979167e-03
6.673500000e+03,-1.458452863e+01,-6.402727804e-01,1.495930990e-02,-1.114420573e-02
6.674000000e+03,-3.018105404e+01,-1.489248076e+00,2.522786458e-04,-3.086751302e-03
6.674500000e+03,-1.906109824e+01,2.190366534e+00,-6.469726562e-03,9.070638021e-03
6.675000000e+03,-1.759842402e+01,3.015966817e+00,-1.308105469e-02,1.652018229e-03
6.675500000e+03,-1.959471745e+01,7.753474226e-01,7.482910156e-03,7.333984375e-03
6.676000000e+03,-2.126132680e+01,1.502049899e+00,5.940755208e-04,8.627929687e-03
6.676500000e+03,-1.616046971e+01,2.883001708e+00,-1.504150391e-02,3.978678385e-03
6.677000000e+03,-1.530392545e+01,-1.896173746e+00,-5.489095052e-03,-1.627034505e-02
6.677500000e+03,-1.439949827e+01,-2.000594194e+00,-7.940266927e-03,-1.732259115e-02
6.678000000e+03,-1.731793286e+01,7.971036677e-01,9.515787760e-03,9.741210937e-03
6.678500000e+03,-1.360792677e+01,-2.042394529e+00,-9.483235677e-03,-1.859537760e-02
6.679000000e+03,-1.742045090e+01,-4.625929282e-01,1.204345703e-02,-6.005859375e-03
6.679500000e+03,-1.646482127e+01,-1.330967855e+00,3.568522135e-03,-1.459309896e-02
6.680000000e+03,-1.519876810e+01,5.218931367e-01,1.506673177e-02,8.664550781e-03
6.680500000e+03,-1.819187810e+01,9.516598561e-03,1.231363932e-02,1.171875000e-04
6.681000000e+03,-1.807233197e+01,-8.842871497e-01,7.913411458e-03,-9.656575521e-03
6.681500000e+03,-2.021755394e+01,2.356666522e+00,-6.899414063e-03,6.892903646e-03
6.682000000e+03,-1.374723104e+01,-5.629918827e-01,1.737141927e-02,-1.096354167e-02
6.682500000e+03,-1.787577149e+01,-5.489330488e-01,1.089436849e-02,-6.663411458e-03
6.683000000e+03,-2.365711920e+01,2.014037474e+00,-2.814941406e-03,5.929361979e-03
6.683500000e+03,-2.304251400e+01,-1.909826225e+00,-2.342936198e-03,-6.643880208e-03
6.684000000e+03,-1.997788095e+01,1.960211255e+00,-3.806152344e-03,9.274902344e-03
6.684500000e+03,-1.601252764e+01,3.008844035e+00,-1.568684896e-02,2.094726563e-03
6.685000000e+03,-1.283450028e+01,-5.808607157e-01,1.907552083e-02,-1.252115885e-02
6.685500000e+03,-1.179704564e+01,1.201356984e+00,9.284667969e-03,2.397786458e-02
6.686000000e+03,-1.292170866e+01,2.067960839e+00,-1.077392578e-02,1.985514323e-02
6.686500000e+03,-1.175485415e+01,2.319996218e-01,2.514567057e-02,5.940755208e-03
6.687000000e+03,-1.286978952e+01,1.489201516e+00,1.852213542e-03,2.264973958e-02
6.687500000e+03,-1.036854679e+01,7.535724264e-01,2.210286458e-02,2.073893229e-02
6.688000000e+03,-1.278344557e+01,1.988697056e-01,2.250000000e-02,4.534505208e-03
6.688500000e+03,-1.068013845e+01,2.447019147e-01,2.836995443e-02,7.084147135e-03
6.689000000e+03,-9.870309836e+00,-1.216144389e+00,1.114664714e-02,-3.010091146e-02
6.689500000e+03,-1.116173511e+01,1.415823200e+00,4.270019531e-03,2.733235677e-02
6.690000000e+03,-1.059341104e+01,-1.019385038e+00,1.547281901e-02,-2.515706380e-02
6.690500000e+03,-8.249300434e+00,-2.290263563e+00,-2.549235026e-02,-2.909667969e-02
6.691000000e+03,-7.853035273e+00,2.606515903e+00,-3.483072917e-02,2.064615885e-02
6.691500000e+03,-8.519444904e+00,-2.453684231e+00,-2.897135417e-02,-2.380940755e-02
6.692000000e+03,-8.098962914e+00,6.242009136e-01,3.193766276e-02,2.300374349e-02
6.692500000e+03,-1.265132253e+01,-2.555623965e+00,-1.941650391e-02,-1.288736979e-02
6.693000000e+03,-8.037952421e+00,-1.580138204e+00,-3.702799479e-04,-3.963541667e-02
6.693500000e+03,-8.966908978e+00,1.043112481e-01,3.542317708e-02,3.708496094e-03
6.694000000e+03,-9.047007386e+00,2.675985577e+00,-3.153320312e-02,1.584391276e-02
6.694500000e+03,-8.758129993e+00,-2.580628885e+00,-3.089192708e-02,-1.940917969e-02
6.695000000e+03,-8.052187197e+00,3.808080639e-01,3.673746745e-02,1.470784505e-02
6.695500000e+03,-6.929593386e+00,-2.008611311e+00,-1.909179688e-02,-4.078450521e-02
6.696000000e+03,-8.813750031e+00,2.879304111e+00,-3.501057943e-02,9.399414062e-03
6.696500000e+03,-8.779271808e+00,1.776804651e+00,-7.444661458e-03,3.562500000e-02
6.697000000e+03,-6.855900157e+00,-1.744278955e+00,-7.839355469e-03,-4.473388672e-02
6.697500000e+03,-7.296660531e+00,-2.458937754e+00,-3.349446615e-02,-2.723307292e-02
6.698000000e+03,-6.531273656e+00,-2.373332321e+00,-3.390299479e-02,-3.276041667e-02
6.698500000e+03,-6.082417799e+00,-2.499720939e+00,-3.976481120e-02,-2.972249349e-02
6.699000000e+03,-5.428126155e+00,2.709694548e+00,-4.861409505e-02,2.240722656e-02
6.699500000e+03,-6.680186576e+00,2.872186420e+00,-4.467203776e-02,1.233479818e-02
6.700000000e+03,-4.509169675e+00,-2.424494397e+00,-4.484863281e-02,-3.910563151e-02
6.700500000e+03,-5.346532796e+00,-1.711581570e+00,-7.582194010e-03,-5.350016276e-02
6.701000000e+03,-5.325696438e+00,1.850053585e+00,-1.493001302e-02,5.206624349e-02
6.701500000e+03,-5.279029666e+00,-3.000817824e+00,-5.391764323e-02,-7.640787760e-03
6.702000000e+03,-4.442367321e+00,7.130719304e-01,4.535319010e-02,3.922526042e-02
6.702500000e+03,-4.649633451e+00,3.031340659e+00,-5.819335938e-02,6.442057292e-03
6.703000000e+03,-4.578741797e+00,2.683907154e+00,-5.295328776e-02,2.608317057e-02
6.703500000e+03,-4.695813646e+00,-3.045473774e+00,-5.796956380e-02,-5.589192708e-03
6.704000000e+03,-5.981691321e+00,1.243891607e-01,4.983642578e-02,6.231282552e-03
6.704500000e+03,-5.731896636e+00,-1.574653603e+00,-1.993815104e-04,-5.168945312e-02
6.705000000e+03,-5.099626047e+00,6.969780463e-01,4.262776693e-02,3.568522135e-02
6.705500000e+03,-4.146403459e+00,-1.914084973e+00,-2.088216146e-02,-5.842122396e-02
6.706000000e+03,-6.574641368e+00,-2.965217624e-02,4.688964844e-02,-1.390787760e-03
6.706500000e+03,-5.548457920e+00,2.773340867e+00,-4.925374349e-02,1.900472005e-02
6.707000000e+03,-4.871542627e+00,2.144893414e+00,-3.099446615e-02,4.792236328e-02
6.707500000e+03,-6.217578009e+00,-2.129828025e+00,-2.592366536e-02,-4.143798828e-02
6.708000000e+03,-4.007454870e+00,-7.547291554e-02,6.286214193e-02,-4.753417969e-03
6.708500000e+03,-5.321843504e+00,-1.291572499e+00,1.493489583e-02,-5.208984375e-02
6.709000000e+03,-4.685208321e+00,-2.017147668e+00,-2.517089844e-02,-5.259684245e-02
6.709500000e+03,-4.105590237e+00,-8.300576759e-01,4.206461589e-02,-4.600016276e-02
6.710000000e+03,-5.267339726e+00,-2.486787852e+00,-4.325113932e-02,-3.320882161e-02
6.710500000e+03,-3.626030593e+00,-6.862849616e-01,5.095865885e-02,-4.174072266e-02
6.711000000e+03,-4.611142603e+00,-1.608126306e+00,-2.194824219e-03,-5.876790365e-02
6.711500000e+03,-6.808070516e+00,4.248178593e-01,4.160725911e-02,1.882161458e-02
6.712000000e+03,-4.515874860e+00,1.789560286e+00,-1.290364583e-02,5.804036458e-02
6.712500000e+03,-6.261695677e+00,-2.471548071e+00,-3.811686198e-02,-3.020100911e-02
6.713000000e+03,-4.786743563e+00,-7.383422327e-01,4.262369792e-02,-3.878987630e-02
6.713500000e+03,-3.817444456e+00,1.655490883e+00,-5.450846354e-03,6.420491536e-02
6.714000000e+03,-5.093476350e+00,2.193043902e+00,-3.242594401e-02,4.520507812e-02
6.714500000e+03,-4.485764216e+00,3.237605413e-01,5.656412760e-02,1.898111979e-02
6.715000000e+03,-3.096181262e+00,1.801346571e+00,-1.599934896e-02,6.816243490e-02
6.715500000e+03,-6.028612565e+00,-1.060029978e+00,2.441975911e-02,-4.357828776e-02
6.716000000e+03,-5.723800226e+00,-4.975315090e-01,4.546549479e-02,-2.469238281e-02
6.716500000e+03,-4.761979417e+00,1.335601853e+00,1.346842448e-02,5.620524089e-02
6.717000000e+03,-4.628865953e+00,1.030488595e+00,3.018961589e-02,5.032877604e-02
6.717500000e+03,-5.955220683e+00,6.486090229e-01,4.014729818e-02,3.043212891e-02
6.718000000e+03,-5.463297336e+00,-1.375110126e+00,1.036621094e-02,-5.229573568e-02
6.718500000e+03,-6.332803262e+00,-1.193043857e+00,1.779052734e-02,-4.483398437e-02
6.719000000e+03,-5.280027112e+00,3.113565546e+00,-5.442871094e-02,1.525878906e-03
6.719500000e+03,-5.631042965e+00,-4.780336535e-01,4.643147786e-02,-2.405680339e-02
6.720000000e+03,-4.185953338e+00,2.117559230e+00,-3.211018880e-02,5.275553385e-02
6.720500000e+03,-6.641611343e+00,2.024405023e+00,-2.039876302e-02,4.184244792e-02
6.721000000e+03,-5.880920494e+00,-8.779446860e-01,3.245442708e-02,-3.909505208e-02
6.721500000e+03,-4.742578475e+00,2.325830922e+00,-3.969726562e-02,4.218424479e-02
6.722000000e+03,-8.784845051e+00,-1.316087420e+00,9.164225260e-03,-3.519775391e-02
6.722500000e+03,-6.435280979e+00,2.822131117e+00,-4.525716146e-02,1.497070313e-02
6.723000000e+03,-7.262047563e+00,2.499601199e+00,-3.471191406e-02,2.595214844e-02
6.723500000e+03,-7.047803556e+00,2.181349702e+00,-2.546875000e-02,3.639729818e-02
6.724000000e+03,-8.478181373e+00,2.366900785e+00,-2.692626953e-02,2.635579427e-02
6.724500000e+03,-5.198672035e+00,-5.061450212e-01,4.807128906e-02,-2.664632161e-02
6.725000000e+03,-7.862840584e+00,-2.227344601e+00,-2.468668620e-02,-3.203613281e-02
6.725500000e+03,-5.641607236e+00,-3.009611537e+00,-5.177571615e-02,-6.873372396e-03
6.726000000e+03,-6.831604280e+00,2.467468776e-01,4.416341146e-02,1.112386068e-02
6.726500000e+03,-6.056062801e+00,6.724642976e-01,3.895507813e-02,3.101888021e-02
6.727000000e+03,-5.952540212e+00,-2.017991352e+00,-2.179199219e-02,-4.543782552e-02
6.727500000e+03,-5.102549353e+00,2.851799340e+00,-5.325683594e-02,1.588053385e-02
6.728000000e+03,-6.574235894e+00,-1.736754935e+00,-7.749837240e-03,-4.626790365e-02
6.728500000e+03,-5.503837228e+00,-3.096505024e+00,-5.301106771e-02,-2.391764323e-03
6.729000000e+03,-5.464607760e+00,-2.775377903e+00,-4.977050781e-02,-1.908772786e-02
6.729500000e+03,-4.391057292e+00,5.547079116e-01,5.127360026e-02,3.176920573e-02
6.730000000e+03,-5.826710846e+00,-2.011421688e+00,-2.180664062e-02,-4.624511719e-02
6.730500000e+03,-5.599930480e+00,-6.941982444e-01,4.033528646e-02,-3.357584635e-02
6.731000000e+03,-5.513921333e+00,-1.628820047e+00,-3.073730469e-03,-5.291422526e-02
6.731500000e+03,-5.537016805e+00,1.792063459e+00,-1.160156250e-02,5.157389323e-02
6.732000000e+03,-6.870462344e+00,-7.737340354e-01,3.243164063e-02,-3.168375651e-02
6.732500000e+03,-5.796608904e+00,-2.895202133e+00,-4.975667318e-02,-1.251383464e-02
6.733000000e+03,-7.091597430e+00,-2.955105752e+00,-4.343343099e-02,-8.194986979e-03
6.733500000e+03,-6.201810401e+00,-1.785394655e-01,4.818929036e-02,-8.696289062e-03
6.734000000e+03,-6.938078417e+00,-2.317542969e+00,-3.055826823e-02,-3.301676432e-02
6.734500000e+03,-5.411666871e+00,1.891731142e+00,-1.691813151e-02,5.089274089e-02
6.735000000e+03,-6.493616126e+00,-3.134236559e+00,-4.734863281e-02,-3.483072917e-04
6.735500000e+03,-5.145945425e+00,2.181980459e-01,5.398600260e-02,1.197021484e-02
6.736000000e+03,-6.249151693e+00,-1.108777819e+00,2.170898438e-02,-4.359537760e-02
6.736500000e+03,-8.137464571e+00,2.279227264e-01,3.817220052e-02,8.854166667e-03
6.737000000e+03,-5.020498941e+00,-1.024132238e-02,5.609863281e-02,-5.745442708e-04
6.737500000e+03,-7.238746216e+00,2.416758953e+00,-3.253255208e-02,2.881266276e-02
6.738000000e+03,-7.478384262e+00,-3.514435891e-01,3.969075521e-02,-1.455322266e-02
6.738500000e+03,-9.159531912e+00,2.315216219e+00,-2.360270182e-02,2.562093099e-02
6.739000000e+03,-6.414261079e+00,-3.137147633e+00,-4.778401693e-02,-2.124023437e-04
6.739500000e+03,-6.272073240e+00,1.698981263e+00,-6.209309896e-03,4.817464193e-02
6.740000000e+03,-6.893927485e+00,-2.079733816e+00,-2.203206380e-02,-3.948649089e-02
6.740500000e+03,-4.587933989e+00,1.457481102e+00,6.667480469e-03,5.858805339e-02
6.741000000e+03,-6.421965115e+00,7.825181447e-02,4.759602865e-02,3.732096354e-03
6.741500000e+03,-4.931315576e+00,-2.400961309e+00,-4.183268229e-02,-3.824544271e-02
6.742000000e+03,-6.648293763e+00,5.082455599e-01,4.063476562e-02,2.263590495e-02
6.742500000e+03,-6.508521972e+00,2.936627057e+00,-4.627929687e-02,9.620768229e-03
6.743000000e+03,-5.936800976e+00,1.436014213e+00,6.783854167e-03,5.002685547e-02
6.743500000e+03,-7.598193645e+00,-1.847401617e+00,-1.138671875e-02,-4.011067708e-02
6.744000000e+03,-7.972672460e+00,1.633539272e+00,-2.504069010e-03,3.985758464e-02
6.744500000e+03,-7.131446295e+00,-2.856067737e-01,4.221516927e-02,-1.239583333e-02
6.745000000e+03,-5.472270668e+00,4.057144119e-01,4.893473307e-02,2.101969401e-02
6.745500000e+03,-8.524719777e+00,1.753520441e+00,-6.809895833e-03,3.685302734e-02
6.746000000e+03,-8.964623996e+00,-2.186754632e+00,-2.058268229e-02,-2.907877604e-02
6.746500000e+03,-7.711134266e+00,-5.814052066e-01,3.439453125e-02,-2.260335286e-02
6.747000000e+03,-6.888969388e+00,1.789112141e+00,-9.798990885e-03,4.416910807e-02
6.747500000e+03,-8.542628416e+00,-1.888179769e-01,3.673502604e-02,-7.019856771e-03
6.748000000e+03,-8.220272177e+00,-6.071995843e-01,3.187581380e-02,-2.214599609e-02
6.748500000e+03,-1.010903916e+01,1.723974659e+00,-4.764811198e-03,3.086263021e-02
6.749000000e+03,-1.024117841e+01,9.821993064e-01,1.707600911e-02,2.558105469e-02
6.749500000e+03,-7.140470992e+00,2.143470281e-01,4.294596354e-02,9.348958333e-03
