6.500000000e+03,-2.597701744e+00,1.883023426e+00,-2.277750651e-02,7.056559245e-02
6.500500000e+03,-3.715521402e+00,-1.349800031e+00,1.429117839e-02,-6.361083984e-02
6.501000000e+03,-3.915209857e+00,-1.262657793e+00,1.932373047e-02,-6.071370443e-02
6.501500000e+03,-3.386621075e+00,-2.727058497e+00,-6.197753906e-02,-2.727213542e-02
6.502000000e+03,-4.810966166e+00,-2.466497881e+00,-4.486490885e-02,-3.591796875e-02
6.502500000e+03,-4.034585172e+00,2.668957095e+00,-5.595540365e-02,2.860921224e-02
6.503000000e+03,-4.176306516e+00,3.025754990e+00,-6.141357422e-02,7.145996094e-03
6.503500000e+03,-4.568215388e+00,2.124535147e+00,-3.107910156e-02,5.026855469e-02
6.504000000e+03,-4.574078267e+00,-3.003750787e+00,-5.850016276e-02,-8.115234375e-03
6.504500000e+03,-4.392329003e+00,-2.670661189e+00,-5.374430339e-02,-2.736328125e-02
6.505000000e+03,-7.081042611e+00,1.361939103e+00,9.175618490e-03,4.329182943e-02
6.505500000e+03,-7.037783135e+00,6.333125045e-01,3.584960938e-02,2.632080078e-02
6.506000000e+03,-6.601347305e+00,-2.316795431e-01,4.551676432e-02,-1.073811849e-02
6.506500000e+03,-7.597295277e+00,6.419281448e-01,3.339925130e-02,2.496744792e-02
6.507000000e+03,-8.515178705e+00,-7.816864101e-01,2.662760417e-02,-2.643066406e-02
6.507500000e+03,-9.843796640e+00,2.689588199e+00,-2.896321615e-02,1.406250000e-02
6.508000000e+03,-8.653362986e+00,2.841664598e+00,-3.527750651e-02,1.090983073e-02
6.508500000e+03,-8.460011919e+00,-4.209336146e-01,3.446126302e-02,-1.542805990e-02
6.509000000e+03,-6.425558883e+00,1.781853929e+00,-9.997558594e-03,4.666341146e-02
6.509500000e+03,-5.429935731e+00,-2.008239230e+00,-2.267171224e-02,-4.847900391e-02
6.510000000e+03,-3.966494055e+00,2.157683567e+00,-3.507568359e-02,5.274088542e-02
6.510500000e+03,-3.861872991e+00,2.788424844e+00,-6.015055339e-02,2.217285156e-02
6.511000000e+03,-3.504014281e+00,-2.722196982e+00,-6.101399740e-02,-2.720296224e-02
6.511500000e+03,-3.175409003e+00,2.879916582e+00,-6.701741536e-02,1.794840495e-02
6.512000000e+03,-3.338565282e+00,-1.114856539e+00,2.997965495e-02,-6.113281250e-02
6.512500000e+03,-3.907464180e+00,-1.160225801e+00,2.545328776e-02,-5.847167969e-02
6.513000000e+03,-2.257859636e+00,-1.384188692e+00,1.430582682e-02,-7.577067057e-02
6.513500000e+03,-2.707616808e+00,-2.649001783e+00,-6.451334635e-02,-3.462565104e-02
6.514000000e+03,-2.981376402e+00,1.375450133e+00,1.377115885e-02,6.959716797e-02
6.514500000e+03,-3.214148812e+00,-2.748135988e-01,6.647867839e-02,-1.874348958e-02
6.515000000e+03,-2.130928112e+00,2.025415518e+00,-3.435872396e-02,7.029703776e-02
6.515500000e+03,-2.401223408e+00,1.134598919e+00,3.204508464e-02,6.874511719e-02
6.516000000e+03,-3.759704857e+00,1.735058110e+00,-1.060709635e-02,6.399251302e-02
6.516500000e+03,-3.431210309e+00,1.038997535e+00,3.416015625e-02,5.806233724e-02
6.517000000e+03,-4.948924758e+00,-1.130306699e+00,2.411865234e-02,-5.116617839e-02
6.517500000e+03,-5.035525882e+00,-2.420313059e+00,-4.205729167e-02,-3.698242187e-02
6.518000000e+03,-5.259165988e+00,-2.422928162e+00,-4.108235677e-02,-3.593505859e-02
6.518500000e+03,-5.261463643e+00,2.166050066e+00,-3.059651693e-02,4.518147786e-02
6.519000000e+03,-5.647486046e+00,-1.199271302e+00,1.894856771e-02,-4.863362630e-02
6.519500000e+03,-6.687951490e+00,6.464538561e-01,3.695963542e-02,2.789062500e-02
6.520000000e+03,-6.244107031e+00,1.494066704e+00,3.735351562e-03,4.858642578e-02
6.520500000e+03,-7.636834103e+00,5.037433363e-01,3.635416667e-02,2.003743490e-02
6.521000000e+03,-6.777815674e+00,-2.409298947e+00,-3.407796224e-02,-3.063802083e-02
6.521500000e+03,-7.492228702e+00,-2.204579643e+00,-2.499511719e-02,-3.401041667e-02
6.522000000e+03,-6.919798322e+00,2.971158626e+00,-4.442952474e-02,7.646484375e-03
6.522500000e+03,-5.951345781e+00,-3.095832841e+00,-5.034749349e-02,-2.305501302e-03
6.523000000e+03,-4.498933133e+00,3.011262810e-01,5.689290365e-02,1.766927083e-02
6.523500000e+03,-4.944587751e+00,-2.641847708e+00,-4.967285156e-02,-2.711995443e-02
6.524000000e+03,-4.889283672e+00,-2.372783769e-01,5.535970052e-02,-1.338785807e-02
6.524500000e+03,-3.847469340e+00,-2.947435645e+00,-6.300699870e-02,-1.238932292e-02
6.525000000e+03,-4.693188746e+00,1.907262162e+00,-1.923339844e-02,5.498942057e-02
6.525500000e+03,-5.585682857e+00,-2.714633322e+00,-4.784830729e-02,-2.176839193e-02
6.526000000e+03,-4.001053171e+00,2.085046480e+00,-3.103190104e-02,5.492838542e-02
6.526500000e+03,-4.846696278e+00,-2.996999115e+00,-5.663818359e-02,-8.247070313e-03
6.527000000e+03,-3.693569582e+00,-2.941520875e+00,-6.405761719e-02,-1.298990885e-02
6.527500000e+03,-3.393099831e+00,-1.593325658e+00,-1.524251302e-03,-6.764485677e-02
6.528000000e+03,-4.471539443e+00,2.482098530e+00,-4.722981771e-02,3.661702474e-02
6.528500000e+03,-4.288999273e+00,-1.620820645e+00,-3.051757812e-03,-6.095458984e-02
6.529000000e+03,-3.485556727e+00,2.744819142e+00,-6.174479167e-02,2.587076823e-02
6.529500000e+03,-5.052174958e+00,-2.015671843e+00,-2.405517578e-02,-5.045654297e-02
6.530000000e+03,-3.937682360e+00,-5.768288524e-01,5.326741536e-02,-3.465820313e-02
6.530500000e+03,-4.388456476e+00,-3.490556320e-01,5.669759115e-02,-2.063557943e-02
6.531000000e+03,-4.989902293e+00,4.128996022e-01,5.156819661e-02,2.259114583e-02
6.531500000e+03,-5.532498887e+00,-1.379263935e+00,1.006835938e-02,-5.192301432e-02
6.532000000e+03,-5.790551312e+00,2.077917924e+00,-2.493489583e-02,4.488037109e-02
6.532500000e+03,-5.741635323e+00,-5.216305681e-02,5.156168620e-02,-2.692057292e-03
6.533000000e+03,-7.607714035e+00,-3.088382124e+00,-4.159098307e-02,-2.215169271e-03
6.533500000e+03,-7.014778593e+00,-6.678910406e-02,4.449300130e-02,-2.976074219e-03
6.534000000e+03,-1.052249659e+01,9.925569801e-01,1.627441406e-02,2.493570964e-02
6.534500000e+03,-1.079528492e+01,-2.119554288e+00,-1.505208333e-02,-2.461914062e-02
6.535000000e+03,-8.219052529e+00,-3.139349518e+00,-3.881917318e-02,-8.707682292e-05
6.535500000e+03,-9.055225379e+00,-1.029288214e+00,1.817220052e-02,-3.021240234e-02
6.536000000e+03,-9.296894142e+00,8.665283070e-01,2.220133464e-02,2.613118490e-02
6.536500000e+03,-7.745091287e+00,2.600696545e+00,-3.514404297e-02,2.110921224e-02
6.537000000e+03,-6.755369465e+00,4.444687095e-01,4.148030599e-02,1.975504557e-02
6.537500000e+03,-7.795931405e+00,1.873988509e+00,-1.216878255e-02,3.889811198e-02
6.538000000e+03,-7.783162663e+00,1.001927815e+00,2.198730469e-02,3.438883464e-02
6.538500000e+03,-6.786419012e+00,-6.417483713e-01,3.667236328e-02,-2.740397135e-02
6.539000000e+03,-5.268594137e+00,2.176360423e-01,5.323567708e-02,1.177246094e-02
6.539500000e+03,-6.169502967e+00,-4.820642015e-01,4.354899089e-02,-2.278645833e-02
6.540000000e+03,-5.603337804e+00,2.714235942e+00,-4.774251302e-02,2.174316406e-02
6.540500000e+03,-6.534564599e+00,5.051529098e-01,4.124104818e-02,2.280680339e-02
6.541000000e+03,-6.206769821e+00,-8.996781525e-01,3.043375651e-02,-3.832600911e-02
6.541500000e+03,-5.784863366e+00,6.706863220e-01,4.024739583e-02,3.193115234e-02
6.542000000e+03,-5.323453743e+00,-9.367764545e-01,3.209472656e-02,-4.364908854e-02
6.542500000e+03,-8.271460177e+00,-1.971896864e+00,-1.506510417e-02,-3.552327474e-02
6.543000000e+03,-6.641928652e+00,-1.899673308e+00,-1.503417969e-02,-4.405354818e-02
6.543500000e+03,-6.609358387e+00,1.656840583e+00,-4.015299479e-03,4.655029297e-02
6.544000000e+03,-7.148489205e+00,9.709095319e-01,2.479003906e-02,3.624430339e-02
6.544500000e+03,-6.673088122e+00,-1.941948351e+00,-1.682210286e-02,-4.322347005e-02
6.545000000e+03,-8.225361954e+00,-2.022584633e+00,-1.693522135e-02,-3.489908854e-02
6.545500000e+03,-7.581848302e+00,-1.332375783e+00,9.865722656e-03,-4.059244792e-02
6.546000000e+03,-7.279897184e+00,1.965128640e+00,-1.661702474e-02,3.993245443e-02
6.546500000e+03,-8.587111746e+00,1.969039752e+00,-1.442952474e-02,3.429687500e-02
6.547000000e+03,-9.420083562e+00,1.556905991e+00,4.695638021e-04,3.380289714e-02
6.547500000e+03,-1.033428175e+01,-2.416103013e+00,-2.276611328e-02,-2.018961589e-02
6.548000000e+03,-9.513464781e+00,-4.448533616e-01,3.018961589e-02,-1.439208984e-02
6.548500000e+03,-1.352355817e+01,-9.453269366e-01,1.234049479e-02,-1.708740234e-02
6.549000000e+03,-1.228797879e+01,-2.137731031e+00,-1.305013021e-02,-2.049804687e-02
6.549500000e+03,-1.447020067e+01,-7.502575751e-01,1.382649740e-02,-1.288736979e-02
6.550000000e+03,-1.321843300e+01,-5.949399722e-01,1.808024089e-02,-1.223551432e-02
6.550500000e+03,-1.101897313e+01,-1.197356343e+00,1.025960286e-02,-2.618408203e-02
6.551000000e+03,-1.186953986e+01,9.224951732e-01,1.539713542e-02,2.032552083e-02
6.551500000e+03,-1.056551502e+01,2.295212485e+00,-1.963541667e-02,2.218912760e-02
6.552000000e+03,-1.010836800e+01,-2.081739360e+00,-1.527180990e-02,-2.724202474e-02
6.552500000e+03,-1.218874188e+01,7.919067810e-01,1.726643880e-02,1.749267578e-02
6.553000000e+03,-1.326265989e+01,-2.160108265e+00,-1.207194010e-02,-1.805664062e-02
6.553500000e+03,-1.060234648e+01,-1.330734670e+00,7.014973958e-03,-2.865804036e-02
6.554000000e+03,-1.140707744e+01,-2.024659565e+00,-1.179117839e-02,-2.417073568e-02
6.554500000e+03,-9.781095001e+00,1.859640417e+00,-9.237467448e-03,3.108642578e-02
6.555000000e+03,-1.268669302e+01,1.446845796e+00,2.869466146e-03,2.303141276e-02
6.555500000e+03,-1.071482835e+01,-2.010036589e+00,-1.238525391e-02,-2.635986328e-02
6.556000000e+03,-1.225129464e+01,2.275671540e+00,-1.581136068e-02,1.858723958e-02
6.556500000e+03,-1.247742384e+01,2.254218664e+00,-1.501302083e-02,1.843587240e-02
6.557000000e+03,-1.260913468e+01,3.074053598e+00,-2.336425781e-02,1.580403646e-03
6.557500000e+03,-1.224411621e+01,-2.045158557e+00,-1.115559896e-02,-2.172607422e-02
6.558000000e+03,-1.360380673e+01,2.897921138e-01,2.001302083e-02,5.967610677e-03
6.558500000e+03,-1.366120592e+01,1.609404752e+00,-8.007812500e-04,2.073079427e-02
6.559000000e+03,-1.684506798e+01,2.906840127e+00,-1.398518880e-02,3.344726563e-03
6.559500000e+03,-1.681116565e+01,1.078706744e+00,6.820475260e-03,1.272298177e-02
6.560000000e+03,-1.642822626e+01,-2.481670746e+00,-1.191894531e-02,-9.248860677e-03
6.560500000e+03,-2.163937366e+01,-1.948054007e+00,-3.050130208e-03,-7.697753906e-03
6.561000000e+03,-2.665891265e+01,1.541573738e-02,4.645182292e-03,7.161458333e-05
6.561500000e+03,-2.046180333e+01,-2.258820492e+00,-6.021321615e-03,-7.325032552e-03
6.562000000e+03,-2.604727067e+01,1.952212208e+00,-1.855468750e-03,4.626464844e-03
6.562500000e+03,-2.121771345e+01,2.267296811e+00,-5.576171875e-03,6.667480469e-03
6.563000000e+03,-1.633186102e+01,-2.188335759e+00,-8.833007812e-03,-1.243733724e-02
6.563500000e+03,-2.631265634e+01,-1.633960630e+00,-3.051757812e-04,-4.825032552e-03
6.564000000e+03,-2.251729293e+01,-4.329090210e-01,6.793619792e-03,-3.139648437e-03
6.564500000e+03,-1.874200621e+01,1.306810559e+00,3.015950521e-03,1.115804036e-02
6.565000000e+03,-2.035210212e+01,-1.997255491e+00,-3.972167969e-03,-8.742675781e-03
6.565500000e+03,-1.411761021e+01,2.854638300e+00,-1.887939453e-02,5.571289062e-03
6.566000000e+03,-1.872001438e+01,1.526396703e+00,5.143229167e-04,1.157633464e-02
6.566500000e+03,-1.674022989e+01,1.717764542e-01,1.434000651e-02,2.487792969e-03
6.567000000e+03,-1.954562109e+01,8.186627586e-01,7.198893229e-03,7.694498698e-03
6.567500000e+03,-1.900192690e+01,2.415221422e+00,-8.386230469e-03,7.450358073e-03
6.568000000e+03,-2.720539219e+01,-1.280965518e+00,1.246744792e-03,-4.180501302e-03
6.568500000e+03,-1.419502434e+01,-2.719463368e+00,-1.779703776e-02,-7.993164063e-03
6.569000000e+03,-1.518017847e+01,-2.548030808e+00,-1.443847656e-02,-9.742024740e-03
6.569500000e+03,-1.687279697e+01,7.848762637e-01,1.014078776e-02,1.013020833e-02
6.570000000e+03,-2.742683644e+01,7.921639600e-01,2.986653646e-03,3.027343750e-03
6.570500000e+03,-2.122982561e+01,-2.131075227e+00,-4.612630208e-03,-7.352701823e-03
6.571000000e+03,-1.721419250e+01,-6.921903087e-01,1.060953776e-02,-8.795572917e-03
6.571500000e+03,-1.820272858e+01,-1.090642608e-01,1.222574870e-02,-1.338704427e-03
6.572000000e+03,-2.607362743e+01,-5.446602140e-01,4.250488281e-03,-2.574869792e-03
6.572500000e+03,-2.488081274e+01,3.114753462e+00,-5.699055990e-03,1.529947917e-04
6.573000000e+03,-2.512089338e+01,-2.747433666e+00,-5.120442708e-03,-2.129720052e-03
6.573500000e+03,-4.150265925e+01,-1.955614571e+00,-3.157552083e-04,-7.796223958e-04
6.574000000e+03,-1.616359010e+01,1.595443277e+00,-3.833007813e-04,1.554850260e-02
6.574500000e+03,-2.737147757e+01,-6.391276816e-01,3.435058594e-03,-2.552897135e-03
6.575000000e+03,-2.102170542e+01,-1.907484106e+00,-2.937011719e-03,-8.391113281e-03
6.575500000e+03,-2.613665629e+01,1.955652234e+00,-1.852213542e-03,4.572753906e-03
6.576000000e+03,-2.164725956e+01,1.294604659e+00,2.255859375e-03,7.958984375e-03
6.576500000e+03,-2.745693218e+01,1.913923605e+00,-1.425781250e-03,3.990885417e-03
6.577000000e+03,-3.135966386e+01,9.101410097e-02,2.692871094e-03,2.457682292e-04
6.577500000e+03,-2.083555677e+01,-1.316473360e+00,2.285156250e-03,-8.790690104e-03
6.578000000e+03,-1.983291454e+01,-2.902054612e+00,-9.903157552e-03,-2.418619792e-03
6.578500000e+03,-2.172848062e+01,2.500991066e+00,-6.570638021e-03,4.898274740e-03
6.579000000e+03,-2.200473863e+01,1.746365704e-01,7.818196615e-03,1.379394531e-03
6.579500000e+03,-2.329512070e+01,-1.600175141e+00,-2.010091146e-04,-6.840006510e-03
6.580000000e+03,-1.875367030e+01,-3.045845522e+00,-1.149007161e-02,-1.103515625e-03
6.580500000e+03,-1.659835720e+01,-2.691722005e+00,-1.332194010e-02,-6.433105469e-03
6.581000000e+03,-2.358569636e+01,-1.683925093e+00,-7.470703125e-04,-6.575520833e-03
6.581500000e+03,-1.635842045e+01,3.030651788e+00,-1.511474609e-02,1.683756510e-03
6.582000000e+03,-2.498227298e+01,2.415561985e+00,-4.213867188e-03,3.741048177e-03
6.582500000e+03,-2.070207413e+01,2.580486867e+00,-7.809244792e-03,4.908040365e-03
6.583000000e+03,-2.151786999e+01,1.330354432e+00,1.999511719e-03,8.155110677e-03
6.583500000e+03,-2.246052652e+01,-1.535787396e+00,2.636718750e-04,-7.528483073e-03
6.584000000e+03,-1.837036239e+01,-2.022677998e+00,-5.267740885e-03,-1.085286458e-02
6.584500000e+03,-1.752583982e+01,-1.858958279e+00,-3.778483073e-03,-1.274739583e-02
6.585000000e+03,-2.034412924e+01,1.267896306e+00,2.867024740e-03,9.173990885e-03
6.585500000e+03,-1.990184953e+01,1.773178589e+00,-2.032877604e-03,9.907226562e-03
6.586000000e+03,-2.181318238e+01,9.953921389e-01,4.416503906e-03,6.809082031e-03
6.586500000e+03,-1.857030431e+01,-2.739818889e+00,-1.085042318e-02,-4.610188802e-03
6.587000000e+03,-1.612656315e+01,2.257669574e+00,-9.904785156e-03,1.207763672e-02
6.587500000e+03,-1.267757500e+01,8.863236911e-01,1.468994141e-02,1.800048828e-02
6.588000000e+03,-1.402499597e+01,2.573853253e+00,-1.677408854e-02,1.069824219e-02
6.588500000e+03,-1.091967182e+01,2.417711050e+00,-2.131266276e-02,1.883951823e-02
6.589000000e+03,-1.444692636e+01,-1.795631881e+00,-4.225260417e-03,-1.847493490e-02
6.589500000e+03,-1.531504876e+01,-1.851898852e+00,-4.757486979e-03,-1.647623698e-02
6.590000000e+03,-1.229159125e+01,-2.033020503e+00,-1.083170573e-02,-2.174072266e-02
6.590500000e+03,-1.539893154e+01,-2.408563865e+00,-1.262207031e-02,-1.136474609e-02
6.591000000e+03,-1.566644735e+01,-1.836389637e+00,-4.322916667e-03,-1.589192708e-02
6.591500000e+03,-1.430045279e+01,-2.824982584e+00,-1.831624349e-02,-6.000976562e-03
6.592000000e+03,-1.288052274e+01,2.668340132e+00,-2.020263672e-02,1.034505208e-02
6.592500000e+03,-1.294739037e+01,-2.652136920e+00,-1.987874349e-02,-1.058919271e-02
6.593000000e+03,-1.025312907e+01,1.045054388e+00,1.541422526e-02,2.656656901e-02
6.593500000e+03,-1.181699743e+01,-2.804101925e+00,-2.420654297e-02,-8.494466146e-03
6.594000000e+03,-9.196671741e+00,3.005803948e+00,-3.436767578e-02,4.695638021e-03
6.594500000e+03,-9.442882482e+00,2.802004161e+00,-3.179199219e-02,1.123128255e-02
6.595000000e+03,-1.578224105e+01,-3.128973131e+00,-1.625000000e-02,-2.050781250e-04
6.595500000e+03,-1.234767582e+01,-1.163836754e+00,9.552408854e-03,-2.216227214e-02
6.596000000e+03,-1.029200616e+01,1.836490490e+00,-8.028971354e-03,2.950439453e-02
6.596500000e+03,-1.232421618e+01,1.869094982e+00,-7.111816406e-03,2.312988281e-02
6.597000000e+03,-1.149537861e+01,2.834197955e+00,-2.537353516e-02,8.055013021e-03
6.597500000e+03,-1.035901948e+01,-4.406519871e-01,2.744384766e-02,-1.294189453e-02
6.598000000e+03,-1.216431501e+01,1.082709304e+00,1.155843099e-02,2.177001953e-02
6.598500000e+03,-1.341767920e+01,-9.228402249e-01,1.287760417e-02,-1.701171875e-02
6.599000000e+03,-1.031869786e+01,1.502962001e+00,2.066243490e-03,3.041341146e-02
6.599500000e+03,-1.148187626e+01,1.323182312e+00,6.534830729e-03,2.584960937e-02
6.600000000e+03,-1.002756715e+01,6.316149180e-01,2.544108073e-02,1.861246745e-02
6.600500000e+03,-1.032617291e+01,3.093693093e+00,-3.042236328e-02,1.458333333e-03
6.601000000e+03,-1.167292157e+01,-6.091360918e-01,2.139160156e-02,-1.492350260e-02
6.601500000e+03,-1.194678629e+01,-8.851778301e-01,1.600179036e-02,-1.956217448e-02
6.602000000e+03,-1.061767146e+01,-2.609049021e+00,-2.537353516e-02,-1.495361328e-02
6.602500000e+03,-1.034718661e+01,1.145596372e+00,1.253336589e-02,2.767822266e-02
6.603000000e+03,-1.009229371e+01,2.782103417e-01,3.008544922e-02,8.592936198e-03
6.603500000e+03,-1.351221770e+01,3.048860940e-01,2.013183594e-02,6.335449219e-03
6.604000000e+03,-1.390995016e+01,3.669535772e-01,1.881835937e-02,7.233072917e-03
6.604500000e+03,-1.118700610e+01,-2.278865787e+00,-1.793945313e-02,-2.095296224e-02
6.605000000e+03,-1.072347248e+01,1.181392685e+00,1.104573568e-02,2.691731771e-02
6.605500000e+03,-1.280728765e+01,-1.934169334e+00,-8.135579427e-03,-2.139485677e-02
6.606000000e+03,-1.095554493e+01,5.137086547e-01,2.467203776e-02,1.392089844e-02
6.606500000e+03,-1.371482713e+01,-2.376876576e+00,-1.487792969e-02,-1.427490234e-02
6.607000000e+03,-1.339627908e+01,1.783720605e+00,-4.519856771e-03,2.090576172e-02
6.607500000e+03,-1.019316682e+01,1.017187689e-01,3.076741536e-02,3.140462240e-03
6.608000000e+03,-1.088747586e+01,-2.247264429e+00,-1.787434896e-02,-2.226399740e-02
6.608500000e+03,-1.186344689e+01,-9.517146878e-01,1.480712891e-02,-2.078125000e-02
6.609000000e+03,-1.374352700e+01,1.308375171e+00,5.331217448e-03,1.984700521e-02
6.609500000e+03,-1.579947781e+01,1.148358782e+00,6.649576823e-03,1.479329427e-02
6.610000000e+03,-1.795116654e+01,-3.907958483e-01,1.170572917e-02,-4.822591146e-03
6.610500000e+03,-1.115955740e+01,-1.169677466e+00,1.080403646e-02,-2.547444661e-02
6.611000000e+03,-1.340393607e+01,-1.800774914e+00,-4.871419271e-03,-2.080729167e-02
6.611500000e+03,-1.227704362e+01,9.195485690e-01,1.474853516e-02,1.935058594e-02
6.612000000e+03,-1.017359742e+01,-8.215511544e-01,2.111165365e-02,-2.269612630e-02
6.612500000e+03,-1.408949256e+01,-1.595606767e+00,-4.899088542e-04,-1.974202474e-02
6.613000000e+03,-1.402300927e+01,-1.637217595e+00,-1.320800781e-03,-1.985595703e-02
6.613500000e+03,-1.236842113e+01,-1.517364058e+00,1.285807292e-03,-2.404134115e-02
6.614000000e+03,-1.120919329e+01,-1.950636152e-01,2.699137370e-02,-5.332845052e-03
6.614500000e+03,-1.183162483e+01,-8.995217731e-02,2.550699870e-02,-2.300618490e-03
6.615000000e+03,-1.005068366e+01,-1.438420981e+00,4.149576823e-03,-3.116373698e-02
6.615500000e+03,-1.087528838e+01,2.425343853e+00,-2.156575521e-02,1.877197266e-02
6.616000000e+03,-1.271598505e+01,-1.742874115e+00,-3.960774740e-03,-2.278971354e-02
6.616500000e+03,-1.085505530e+01,1.356291662e+00,6.100260417e-03,2.800130208e-02
6.617000000e+03,-1.273611845e+01,1.226360542e-01,2.290445964e-02,2.823079427e-03
6.617500000e+03,-1.352182817e+01,-9.695924986e-01,1.192464193e-02,-1.738525391e-02
6.618000000e+03,-1.151737341e+01,-1.403481166e+00,4.422200521e-03,-2.618326823e-02
6.618500000e+03,-1.231634033e+01,-1.890719351e+00,-7.617187500e-03,-2.299153646e-02
6.619000000e+03,-1.238122860e+01,3.327767642e-01,2.272135417e-02,7.853190104e-03
6.619500000e+03,-8.539366512e+00,2.603187535e+00,-3.212076823e-02,1.918457031e-02
6.620000000e+03,-1.028331691e+01,-1.688908493e+00,-3.606770833e-03,-3.039469401e-02
6.620500000e+03,-1.038752829e+01,-2.416175835e-01,2.936442057e-02,-7.236328125e-03
6.621000000e+03,-1.183611736e+01,1.539952713e+00,7.893880208e-04,2.558512370e-02
6.621500000e+03,-1.052069833e+01,-1.782891587e+00,-6.269531250e-03,-2.911539714e-02
6.622000000e+03,-1.070948488e+01,4.688428216e-01,2.599772135e-02,1.316813151e-02
6.622500000e+03,-1.381551214e+01,-2.576073107e+00,-1.720784505e-02,-1.092122396e-02
6.623000000e+03,-1.206752473e+01,2.810539033e+00,-2.357096354e-02,8.101399740e-03
6.623500000e+03,-1.117329846e+01,-1.799483485e-01,2.718098958e-02,-4.944661458e-03
6.624000000e+03,-1.034887556e+01,-1.610374565e+00,-1.201985677e-03,-3.035400391e-02
6.624500000e+03,-1.140858961e+01,-4.861313979e-01,2.377360026e-02,-1.256266276e-02
6.625000000e+03,-9.510865246e+00,-1.009030972e-01,3.328450521e-02,-3.369954427e-03
6.625500000e+03,-8.654425419e+00,-1.754462614e+00,-6.743164063e-03,-3.630045573e-02
6.626000000e+03,-1.062891763e+01,-2.404339644e+00,-2.177571615e-02,-1.977376302e-02
6.626500000e+03,-9.977883754e+00,-5.023015017e-02,3.166341146e-02,-1.591796875e-03
6.627000000e+03,-1.061038484e+01,-8.393048306e-01,1.968994141e-02,-2.193603516e-02
6.627500000e+03,-9.164839704e+00,1.632663966e+00,-2.152506510e-03,3.474772135e-02
6.628000000e+03,-1.292370293e+01,2.885637138e+00,-2.184895833e-02,5.717773438e-03
6.628500000e+03,-9.437866849e+00,3.042579262e+00,-3.357177734e-02,3.334960937e-03
6.629000000e+03,-1.051260257e+01,5.679142793e-01,2.513102214e-02,1.603434245e-02
6.629500000e+03,-9.589079312e+00,-3.007342870e+00,-3.285644531e-02,-4.437662760e-03
6.630000000e+03,-1.001689729e+01,-2.991582002e+00,-3.120686849e-02,-4.716796875e-03
6.630500000e+03,-9.660377387e+00,-9.644800234e-01,1.873860677e-02,-2.702229818e-02
6.631000000e+03,-9.158194325e+00,2.651743872e+00,-3.074381510e-02,1.639241536e-02
6.631500000e+03,-9.328855175e+00,2.849706910e+00,-3.271809896e-02,9.830729167e-03
6.632000000e+03,-1.088412186e+01,-2.637809501e+00,-2.501383464e-02,-1.378824870e-02
6.632500000e+03,-1.330850735e+01,-1.077885575e+00,1.022379557e-02,-1.903401693e-02
6.633000000e+03,-9.242928989e+00,2.352725409e+00,-2.431233724e-02,2.448160807e-02
6.633500000e+03,-8.886931582e+00,1.349853502e+00,7.877604167e-03,3.507242839e-02
6.634000000e+03,-9.929115645e+00,2.384318957e+00,-2.316894531e-02,2.190104167e-02
6.634500000e+03,-8.988815513e+00,2.261704249e+00,-2.263916016e-02,2.737955729e-02
6.635000000e+03,-9.631680437e+00,-4.635483293e-01,2.951090495e-02,-1.475179036e-02
6.635500000e+03,-1.142739580e+01,5.469893525e-01,2.291585286e-02,1.395507812e-02
6.636000000e+03,-1.274312385e+01,2.803815255e+00,-2.175618490e-02,7.641601563e-03
6.636500000e+03,-9.482523267e+00,-8.326322368e-01,2.258626302e-02,-2.482747396e-02
6.637000000e+03,-1.108444825e+01,1.727307256e+00,-4.350585938e-03,2.756998698e-02
6.637500000e+03,-1.058963728e+01,-9.910437939e-01,1.618652344e-02,-2.471923828e-02
6.638000000e+03,-9.295123182e+00,-2.132484365e+00,-1.826660156e-02,-2.902669271e-02
6.638500000e+03,-8.915825865e+00,9.793539334e-01,1.997558594e-02,2.974121094e-02
6.639000000e+03,-9.744461684e+00,3.107501604e+00,-3.254801432e-02,1.110026042e-03
6.639500000e+03,-1.201893569e+01,-1.795582557e+00,-5.586751302e-03,-2.443359375e-02
6.640000000e+03,-1.027865864e+01,-1.388989078e+00,5.537109375e-03,-3.011962891e-02
6.640500000e+03,-1.345120745e+01,-2.321829892e+00,-1.450358073e-02,-1.553629557e-02
6.641000000e+03,-1.082889657e+01,-1.013406422e+00,1.520507813e-02,-2.439371745e-02
6.641500000e+03,-9.960948605e+00,1.064113379e+00,1.541503906e-02,2.777425130e-02
6.642000000e+03,-1.041563414e+01,-4.694547587e-01,2.688395182e-02,-1.363769531e-02
6.642500000e+03,-1.261916449e+01,1.576049914e+00,-1.228841146e-04,2.339029948e-02
6.643000000e+03,-8.845101893e+00,1.832289719e-01,3.551513672e-02,6.581217448e-03
6.643500000e+03,-9.713118940e+00,4.742149090e-01,2.907796224e-02,1.492513021e-02
6.644000000e+03,-1.090270694e+01,-1.743399320e+00,-4.895019531e-03,-2.807779948e-02
6.644500000e+03,-1.103392344e+01,-1.905408174e+00,-9.219563802e-03,-2.651692708e-02
6.645000000e+03,-1.109576041e+01,-2.178487885e-01,2.721598307e-02,-6.024576823e-03
6.645500000e+03,-1.212659376e+01,7.359354337e-01,1.834879557e-02,1.661783854e-02
6.646000000e+03,-1.139564839e+01,-1.732025073e+00,-4.322916667e-03,-2.657958984e-02
6.646500000e+03,-9.985611208e+00,5.724180615e-01,2.662597656e-02,1.715738932e-02
6.647000000e+03,-1.217202454e+01,-2.848008816e+00,-2.357259115e-02,-7.126464844e-03
6.647500000e+03,-9.269336617e+00,-1.177184488e+00,1.319254557e-02,-3.176757813e-02
6.648000000e+03,-1.474046844e+01,3.054025121e+00,-1.825195313e-02,1.602376302e-03
6.648500000e+03,-1.172330380e+01,-2.385334868e+00,-1.886311849e-02,-1.779459635e-02
6.649000000e+03,-1.279209614e+01,-2.944259738e+00,-2.248453776e-02,-4.495442708e-03
6.649500000e+03,-1.279952865e+01,2.015633990e+00,-9.858398438e-03,2.068033854e-02
6.650000000e+03,-1.093842095e+01,1.935154206e+00,-1.011474609e-02,2.652099609e-02
6.650500000e+03,-1.596181095e+01,1.382163502e+00,2.985026042e-03,1.563639323e-02
6.651000000e+03,-1.386443189e+01,-1.092692110e+00,9.324544271e-03,-1.799397786e-02
6.651500000e+03,-1.408439849e+01,7.773894812e-01,1.408365885e-02,1.385986328e-02
6.652000000e+03,-1.370118469e+01,-1.844987488e+00,-5.591634115e-03,-1.987955729e-02
6.652500000e+03,-1.701414673e+01,-2.310191269e+00,-9.502766927e-03,-1.041992187e-02
6.653000000e+03,-1.334168781e+01,9.443406545e-01,1.261881510e-02,1.743652344e-02
6.653500000e+03,-1.857913621e+01,2.801092657e+00,-1.110107422e-02,3.933105469e-03
6.654000000e+03,-2.186751205e+01,-2.924232485e-01,7.722981771e-03,-2.325032552e-03
6.654500000e+03,-2.151908639e+01,-2.255059493e+00,-5.306803385e-03,-6.505533854e-03
6.655000000e+03,-1.442984435e+01,-2.397570880e+00,-1.397135417e-02,-1.286051432e-02
6.655500000e+03,-1.562879229e+01,-2.695790076e+00,-1.492431641e-02,-7.132161458e-03
6.656000000e+03,-1.683077523e+01,1.883398725e+00,-4.429524740e-03,1.370524089e-02
6.656500000e+03,-1.381171117e+01,2.106947092e-01,1.993896484e-02,4.264322917e-03
6.657000000e+03,-2.058663163e+01,-2.922527073e+00,-9.123535156e-03,-2.031250000e-03
6.657500000e+03,-1.567707026e+01,-9.222587982e-01,9.935709635e-03,-1.310953776e-02
6.658000000e+03,-1.406281392e+01,2.724665605e+00,-1.811197917e-02,8.021647135e-03
6.658500000e+03,-1.667856571e+01,-4.491717014e-01,1.320393880e-02,-6.364746094e-03
6.659000000e+03,-1.438489396e+01,1.568579319e+00,4.231770833e-05,1.908772786e-02
6.659500000e+03,-1.726781685e+01,-1.269283185e+00,4.067382813e-03,-1.307861328e-02
6.660000000e+03,-1.857797334e+01,2.046618107e+00,-5.395507812e-03,1.047037760e-02
6.660500000e+03,-1.691708936e+01,-8.049211220e-02,1.421468099e-02,-1.146647135e-03
6.661000000e+03,-1.461632272e+01,2.447025521e-01,1.803222656e-02,4.502766927e-03
6.661500000e+03,-2.073483934e+01,-2.352061247e+00,-6.470540365e-03,-6.524251302e-03
6.662000000e+03,-2.202406316e+01,-1.200229525e+00,2.868652344e-03,-7.383626302e-03
6.662500000e+03,-1.721779680e+01,-1.457542624e+00,1.556803385e-03,-1.368733724e-02
6.663000000e+03,-1.521401568e+01,-1.620817965e+00,-8.675130208e-04,-1.732828776e-02
6.663500000e+03,-3.914181877e+01,-2.528028018e+00,-9.025065104e-04,-6.355794271e-04
6.664000000e+03,-1.872828386e+01,-1.845188416e-01,1.138020833e-02,-2.124023438e-03
6.664500000e+03,-3.290206576e+01,4.746342675e-02,2.261555990e-03,1.074218750e-04
6.665000000e+03,-3.146994970e+01,-2.390901273e+00,-1.952311198e-03,-1.821289062e-03
6.665500000e+03,-2.301181737e+01,1.892037271e+00,-2.232259115e-03,6.708170573e-03
6.666000000e+03,-1.715972707e+01,-1.906632025e+00,-4.570312500e-03,-1.309326172e-02
6.666500000e+03,-3.433518698e+01,1.505891867e+00,1.245117188e-04,1.915690104e-03
6.667000000e+03,-3.030123112e+01,2.914514230e+00,-2.976074219e-03,6.876627604e-04
6.667500000e+03,-2.000520096e+01,-1.411417408e+00,1.586100260e-03,-9.867350260e-03
6.668000000e+03,-2.204662758e+01,2.782146870e+00,-7.395833333e-03,2.779134115e-03
6.668500000e+03,-2.444248547e+01,-6.192778396e-02,5.984700521e-03,-3.710937500e-04
6.669000000e+03,-2.197785289e+01,8.213912890e-01,5.424804687e-03,5.830078125e-03
6.669500000e+03,-1.308278482e+01,-1.522738418e+00,1.065266927e-03,-2.214925130e-02
6.670000000e+03,-1.839826024e+01,2.746671389e+00,-1.109944661e-02,4.626464844e-03
6.670500000e+03,-2.168228202e+01,-2.820216912e+00,-7.817382813e-03,-2.602539063e-03
6.671000000e+03,-2.415607424e+01,1.848681115e+00,-1.700032552e-03,5.959472656e-03
6.671500000e+03,-1.697366737e+01,-5.308445703e-01,1.221842448e-02,-7.172851562e-03
6.672000000e+03,-4.376154485e+01,1.253014006e+00,2.026367188e-04,6.160481771e-04
6.672500000e+03,-1.826808862e+01,1.645200772e+00,-9.073893229e-04,1.217285156e-02
6.673000000e+03,-2.955772863e+01,2.622408306e-01,3.213704427e-03,8.626302083e-04
6.673500000e+03,-2.744381590e+01,3.100357166e+00,-4.240722656e-03,1.749674479e-04
6.674000000e+03,-2.497556231e+01,1.282228419e+00,1.604817708e-03,5.406087240e-03
6.674500000e+03,-2.484196109e+01,-1.599648142e+00,-1.652018229e-04,-5.724283854e-03
6.675000000e+03,-1.923004521e+01,-9.139336810e-01,6.672363281e-03,-8.653157552e-03
6.675500000e+03,-1.704579310e+01,-7.183886790e-01,1.057861328e-02,-9.248046875e-03
6.676000000e+03,-1.987273670e+01,2.436863335e+00,-7.730305990e-03,6.573893229e-03
6.676500000e+03,-1.744244990e+01,2.117609934e+00,-6.979980469e-03,1.146647135e-02
6.677000000e+03,-1.715043136e+01,-2.929504442e+00,-1.357177734e-02,-2.922363281e-03
6.677500000e+03,-1.333064509e+01,-3.268375636e-01,2.041015625e-02,-6.918945312e-03
6.678000000e+03,-1.703496611e+01,8.659408516e-01,9.115397135e-03,1.071614583e-02
6.678500000e+03,-1.257916616e+01,1.860475133e+00,-6.712239583e-03,2.251953125e-02
6.679000000e+03,-2.019323758e+01,-9.154456961e-01,5.960286458e-03,-7.753906250e-03
6.679500000e+03,-1.410890294e+01,2.638389363e+00,-1.726155599e-02,9.501953125e-03
6.680000000e+03,-2.003220987e+01,-2.718256962e-01,9.597167969e-03,-2.674967448e-03
6.680500000e+03,-2.148579921e+01,2.743458978e+00,-7.768554687e-03,3.267415365e-03
6.681000000e+03,-1.703932188e+01,3.086874247e+00,-1.404052734e-02,7.690429687e-04
6.681500000e+03,-1.830921237e+01,-2.328150290e+00,-8.346354167e-03,-8.828125000e-03
6.682000000e+03,-1.707828918e+01,2.336708428e+00,-9.703776042e-03,1.008951823e-02
6.682500000e+03,-1.671103693e+01,-1.846853133e+00,-3.980305990e-03,-1.405029297e-02
6.683000000e+03,-2.703645886e+01,-2.615230217e+00,-3.846028646e-03,-2.234700521e-03
6.683500000e+03,-1.791080859e+01,-1.868467343e+00,-3.730468750e-03,-1.215983073e-02
6.684000000e+03,-1.769599956e+01,2.451897332e+00,-1.005777995e-02,8.295898437e-03
6.684500000e+03,-1.706748701e+01,1.920752910e+00,-4.805501302e-03,1.316650391e-02
6.685000000e+03,-1.586932622e+01,7.592860318e-01,1.166992188e-02,1.107584635e-02
6.685500000e+03,-1.273373533e+01,1.916350581e+00,-7.819010417e-03,2.171956380e-02
6.686000000e+03,-9.903455729e+00,-1.723870447e-01,3.150227865e-02,-5.485026042e-03
6.686500000e+03,-1.366195057e+01,-9.597361239e-01,1.190185547e-02,-1.699055990e-02
6.687000000e+03,-1.196925728e+01,-3.624547229e-01,2.357014974e-02,-8.937988281e-03
6.687500000e+03,-1.357479926e+01,1.358349418e+00,4.418131510e-03,2.048258464e-02
6.688000000e+03,-8.769527194e+00,-3.111486475e-01,3.468587240e-02,-1.115478516e-02
6.688500000e+03,-9.829183893e+00,-1.073570196e+00,1.538330078e-02,-2.834554036e-02
6.689000000e+03,-9.772958232e+00,2.323855291e-01,3.158772786e-02,7.475585938e-03
6.689500000e+03,-8.309036553e+00,6.414718547e-01,3.078206380e-02,2.298909505e-02
6.690000000e+03,-9.048696234e+00,-4.741381413e-01,3.139078776e-02,-1.610921224e-02
6.690500000e+03,-8.822292404e+00,2.101484721e+00,-1.832926432e-02,3.123372396e-02
6.691000000e+03,-1.052626021e+01,-2.849832067e+00,-2.850585937e-02,-8.561197917e-03
6.691500000e+03,-1.027467192e+01,1.542105984e+00,8.789062500e-04,3.062581380e-02
6.692000000e+03,-8.894227090e+00,-2.163983520e+00,-2.007731120e-02,-2.978027344e-02
6.692500000e+03,-1.027500273e+01,-8.986356707e-01,1.907714844e-02,-2.397298177e-02
6.693000000e+03,-1.046504622e+01,-8.779108724e-01,1.914632161e-02,-2.306233724e-02
6.693500000e+03,-9.186944122e+00,-2.846768846e+00,-3.322753906e-02,-1.009033203e-02
6.694000000e+03,-7.972582791e+00,2.081594010e+00,-1.952392578e-02,3.483886719e-02
6.694500000e+03,-9.387187141e+00,1.885092086e+00,-1.049072266e-02,3.227213542e-02
6.695000000e+03,-8.680302604e+00,-3.070546651e+00,-3.671875000e-02,-2.613118490e-03
6.695500000e+03,-7.627116798e+00,-1.567741406e+00,1.269531250e-04,-4.155680339e-02
6.696000000e+03,-8.342629073e+00,3.053038910e+00,-3.812093099e-02,3.384602865e-03
6.696500000e+03,-5.985285886e+00,1.228576013e+00,1.684733073e-02,4.729248047e-02
6.697000000e+03,-6.557547415e+00,2.285924148e+00,-3.082031250e-02,3.548746745e-02
6.697500000e+03,-5.242271705e+00,-6.024030742e-01,4.506103516e-02,-3.098714193e-02
6.698000000e+03,-6.694088298e+00,3.140097650e+00,-4.626953125e-02,6.917317708e-05
6.698500000e+03,-5.936281698e+00,-1.733098991e+00,-8.158365885e-03,-4.982421875e-02
6.699000000e+03,-5.462360068e+00,-1.864698916e+00,-1.544596354e-02,-5.103271484e-02
6.699500000e+03,-6.201704304e+00,1.534692088e+00,1.767578125e-03,4.893636068e-02
6.700000000e+03,-5.288438303e+00,2.301762186e+00,-3.631510417e-02,4.050048828e-02
6.700500000e+03,-4.438319838e+00,6.674763011e-01,4.711588542e-02,3.713460286e-02
6.701000000e+03,-5.044190335e+00,-8.890632699e-01,3.525553385e-02,-4.344319661e-02
6.701500000e+03,-4.131671340e+00,1.631266161e+00,-3.755696615e-03,6.203287760e-02
6.702000000e+03,-5.000489096e+00,-1.206291852e+00,2.004557292e-02,-5.253662109e-02
6.702500000e+03,-4.578884605e+00,-1.475772729e+00,5.600585937e-03,-5.876139323e-02
6.703000000e+03,-4.778785385e+00,-1.267373677e+00,1.723551432e-02,-5.504964193e-02
6.703500000e+03,-7.849905184e+00,2.234639552e+00,-2.495686849e-02,3.190266927e-02
6.704000000e+03,-5.558803479e+00,2.402416570e+00,-3.896891276e-02,3.552327474e-02
6.704500000e+03,-4.056215941e+00,8.418447654e-01,4.175618490e-02,4.675781250e-02
6.705000000e+03,-5.254305459e+00,-8.495495727e-01,3.606119792e-02,-4.101236979e-02
6.705500000e+03,-4.410348324e+00,-1.034852470e+00,3.073323568e-02,-5.174560547e-02
6.706000000e+03,-6.517630063e+00,-1.297979477e+00,1.272298177e-02,-4.547281901e-02
6.706500000e+03,-5.568631670e+00,2.801655534e+00,-4.965657552e-02,1.756184896e-02
6.707000000e+03,-5.280949556e+00,2.003080914e+00,-2.280924479e-02,4.943603516e-02
6.707500000e+03,-6.221171638e+00,-1.284042730e+00,1.381917318e-02,-4.686360677e-02
6.708000000e+03,-3.316475642e+00,-1.612749597e+00,-2.862955729e-03,-6.820149740e-02
6.708500000e+03,-4.574747181e+00,2.107302212e+00,-3.018554688e-02,5.075846354e-02
6.709000000e+03,-6.006054825e+00,2.015280506e+00,-2.153564453e-02,4.521728516e-02
6.709500000e+03,-5.706444041e+00,2.848920963e+00,-4.963704427e-02,1.495686849e-02
6.710000000e+03,-5.657997785e+00,-2.597202870e+00,-4.459554036e-02,-2.699869792e-02
6.710500000e+03,-5.355128144e+00,1.150823940e+00,2.201009115e-02,4.929036458e-02
6.711000000e+03,-4.363356527e+00,-1.366748828e+00,1.226155599e-02,-5.925537109e-02
6.711500000e+03,-5.114841157e+00,2.379558456e+00,-4.014729818e-02,3.831380208e-02
6.712000000e+03,-4.147533312e+00,2.446595704e+00,-4.764485677e-02,3.972493490e-02
6.712500000e+03,-5.305347683e+00,-2.971254236e+00,-5.350585937e-02,-9.203287760e-03
6.713000000e+03,-4.782165006e+00,1.574155287e+00,-1.936848958e-04,5.766194661e-02
6.713500000e+03,-4.335776988e+00,1.852974177e+00,-1.690266927e-02,5.830240885e-02
6.714000000e+03,-4.956879967e+00,2.911929269e+00,-5.503011068e-02,1.286539714e-02
6.714500000e+03,-4.075926106e+00,1.106328273e+00,2.801757812e-02,5.592041016e-02
6.715000000e+03,-4.547324331e+00,-1.217694680e+00,2.048665365e-02,-5.558756510e-02
6.715500000e+03,-5.232344510e+00,-4.191663423e-03,5.474934896e-02,-2.294921875e-04
6.716000000e+03,-3.218023667e+00,1.383544723e+00,1.285237630e-02,6.783284505e-02
6.716500000e+03,-3.827173349e+00,9.806090113e-01,3.581949870e-02,5.347574870e-02
6.717000000e+03,-5.465480975e+00,1.617641568e+00,-2.495930990e-03,5.324137370e-02
6.717500000e+03,-5.250995406e+00,-1.556063687e+00,8.048502604e-04,-5.462646484e-02
6.718000000e+03,-5.546758463e+00,6.804333799e-01,4.104410807e-02,3.322021484e-02
6.718500000e+03,-4.234207920e+00,2.946314969e+00,-6.024983724e-02,1.191731771e-02
6.719000000e+03,-5.924517691e+00,-2.421062120e+00,-3.799072266e-02,-3.335611979e-02
6.719500000e+03,-4.801451786e+00,3.157604613e-02,5.750569661e-02,1.816406250e-03
6.720000000e+03,-6.854354911e+00,1.849617702e+00,-1.250162760e-02,4.366943359e-02
6.720500000e+03,-6.319679610e+00,-7.001960226e-02,4.818929036e-02,-3.379720052e-03
6.721000000e+03,-7.098833716e+00,-1.561269295e+00,4.207356771e-04,-4.416097005e-02
6.721500000e+03,-8.317496859e+00,-1.525894869e+00,1.722819010e-03,-3.834309896e-02
6.722000000e+03,-7.468665849e+00,-1.832914809e+00,-1.096679687e-02,-4.087646484e-02
6.722500000e+03,-7.294760762e+00,-2.038919706e+00,-1.948242187e-02,-3.853271484e-02
6.723000000e+03,-6.571952440e+00,-1.404319027e+00,7.775878906e-03,-4.627604167e-02
6.723500000e+03,-9.089258793e+00,-1.939602273e+00,-1.266031901e-02,-3.275716146e-02
6.724000000e+03,-6.158112094e+00,9.850868239e-01,2.720540365e-02,4.101155599e-02
6.724500000e+03,-7.863339554e+00,3.050396209e-01,3.857503255e-02,1.214599609e-02
6.725000000e+03,-6.571781506e+00,6.624227385e-01,3.700113932e-02,2.886067708e-02
6.725500000e+03,-6.495284432e+00,5.489927067e-01,4.038411458e-02,2.470377604e-02
6.726000000e+03,-5.949560569e+00,-1.630821491e+00,-3.024088542e-03,-5.031982422e-02
6.726500000e+03,-6.928504275e+00,-2.533833223e+00,-3.697265625e-02,-2.571777344e-02
6.727000000e+03,-6.064780487e+00,3.034794241e+00,-4.946289062e-02,5.302734375e-03
6.727500000e+03,-5.782960689e+00,1.883963014e+00,-1.583089193e-02,4.888753255e-02
6.728000000e+03,-4.687157240e+00,-2.452119961e+00,-4.498046875e-02,-3.708414714e-02
6.728500000e+03,-5.048839801e+00,1.529392223e-01,5.526611328e-02,8.518880208e-03
6.729000000e+03,-5.115721878e+00,-6.454486639e-02,5.537434896e-02,-3.579101562e-03
6.729500000e+03,-5.332125017e+00,1.371826132e+00,1.069824219e-02,5.305664063e-02
6.730000000e+03,-5.554253755e+00,1.307814198e+00,1.371500651e-02,5.094401042e-02
6.730500000e+03,-5.222808895e+00,2.622278951e+00,-4.758382161e-02,2.720133464e-02
6.731000000e+03,-5.684561821e+00,2.628822770e+00,-4.528808594e-02,2.549723307e-02
6.731500000e+03,-5.903489424e+00,1.695035799e+00,-6.280110677e-03,5.028808594e-02
6.732000000e+03,-4.650982494e+00,-7.212035898e-01,4.396402995e-02,-3.865315755e-02
6.732500000e+03,-5.148016342e+00,3.160996282e-02,5.525634766e-02,1.747233073e-03
6.733000000e+03,-7.838800630e+00,1.827085436e+00,-1.028076172e-02,3.923177083e-02
6.733500000e+03,-6.575728866e+00,2.483999221e+00,-3.712320964e-02,2.866861979e-02
6.734000000e+03,-5.419032181e+00,-1.677718599e+00,-5.718587240e-03,-5.327962240e-02
6.734500000e+03,-5.530116172e+00,2.525983485e+00,-4.319254557e-02,3.055013021e-02
6.735000000e+03,-7.262194882e+00,-1.599773449e+00,-1.255696615e-03,-4.332194010e-02
6.735500000e+03,-7.089716121e+00,6.378829835e-01,3.551595052e-02,2.632649740e-02
6.736000000e+03,-6.127311359e+00,-1.161919239e+00,1.963623047e-02,-4.531819661e-02
6.736500000e+03,-5.869833984e+00,3.013176286e+00,-5.045654297e-02,6.515299479e-03
6.737000000e+03,-5.962259068e+00,-1.112383364e+00,2.227539063e-02,-4.513997396e-02
6.737500000e+03,-7.846627136e+00,1.539178848e+00,1.280924479e-03,4.049967448e-02
6.738000000e+03,-6.452447706e+00,2.331638024e+00,-3.280436198e-02,3.445638021e-02
6.738500000e+03,-6.079697356e+00,-2.038392459e-01,4.863281250e-02,-1.005289714e-02
6.739000000e+03,-5.981980811e+00,-1.920476873e+00,-1.720621745e-02,-4.718343099e-02
6.739500000e+03,-4.701350527e+00,1.214377357e+00,2.030761719e-02,5.454345703e-02
6.740000000e+03,-6.048131581e+00,1.943120205e-02,4.983235677e-02,9.684244792e-04
6.740500000e+03,-6.070492907e+00,-1.120472965e+00,2.163818359e-02,-4.475748698e-02
6.741000000e+03,-7.967299836e+00,7.169870227e-01,3.012207031e-02,2.625895182e-02
6.741500000e+03,-6.916525491e+00,-1.620890789e+00,-2.258300781e-03,-4.504313151e-02
6.742000000e+03,-6.108359000e+00,-1.627384673e+00,-2.799479167e-03,-4.941813151e-02
6.742500000e+03,-6.215062289e+00,7.397285145e-01,3.611490885e-02,3.295817057e-02
6.743000000e+03,-5.019597969e+00,-2.671005512e-01,5.411783854e-02,-1.480875651e-02
6.743500000e+03,-6.223553634e+00,2.085825920e+00,-2.405924479e-02,4.250895182e-02
6.744000000e+03,-7.017676876e+00,-2.135657728e+00,-2.386230469e-02,-3.765299479e-02
6.744500000e+03,-7.087602184e+00,-9.548854683e-01,2.554606120e-02,-3.609456380e-02
6.745000000e+03,-6.897377323e+00,-1.312053079e+00,1.156494141e-02,-4.369466146e-02
6.745500000e+03,-8.523351902e+00,-5.812884256e-01,3.132649740e-02,-2.058186849e-02
6.746000000e+03,-8.432928803e+00,2.430938814e+00,-2.870686849e-02,2.470703125e-02
6.746500000e+03,-8.667811299e+00,2.371757983e+00,-2.646972656e-02,2.565836589e-02
6.747000000e+03,-7.061621461e+00,1.059258445e+00,2.171142578e-02,3.867513021e-02
6.747500000e+03,-9.428858950e+00,2.838786848e+00,-3.223551432e-02,1.007080078e-02
6.748000000e+03,-8.761560851e+00,-1.365623948e+00,7.430013021e-03,-3.570393880e-02
6.748500000e+03,-1.046852761e+01,1.435886363e+00,4.029947917e-03,2.968994141e-02
6.749000000e+03,-1.093897261e+01,-2.730375793e+00,-2.601643880e-02,-1.134521484e-02
6.749500000e+03,-9.603684702e+00,2.943907781e+00,-3.245442708e-02,6.500651042e-03
