6.500000000e+03,-2.802513846e+00,-6.888595879e-01,5.590820312e-02,-4.603597005e-02
6.500500000e+03,-3.572089278e+00,3.542498002e-01,6.216634115e-02,2.299235026e-02
6.501000000e+03,-2.822263264e+00,8.536286520e-01,4.749186198e-02,5.445882161e-02
6.501500000e+03,-3.687503626e+00,2.336682528e-01,6.362955729e-02,1.514485677e-02
6.502000000e+03,-3.506421952e+00,-2.251044695e+00,-4.200683594e-02,-5.191975911e-02
6.502500000e+03,-4.083367776e+00,-2.325397583e+00,-4.280761719e-02,-4.552897135e-02
6.503000000e+03,-4.276415463e+00,2.239654482e+00,-3.789957682e-02,4.795003255e-02
6.503500000e+03,-3.261133807e+00,-2.413822918e+00,-5.129394531e-02,-4.569824219e-02
6.504000000e+03,-4.699940091e+00,1.553795490e+00,9.895833333e-04,5.820231120e-02
6.504500000e+03,-5.158196247e+00,2.139451623e+00,-2.973551432e-02,4.652913411e-02
6.505000000e+03,-4.913849841e+00,1.330797726e+00,1.350016276e-02,5.516682943e-02
6.505500000e+03,-7.571584745e+00,-2.346604405e+00,-2.928873698e-02,-2.985595703e-02
6.506000000e+03,-8.328577961e+00,2.660835491e+00,-3.398763021e-02,1.772705078e-02
6.506500000e+03,-6.512736555e+00,-1.673620343e+00,-4.849446615e-03,-4.699625651e-02
6.507000000e+03,-7.787148655e+00,1.406756038e+00,6.662597656e-03,4.025065104e-02
6.507500000e+03,-8.221981767e+00,-3.309089128e-01,3.670084635e-02,-1.260823568e-02
6.508000000e+03,-8.004912102e+00,-2.678790965e-01,3.836914062e-02,-1.053141276e-02
6.508500000e+03,-7.447059441e+00,2.907839699e+00,-4.127360026e-02,9.827473958e-03
6.509000000e+03,-8.237729536e+00,1.447315074e-01,3.833089193e-02,5.586751302e-03
6.509500000e+03,-6.278583223e+00,1.051760434e+00,2.407633464e-02,4.214436849e-02
6.510000000e+03,-5.434636682e+00,2.729266587e-01,5.150960286e-02,1.441813151e-02
6.510500000e+03,-3.740898468e+00,-3.122425152e+00,-6.499430339e-02,-1.245930990e-03
6.511000000e+03,-2.621392081e+00,2.651079901e+00,-6.522949219e-02,3.483561198e-02
6.511500000e+03,-2.886069575e+00,2.410701968e+00,-5.340820312e-02,4.788167318e-02
6.512000000e+03,-2.952948887e+00,4.895174859e-01,6.281982422e-02,3.346842448e-02
6.512500000e+03,-3.118066614e+00,2.833690282e+00,-6.655436198e-02,2.116536458e-02
6.513000000e+03,-2.401795966e+00,7.729165486e-01,5.429361979e-02,5.295491536e-02
6.513500000e+03,-2.523878559e+00,-2.165580769e+00,-4.190348307e-02,-6.194091797e-02
6.514000000e+03,-2.503852852e+00,-1.383714992e+00,1.394124349e-02,-7.364827474e-02
6.514500000e+03,-2.917729335e+00,-2.422097446e+00,-5.375406901e-02,-4.709798177e-02
6.515000000e+03,-3.810662329e+00,-2.056857099e+00,-3.012451172e-02,-5.701741536e-02
6.515500000e+03,-2.510267513e+00,-1.997093814e+00,-3.097167969e-02,-6.819742839e-02
6.516000000e+03,-3.117267575e+00,1.997449856e+00,-2.890380859e-02,6.358398437e-02
6.516500000e+03,-3.541457311e+00,-1.438366563e-01,6.582926432e-02,-9.534505208e-03
6.517000000e+03,-4.765374510e+00,3.218129158e-01,5.480794271e-02,1.827311198e-02
6.517500000e+03,-5.528889633e+00,-2.896793043e+00,-5.133463542e-02,-1.282389323e-02
6.518000000e+03,-6.166164112e+00,2.793873708e+00,-4.622639974e-02,1.675455729e-02
6.518500000e+03,-5.826232077e+00,2.154481763e+00,-2.817871094e-02,4.266601562e-02
6.519000000e+03,-5.782716275e+00,-1.300664963e+00,1.371337891e-02,-4.952473958e-02
6.519500000e+03,-6.210351942e+00,-1.941411121e+00,-1.771809896e-02,-4.559814453e-02
6.520000000e+03,-6.566951588e+00,-7.027963717e-01,3.582600911e-02,-3.034749349e-02
6.520500000e+03,-7.014160368e+00,-1.735368665e-01,4.392578125e-02,-7.700195313e-03
6.521000000e+03,-7.998486018e+00,-1.432087390e+00,5.505371094e-03,-3.943522135e-02
6.521500000e+03,-5.523718429e+00,1.782481194e+00,-1.112386068e-02,5.176188151e-02
6.522000000e+03,-6.208327841e+00,1.698726337e+00,-6.242675781e-03,4.853108724e-02
6.522500000e+03,-5.970621408e+00,3.339353994e-01,4.751057943e-02,1.648274740e-02
6.523000000e+03,-7.140302402e+00,2.899267969e+00,-4.266845703e-02,1.054687500e-02
6.523500000e+03,-4.851402786e+00,9.893356381e-01,3.141927083e-02,4.780354818e-02
6.524000000e+03,-5.207565933e+00,-8.599836684e-01,3.582356771e-02,-4.160970052e-02
6.524500000e+03,-4.407902287e+00,-1.807873463e+00,-1.413899740e-02,-5.851725260e-02
6.525000000e+03,-3.862583727e+00,5.952701836e-01,5.307617188e-02,3.594401042e-02
6.525500000e+03,-4.479494559e+00,7.810707715e-01,4.240152995e-02,4.203613281e-02
6.526000000e+03,-4.796294318e+00,1.215579573e+00,2.002197266e-02,5.397460938e-02
6.526500000e+03,-3.987035346e+00,3.095393358e+00,-6.312255859e-02,2.918294271e-03
6.527000000e+03,-3.259782078e+00,-9.258502179e-01,4.130452474e-02,-5.490722656e-02
6.527500000e+03,-3.374753004e+00,2.104633210e+00,-3.450195312e-02,5.837076823e-02
6.528000000e+03,-3.832621617e+00,-4.426095195e-01,5.812500000e-02,-2.754964193e-02
6.528500000e+03,-3.386991659e+00,-3.828855554e-01,6.280680339e-02,-2.529622396e-02
6.529000000e+03,-4.973433467e+00,2.702734175e-01,5.435872396e-02,1.506022135e-02
6.529500000e+03,-4.630157320e+00,-1.706456706e-01,5.782796224e-02,-9.965006510e-03
6.530000000e+03,-4.225429707e+00,-2.179590940e+00,-3.515869141e-02,-5.043375651e-02
6.530500000e+03,-5.832002189e+00,9.457072313e-01,2.990071615e-02,4.143554687e-02
6.531000000e+03,-4.832044925e+00,2.218655170e+00,-3.459879557e-02,4.571533203e-02
6.531500000e+03,-4.919821406e+00,-2.420855348e+00,-4.264160156e-02,-3.745524089e-02
6.532000000e+03,-6.499482203e+00,-2.326419372e+00,-3.244791667e-02,-3.444010417e-02
6.532500000e+03,-7.150711685e+00,-2.610144916e+00,-3.784505208e-02,-2.224772135e-02
6.533000000e+03,-8.883703804e+00,-1.769350285e+00,-7.093098958e-03,-3.525309245e-02
6.533500000e+03,-8.669789924e+00,-6.539939402e-01,2.925130208e-02,-2.242187500e-02
6.534000000e+03,-1.000004098e+01,-2.563654166e+00,-2.648681641e-02,-1.727539063e-02
6.534500000e+03,-1.088977529e+01,1.179314645e+00,1.089111328e-02,2.638427734e-02
6.535000000e+03,-7.697978726e+00,-2.145530642e-01,4.027425130e-02,-8.776041667e-03
6.535500000e+03,-8.935618026e+00,-1.680249265e+00,-3.904622396e-03,-3.553141276e-02
6.536000000e+03,-1.056167436e+01,-2.037525647e+00,-1.333821615e-02,-2.647216797e-02
6.536500000e+03,-7.475903579e+00,-1.832480949e+00,-1.093994141e-02,-4.084716797e-02
6.537000000e+03,-7.990848698e+00,1.174522382e+00,1.538248698e-02,3.676432292e-02
6.537500000e+03,-7.767378428e+00,2.671599116e+00,-3.645751953e-02,1.851888021e-02
6.538000000e+03,-8.182279926e+00,-4.246424192e-01,3.552164714e-02,-1.606119792e-02
6.538500000e+03,-5.274786365e+00,-3.171404637e-01,5.176595052e-02,-1.699055990e-02
6.539000000e+03,-4.421111587e+00,3.815572538e-01,5.578694661e-02,2.238281250e-02
6.539500000e+03,-7.167974122e+00,2.100764001e+00,-2.214762370e-02,3.780273438e-02
6.540000000e+03,-6.857281504e+00,-1.462678342e+00,4.899902344e-03,-4.514322917e-02
6.540500000e+03,-8.350970029e+00,-2.475936629e+00,-3.007161458e-02,-2.361246745e-02
6.541000000e+03,-5.586334189e+00,2.850843219e+00,-5.035725911e-02,1.506835937e-02
6.541500000e+03,-6.355895588e+00,-2.608704678e+00,-4.143636068e-02,-2.443929036e-02
6.542000000e+03,-7.320232315e+00,-2.921451580e+00,-4.201253255e-02,-9.401041667e-03
6.542500000e+03,-5.545103328e+00,5.155046679e-02,5.274332682e-02,2.721354167e-03
6.543000000e+03,-5.685773539e+00,1.657822279e+00,-4.516601562e-03,5.176839193e-02
6.543500000e+03,-6.234621688e+00,-8.654487374e-01,3.162597656e-02,-3.714274089e-02
6.544000000e+03,-7.027864455e+00,-2.859883620e+00,-4.277018229e-02,-1.237792969e-02
6.544500000e+03,-7.525084978e+00,2.959077514e-01,4.022054036e-02,1.226155599e-02
6.545000000e+03,-7.991645097e+00,-1.184381521e+00,1.501790365e-02,-3.691080729e-02
6.545500000e+03,-7.229944473e+00,1.817509672e-01,4.278483073e-02,7.862955729e-03
6.546000000e+03,-8.548337033e+00,1.970024306e+00,-1.452799479e-02,3.443603516e-02
6.546500000e+03,-8.000873318e+00,2.983907112e-01,3.804768880e-02,1.170247396e-02
6.547000000e+03,-1.115467373e+01,-2.582318440e-01,2.676839193e-02,-7.070312500e-03
6.547500000e+03,-1.096579894e+01,2.619735310e+00,-2.452880859e-02,1.410481771e-02
6.548000000e+03,-1.155312512e+01,1.679733982e+00,-2.875162760e-03,2.628824870e-02
6.548500000e+03,-1.270933147e+01,2.659156470e+00,-2.050699870e-02,1.073974609e-02
6.549000000e+03,-1.218729553e+01,1.943477108e+00,-8.951009115e-03,2.289550781e-02
6.549500000e+03,-1.157137481e+01,-1.382554736e-01,2.613769531e-02,-3.636881510e-03
6.550000000e+03,-1.404879807e+01,2.121887022e+00,-1.038899740e-02,1.690348307e-02
6.550500000e+03,-1.332314083e+01,1.156268732e+00,8.687337240e-03,1.974283854e-02
6.551000000e+03,-1.145859533e+01,2.009665186e+00,-1.135986328e-02,2.420084635e-02
6.551500000e+03,-1.237049746e+01,3.772793059e-01,2.237711589e-02,8.867187500e-03
6.552000000e+03,-1.105925915e+01,-9.664891111e-01,1.590494792e-02,-2.303466797e-02
6.552500000e+03,-1.009675260e+01,2.511832092e+00,-2.527343750e-02,1.841796875e-02
6.553000000e+03,-8.865122821e+00,-2.127897150e+00,-1.905354818e-02,-3.058756510e-02
6.553500000e+03,-1.264377116e+01,1.540576543e+00,7.047526042e-04,2.331380208e-02
6.554000000e+03,-1.139710562e+01,2.412327261e+00,-2.007649740e-02,1.794026693e-02
6.554500000e+03,-9.229756929e+00,1.829895328e+00,-8.853352865e-03,3.340169271e-02
6.555000000e+03,-1.251221945e+01,6.658187975e-02,2.362792969e-02,1.575520833e-03
6.555500000e+03,-1.088594800e+01,2.050961878e+00,-1.319091797e-02,2.532714844e-02
6.556000000e+03,-1.024732951e+01,-2.226890708e+00,-1.874918620e-02,-2.435384115e-02
6.556500000e+03,-1.295174629e+01,-6.685193925e-01,1.766601562e-02,-1.395345052e-02
6.557000000e+03,-9.891457380e+00,-1.564823745e+00,1.912434896e-04,-3.201985677e-02
6.557500000e+03,-1.295642422e+01,-2.485583877e+00,-1.782958984e-02,-1.372395833e-02
6.558000000e+03,-1.352556770e+01,1.812421812e+00,-5.042317708e-03,2.046061198e-02
6.558500000e+03,-1.732249736e+01,-1.535152700e+00,4.850260417e-04,-1.360188802e-02
6.559000000e+03,-1.307350691e+01,-1.356906973e+00,4.711914063e-03,-2.169270833e-02
6.559500000e+03,-1.905896835e+01,-2.746481351e+00,-1.028564453e-02,-4.289550781e-03
6.560000000e+03,-1.513224097e+01,-8.131979941e-01,1.203531901e-02,-1.272379557e-02
6.560500000e+03,-2.314952963e+01,3.067027274e+00,-6.939290365e-03,5.183919271e-04
6.561000000e+03,-2.126395639e+01,-3.074523588e+00,-8.626302083e-03,-5.794270833e-04
6.561500000e+03,-1.784913150e+01,1.762622614e+00,-2.442220052e-03,1.257486979e-02
6.562000000e+03,-2.532649694e+01,1.299101455e+00,1.453450521e-03,5.217285156e-03
6.562500000e+03,-2.505551712e+01,1.868502866e+00,-1.638997396e-03,5.341796875e-03
6.563000000e+03,-2.418204845e+01,-1.882300655e+00,-1.893717448e-03,-5.881347656e-03
6.563500000e+03,-2.098589885e+01,-1.266948885e+00,2.670898437e-03,-8.518066406e-03
6.564000000e+03,-2.062448858e+01,7.727218280e-01,6.663411458e-03,6.496582031e-03
6.564500000e+03,-2.130032800e+01,1.927376517e+00,-3.005371094e-03,8.068033854e-03
6.565000000e+03,-2.397312559e+01,-1.811300655e-01,6.225585938e-03,-1.140136719e-03
6.565500000e+03,-2.890443361e+01,-1.172427936e+00,1.391601563e-03,-3.306477865e-03
6.566000000e+03,-1.960122462e+01,9.415200048e-01,6.162109375e-03,8.464355469e-03
6.566500000e+03,-2.136740059e+01,-8.440986125e-01,5.676269531e-03,-6.385091146e-03
6.567000000e+03,-1.982420558e+01,-1.351893829e+00,2.215983073e-03,-9.960937500e-03
6.567500000e+03,-1.727246781e+01,-1.693868297e+00,-1.680501302e-03,-1.358561198e-02
6.568000000e+03,-2.315671167e+01,-9.589964241e-01,3.993326823e-03,-5.691731771e-03
6.568500000e+03,-1.568326150e+01,-1.354543873e+00,3.527018229e-03,-1.605468750e-02
6.569000000e+03,-1.893550211e+01,-1.111237687e+00,5.013834635e-03,-1.013102214e-02
6.569500000e+03,-2.160821050e+01,-5.428716284e-01,7.115071615e-03,-4.292805990e-03
6.570000000e+03,-2.711864611e+01,1.156810134e+00,1.772460938e-03,4.034016927e-03
6.570500000e+03,-2.230229021e+01,-1.301064639e+00,2.044270833e-03,-7.394205729e-03
6.571000000e+03,-2.528719390e+01,1.534889001e+00,1.953125000e-04,5.437011719e-03
6.571500000e+03,-2.405956696e+01,2.459225703e+00,-4.863281250e-03,3.951822917e-03
6.572000000e+03,-2.743260386e+01,2.270242066e+00,-2.736002604e-03,3.251953125e-03
6.572500000e+03,-2.690217245e+01,1.537823422e+00,1.489257812e-04,4.514973958e-03
6.573000000e+03,-2.207651736e+01,-4.345228988e-01,7.141927083e-03,-3.314615885e-03
6.573500000e+03,-2.078421416e+01,-5.162516064e-01,7.945963542e-03,-4.510091146e-03
6.574000000e+03,-4.901798026e+01,-2.068670378e-02,3.540039062e-04,-7.324218750e-06
6.574500000e+03,-1.806544111e+01,-7.335170735e-01,9.281412760e-03,-8.365071615e-03
6.575000000e+03,-2.430560014e+01,-9.371281632e-01,3.606770833e-03,-4.908854167e-03
6.575500000e+03,-2.219040179e+01,-3.126616815e+00,-7.770182292e-03,-1.163736979e-04
6.576000000e+03,-3.268274728e+01,1.878803566e+00,-7.039388021e-04,2.212727865e-03
6.576500000e+03,-2.082720034e+01,-1.707186759e+00,-1.236165365e-03,-9.007161458e-03
6.577000000e+03,-1.632450438e+01,-5.927037205e-01,1.266357422e-02,-8.528645833e-03
6.577500000e+03,-2.624511891e+01,1.868988265e+00,-1.431477865e-03,4.657389323e-03
6.578000000e+03,-2.133553308e+01,-2.351832395e+00,-6.036783854e-03,-6.089680990e-03
6.578500000e+03,-1.486000832e+01,2.318101907e+00,-1.228271484e-02,1.325602214e-02
6.579000000e+03,-3.682049770e+01,1.691861399e+00,-1.741536458e-04,1.431477865e-03
6.579500000e+03,-2.789751706e+01,1.530583484e+00,1.619466146e-04,4.025065104e-03
6.580000000e+03,-3.290353885e+01,5.618764928e-01,1.915690104e-03,1.206054688e-03
6.580500000e+03,-1.758299942e+01,-1.947069465e+00,-4.853515625e-03,-1.228434245e-02
6.581000000e+03,-2.116052282e+01,-3.882443693e-01,8.098144531e-03,-3.312174479e-03
6.581500000e+03,-2.400073987e+01,1.694815337e+00,-7.804361979e-04,6.260579427e-03
6.582000000e+03,-2.761294220e+01,3.544000887e-01,3.903808594e-03,1.444498698e-03
6.582500000e+03,-2.231148352e+01,-2.803890472e+00,-7.230631510e-03,-2.539062500e-03
6.583000000e+03,-1.892170987e+01,-3.338660762e-01,1.069661458e-02,-3.710123698e-03
6.583500000e+03,-4.055627981e+01,4.768404795e-01,8.333333333e-04,4.305013021e-04
6.584000000e+03,-2.141668714e+01,2.635861934e+00,-7.431640625e-03,4.115397135e-03
6.584500000e+03,-1.728527550e+01,-9.296647689e-01,8.175455729e-03,-1.095458984e-02
6.585000000e+03,-2.452993886e+01,-1.970269722e+00,-2.308756510e-03,-5.468750000e-03
6.585500000e+03,-1.528096387e+01,4.955711921e-02,1.719563802e-02,8.528645833e-04
6.586000000e+03,-1.546165863e+01,-3.098003914e-01,1.605957031e-02,-5.140787760e-03
6.586500000e+03,-1.912929370e+01,1.355774477e-01,1.095296224e-02,1.494140625e-03
6.587000000e+03,-1.554124841e+01,-1.434141101e+00,2.276204427e-03,-1.655273437e-02
6.587500000e+03,-1.439400414e+01,2.929856890e-01,1.825520833e-02,5.506998698e-03
6.588000000e+03,-1.880255231e+01,-3.153158099e-01,1.091227214e-02,-3.559570313e-03
6.588500000e+03,-1.222462824e+01,-6.454626729e-01,1.955322266e-02,-1.472493490e-02
6.589000000e+03,-1.383066889e+01,2.970400740e+00,-2.004801432e-02,3.465983073e-03
6.589500000e+03,-1.432851118e+01,-1.177790797e+00,7.357584635e-03,-1.774739583e-02
6.590000000e+03,-1.366604229e+01,3.965120078e-01,1.912597656e-02,8.007812500e-03
6.590500000e+03,-1.173539243e+01,-2.930126190e+00,-2.531901042e-02,-5.435384115e-03
6.591000000e+03,-1.611715535e+01,1.448184278e+00,1.912434896e-03,1.551920573e-02
6.591500000e+03,-1.141282831e+01,1.518720953e+00,1.398925781e-03,2.683919271e-02
6.592000000e+03,-1.202059074e+01,-1.671133744e-01,2.471028646e-02,-4.168294271e-03
6.592500000e+03,-1.040719115e+01,-2.377459763e+00,-2.178548177e-02,-2.087809245e-02
6.593000000e+03,-1.096743844e+01,1.082818831e+00,1.326334635e-02,2.498779297e-02
6.593500000e+03,-1.058677237e+01,-1.554661144e+00,4.768880208e-04,-2.955322266e-02
6.594000000e+03,-1.090624389e+01,1.680418887e+00,-3.116861979e-03,2.831868490e-02
6.594500000e+03,-1.110582590e+01,2.125993768e+00,-1.467610677e-02,2.366048177e-02
6.595000000e+03,-1.398905819e+01,2.836498851e+00,-1.905517578e-02,6.000976562e-03
6.595500000e+03,-9.954879552e+00,4.593197717e-01,2.849283854e-02,1.409261068e-02
6.596000000e+03,-1.168439121e+01,1.012614278e+00,1.379638672e-02,2.209472656e-02
6.596500000e+03,-1.202106488e+01,-1.905857243e+00,-8.239746094e-03,-2.366455078e-02
6.597000000e+03,-1.351614925e+01,-1.610386470e+00,-8.349609375e-04,-2.107910156e-02
6.597500000e+03,-1.295009512e+01,-7.233316710e-01,1.687825521e-02,-1.490315755e-02
6.598000000e+03,-1.261511409e+01,-1.298200191e+00,6.300455729e-03,-2.253743490e-02
6.598500000e+03,-1.201176965e+01,-2.908967590e+00,-2.440917969e-02,-5.782877604e-03
6.599000000e+03,-1.358704596e+01,2.406323182e+00,-1.551839193e-02,1.403564453e-02
6.599500000e+03,-1.030372382e+01,2.325359621e+00,-2.091634115e-02,2.224772135e-02
6.600000000e+03,-1.075045315e+01,2.697532911e+00,-2.619222005e-02,1.246093750e-02
6.600500000e+03,-1.055652165e+01,-9.669418474e-01,1.684163411e-02,-2.441487630e-02
6.601000000e+03,-1.051788861e+01,-1.726330305e+00,-4.615071615e-03,-2.943277995e-02
6.601500000e+03,-1.090515989e+01,2.383280415e+00,-2.068603516e-02,1.959472656e-02
6.602000000e+03,-1.039547588e+01,2.669657975e+00,-2.691243490e-02,1.373616536e-02
6.602500000e+03,-9.039881093e+00,5.159000847e-02,3.527180990e-02,1.821289062e-03
6.603000000e+03,-1.228556088e+01,5.767106789e-01,2.037516276e-02,1.325358073e-02
6.603500000e+03,-1.035154771e+01,3.147084770e-01,2.887695312e-02,9.400227865e-03
6.604000000e+03,-1.090311398e+01,3.743820244e-01,2.652587891e-02,1.042236328e-02
6.604500000e+03,-1.184097593e+01,-2.116905860e+00,-1.328694661e-02,-2.186197917e-02
6.605000000e+03,-1.229991610e+01,-1.663657483e+00,-2.250162760e-03,-2.416178385e-02
6.605500000e+03,-1.163459899e+01,-2.716337981e+00,-2.386474609e-02,-1.080810547e-02
6.606000000e+03,-1.442963524e+01,1.403819042e-01,1.880289714e-02,2.657063802e-03
6.606500000e+03,-1.363847575e+01,-2.915972656e+00,-2.027343750e-02,-4.653320312e-03
6.607000000e+03,-9.248967560e+00,-3.581601529e-01,3.229085286e-02,-1.208658854e-02
6.607500000e+03,-1.101708334e+01,2.388318690e+00,-2.051839193e-02,1.924072266e-02
6.608000000e+03,-1.511518714e+01,9.289275970e-01,1.050618490e-02,1.405598958e-02
6.608500000e+03,-1.141666145e+01,3.574233397e-01,2.516601562e-02,9.398600260e-03
6.609000000e+03,-1.172088364e+01,-1.899650500e+00,-8.377278646e-03,-2.454915365e-02
6.609500000e+03,-1.556609935e+01,9.346416338e-01,9.898274740e-03,1.340169271e-02
6.610000000e+03,-1.155088121e+01,1.363179678e+00,5.452473958e-03,2.588378906e-02
6.610500000e+03,-1.342700684e+01,1.003053849e+00,1.146077474e-02,1.796956380e-02
6.611000000e+03,-1.248608833e+01,-3.001202549e+00,-2.351806641e-02,-3.323567708e-03
6.611500000e+03,-1.360810461e+01,1.699045335e-01,2.057291667e-02,3.529459635e-03
6.612000000e+03,-1.212190256e+01,-1.345541565e+00,5.532226563e-03,-2.414306641e-02
6.612500000e+03,-1.417320209e+01,-8.522050915e-01,1.287597656e-02,-1.472249349e-02
6.613000000e+03,-9.513787883e+00,2.509484831e+00,-2.698160807e-02,1.975992839e-02
6.613500000e+03,-1.064555516e+01,-1.655638766e+00,-2.487792969e-03,-2.925211589e-02
6.614000000e+03,-1.089330154e+01,-1.744455696e+00,-4.930013021e-03,-2.810302734e-02
6.614500000e+03,-1.361933777e+01,-1.542607279e+00,5.875651042e-04,-2.083821615e-02
6.615000000e+03,-1.041912436e+01,2.482761818e+00,-2.382649740e-02,1.844726563e-02
6.615500000e+03,-1.211477054e+01,-4.341480686e-01,2.248942057e-02,-1.042724609e-02
6.616000000e+03,-1.191919172e+01,-6.872132865e-01,1.959879557e-02,-1.608398437e-02
6.616500000e+03,-1.255437518e+01,-7.821260516e-01,1.671793620e-02,-1.660888672e-02
6.617000000e+03,-1.059268600e+01,2.502836017e+00,-2.371337891e-02,1.760986328e-02
6.617500000e+03,-1.231883763e+01,1.386550878e+00,4.436035156e-03,2.380371094e-02
6.618000000e+03,-1.394575243e+01,2.867513853e-01,1.925781250e-02,5.678710938e-03
6.618500000e+03,-1.139726333e+01,-2.127063158e+00,-1.421630859e-02,-2.286458333e-02
6.619000000e+03,-1.079132227e+01,2.592089131e+00,-2.461914062e-02,1.507731120e-02
6.619500000e+03,-1.124262935e+01,3.080774130e+00,-2.735677083e-02,1.665852865e-03
6.620000000e+03,-1.021425405e+01,8.288701233e-01,2.084716797e-02,2.274332682e-02
6.620500000e+03,-1.440106691e+01,-1.796048819e+00,-4.255371094e-03,-1.857096354e-02
6.621000000e+03,-1.132152713e+01,2.378358452e+00,-1.962565104e-02,1.877441406e-02
6.621500000e+03,-1.114729250e+01,8.613736863e-01,1.805013021e-02,2.102457682e-02
6.622000000e+03,-1.085493703e+01,-6.379637524e-01,2.302164714e-02,-1.706787109e-02
6.622500000e+03,-1.112778647e+01,2.042031561e+00,-1.260823568e-02,2.474527995e-02
6.623000000e+03,-9.607268494e+00,1.210292581e+00,1.167073568e-02,3.095865885e-02
6.623500000e+03,-1.245130212e+01,3.463685708e-01,2.243082682e-02,8.095703125e-03
6.624000000e+03,-1.000841124e+01,1.157766389e+00,1.268066406e-02,2.893554687e-02
6.624500000e+03,-9.597019143e+00,1.435976765e+00,4.452311198e-03,3.282389323e-02
6.625000000e+03,-8.806254110e+00,1.808338302e+00,-8.537597656e-03,3.526285807e-02
6.625500000e+03,-1.033374208e+01,-2.201786855e+00,-1.795247396e-02,-2.457112630e-02
6.626000000e+03,-1.016728523e+01,-3.610737071e-02,3.099934896e-02,-1.119791667e-03
6.626500000e+03,-1.124225823e+01,-8.509496245e-01,1.806966146e-02,-2.060872396e-02
6.627000000e+03,-1.402458444e+01,-5.855182071e-01,1.658203125e-02,-1.099527995e-02
6.627500000e+03,-1.076406198e+01,-2.543270853e+00,-2.392903646e-02,-1.631184896e-02
6.628000000e+03,-1.306800858e+01,8.940813867e-01,1.391031901e-02,1.731770833e-02
6.628500000e+03,-9.766456165e+00,2.578585191e+00,-2.747070312e-02,1.733805339e-02
6.629000000e+03,-1.146664238e+01,2.674157029e+00,-2.384440104e-02,1.203531901e-02
6.629500000e+03,-9.192917016e+00,-2.807568454e+00,-3.278401693e-02,-1.137695313e-02
6.630000000e+03,-1.185521524e+01,-1.828309787e+00,-6.504720052e-03,-2.469889323e-02
6.630500000e+03,-1.101411709e+01,-1.695395258e+00,-3.496907552e-03,-2.791992187e-02
6.631000000e+03,-8.201804470e+00,1.830267979e+00,-9.979654948e-03,3.759440104e-02
6.631500000e+03,-1.074246199e+01,2.660857727e+00,-2.574137370e-02,1.342529297e-02
6.632000000e+03,-1.338589838e+01,2.337409913e+00,-1.485514323e-02,1.542399089e-02
6.632500000e+03,-8.887328567e+00,5.464340041e-01,3.071044922e-02,1.867838542e-02
6.633000000e+03,-1.377166183e+01,2.396545945e+00,-1.505696615e-02,1.388834635e-02
6.633500000e+03,-8.395203829e+00,-6.174367672e-01,3.101643880e-02,-2.202311198e-02
6.634000000e+03,-9.641636537e+00,-2.173189235e+00,-1.867268880e-02,-2.715413411e-02
6.634500000e+03,-9.740366988e+00,-3.046437297e+00,-3.243489583e-02,-3.095703125e-03
6.635000000e+03,-1.007003789e+01,-9.780304154e-01,1.752441406e-02,-2.601725260e-02
6.635500000e+03,-9.844239413e+00,1.620663838e+00,-1.604817708e-03,3.215494792e-02
6.636000000e+03,-1.022966466e+01,2.727988418e+00,-2.820068359e-02,1.237792969e-02
6.636500000e+03,-9.334680918e+00,-2.022823990e+00,-1.491210938e-02,-3.071126302e-02
6.637000000e+03,-1.096505231e+01,-1.277796957e+00,8.173014323e-03,-2.709147135e-02
6.637500000e+03,-1.176918006e+01,9.058406373e-01,1.591634115e-02,2.029947917e-02
6.638000000e+03,-1.058897942e+01,3.103385041e+00,-2.952799479e-02,1.128743490e-03
6.638500000e+03,-9.608420672e+00,-9.220258163e-01,1.998779297e-02,-2.635986328e-02
6.639000000e+03,-1.192052546e+01,-2.506008217e+00,-2.039957682e-02,-1.504882812e-02
6.639500000e+03,-9.517941200e+00,2.768446232e+00,-3.112711589e-02,1.218587240e-02
6.640000000e+03,-9.428488123e+00,2.004471350e+00,-1.419189453e-02,3.064697266e-02
6.640500000e+03,-1.371870651e+01,-2.229145093e+00,-1.260904948e-02,-1.630208333e-02
6.641000000e+03,-1.103972855e+01,2.025985832e+00,-1.233398438e-02,2.519856771e-02
6.641500000e+03,-1.072860922e+01,1.626013845e+00,-1.604817708e-03,2.903401693e-02
6.642000000e+03,-1.073444476e+01,-3.177476001e-01,2.760416667e-02,-9.078776042e-03
6.642500000e+03,-1.234088462e+01,3.045414230e+00,-2.404052734e-02,2.319335938e-03
6.643000000e+03,-1.038747648e+01,4.140113203e-01,2.768798828e-02,1.216634115e-02
6.643500000e+03,-1.019160496e+01,-2.880495412e+00,-2.988444010e-02,-7.985026042e-03
6.644000000e+03,-1.016110804e+01,-3.042542248e+00,-3.088948568e-02,-3.069661458e-03
6.644500000e+03,-9.884784705e+00,1.736115169e-01,3.156331380e-02,5.535481771e-03
6.645000000e+03,-1.065906454e+01,-2.622615277e+00,-2.545247396e-02,-1.453857422e-02
6.645500000e+03,-1.182602829e+01,-1.505301237e+00,1.677246094e-03,-2.557210286e-02
6.646000000e+03,-1.045472744e+01,-1.257758505e+00,9.241536458e-03,-2.855143229e-02
6.646500000e+03,-1.294173571e+01,2.666705752e+00,-2.004394531e-02,1.030517578e-02
6.647000000e+03,-1.322066099e+01,1.251286071e+00,6.855468750e-03,2.072102865e-02
6.647500000e+03,-1.046113615e+01,2.539303910e+00,-2.471110026e-02,1.698893229e-02
6.648000000e+03,-1.061109290e+01,-2.756743583e+00,-2.731852214e-02,-1.106526693e-02
6.648500000e+03,-1.112171140e+01,3.592710455e-01,2.601725260e-02,9.771321615e-03
6.649000000e+03,-1.337289204e+01,-4.578608526e-01,1.923746745e-02,-9.479980469e-03
6.649500000e+03,-9.905010041e+00,-1.735810276e-01,3.149007161e-02,-5.521647135e-03
6.650000000e+03,-1.135913057e+01,-1.300398692e-01,2.681396484e-02,-3.506673177e-03
6.650500000e+03,-1.054789923e+01,-1.454451415e+00,3.446451823e-03,-2.948893229e-02
6.651000000e+03,-1.612523551e+01,-1.874128692e+00,-4.666341146e-03,-1.490885417e-02
6.651500000e+03,-1.214197860e+01,-1.175080579e+00,9.525553385e-03,-2.280192057e-02
6.652000000e+03,-1.566118729e+01,-1.263460117e+00,4.985351562e-03,-1.570719401e-02
6.652500000e+03,-1.386635346e+01,1.596062142e+00,-5.118815104e-04,2.025553385e-02
6.653000000e+03,-1.149462786e+01,-2.470761410e+00,-2.085449219e-02,-1.655029297e-02
6.653500000e+03,-1.718726998e+01,3.501993729e-01,1.298502604e-02,4.742838542e-03
6.654000000e+03,-1.463611223e+01,1.144702740e+00,7.664388021e-03,1.688557943e-02
6.654500000e+03,-1.945930159e+01,2.234394771e+00,-6.555175781e-03,8.383789062e-03
6.655000000e+03,-2.034901853e+01,-1.197479317e+00,3.503417969e-03,-8.944498698e-03
6.655500000e+03,-1.615574937e+01,-2.153912787e+00,-8.571777344e-03,-1.299479167e-02
6.656000000e+03,-1.921673262e+01,2.113842970e+00,-5.655110677e-03,9.369303385e-03
6.656500000e+03,-1.726723717e+01,-1.532907535e-01,1.353678385e-02,-2.091471354e-03
6.657000000e+03,-1.721829506e+01,-1.895311886e+00,-4.392089844e-03,-1.305582682e-02
6.657500000e+03,-1.612129719e+01,2.239064236e+00,-9.684244792e-03,1.226725260e-02
6.658000000e+03,-1.383928491e+01,1.653527308e-01,2.004801432e-02,3.345540365e-03
6.658500000e+03,-1.428157052e+01,-5.955043909e-01,1.599121094e-02,-1.083496094e-02
6.659000000e+03,-2.193319992e+01,2.528209779e+00,-6.545410156e-03,4.607747396e-03
6.659500000e+03,-2.056555650e+01,1.174709058e+00,3.614908854e-03,8.644205729e-03
6.660000000e+03,-1.984351988e+01,-2.154476191e+00,-5.611165365e-03,-8.496093750e-03
6.660500000e+03,-1.576424895e+01,-3.042585337e+00,-1.620524089e-02,-1.609700521e-03
6.661000000e+03,-2.108365996e+01,2.698231758e+00,-7.973632813e-03,3.786621094e-03
6.661500000e+03,-1.542916984e+01,1.502804906e+00,1.149902344e-03,1.688639323e-02
6.662000000e+03,-2.554578928e+01,-2.237908055e+00,-3.267415365e-03,-4.148763021e-03
6.662500000e+03,-2.281926335e+01,-1.327237574e+00,1.743164063e-03,-7.014973958e-03
6.663000000e+03,-1.938719288e+01,1.762778173e+00,-2.047526042e-03,1.053385417e-02
6.663500000e+03,-1.970929838e+01,1.260394780e+00,3.158365885e-03,9.846191406e-03
6.664000000e+03,-2.182762149e+01,5.286889743e-01,6.996256510e-03,4.086914062e-03
6.664500000e+03,-2.193433343e+01,-2.406328818e+00,-5.935872396e-03,-5.368652344e-03
6.665000000e+03,-2.202327156e+01,2.288225090e+00,-5.208333333e-03,5.969238281e-03
6.665500000e+03,-1.751360458e+01,-1.312757073e+00,3.397623698e-03,-1.287353516e-02
6.666000000e+03,-2.326355405e+01,1.236117881e+00,2.255859375e-03,6.486816406e-03
6.666500000e+03,-3.135949865e+01,-1.110513443e+00,1.201171875e-03,-2.422688802e-03
6.667000000e+03,-2.186446664e+01,1.311984614e-01,7.998860677e-03,1.055501302e-03
6.667500000e+03,-1.766755469e+01,5.057569858e-01,1.144287109e-02,6.337076823e-03
6.668000000e+03,-2.136412408e+01,2.237685429e+00,-5.286458333e-03,6.715494792e-03
6.668500000e+03,-1.675447444e+01,1.636820563e+00,-9.586588542e-04,1.449869792e-02
6.669000000e+03,-1.881944104e+01,-4.050317025e-01,1.052897135e-02,-4.514160156e-03
6.669500000e+03,-3.363760079e+01,2.170625636e+00,-1.174316406e-03,1.717122396e-03
6.670000000e+03,-1.854850439e+01,-2.101686008e+00,-5.983886719e-03,-1.019205729e-02
6.670500000e+03,-2.727648810e+01,1.328052857e+00,1.040039062e-03,4.200032552e-03
6.671000000e+03,-1.955309044e+01,-9.137056529e-01,6.430664062e-03,-8.335774740e-03
6.671500000e+03,-2.958071566e+01,6.174558787e-01,2.705891927e-03,1.921386719e-03
6.672000000e+03,-2.572786357e+01,1.249294591e+00,1.634114583e-03,4.906412760e-03
6.672500000e+03,-2.079525448e+01,3.130359937e-01,8.681640625e-03,2.810058594e-03
6.673000000e+03,-6.511602859e+01,1.497399001e+00,4.069010417e-06,5.533854167e-05
6.673500000e+03,-3.172129871e+01,-1.255032941e-02,2.593587240e-03,-3.255208333e-05
6.674000000e+03,-2.283618454e+01,-7.037076171e-01,5.500488281e-03,-4.667968750e-03
6.674500000e+03,-1.780031928e+01,-3.096028815e+00,-1.286865234e-02,-5.867513021e-04
6.675000000e+03,-2.165579704e+01,1.753089512e+00,-1.498209635e-03,8.127441406e-03
6.675500000e+03,-1.784245991e+01,-4.264488673e-01,1.167154948e-02,-5.302734375e-03
6.676000000e+03,-2.072824820e+01,-1.563028270e-01,9.083658854e-03,-1.431477865e-03
6.676500000e+03,-1.924552145e+01,-3.527103501e-01,1.023600260e-02,-3.767903646e-03
6.677000000e+03,-1.678197987e+01,4.244652991e-01,1.319905599e-02,5.965169271e-03
6.677500000e+03,-1.780759146e+01,2.679726415e+00,-1.152262370e-02,5.735677083e-03
6.678000000e+03,-1.525169455e+01,-2.440671862e+00,-1.320231120e-02,-1.114095052e-02
6.678500000e+03,-2.053946393e+01,-5.481717435e-01,8.020833333e-03,-4.897460937e-03
6.679000000e+03,-1.478288330e+01,1.381173856e+00,3.436686198e-03,1.790608724e-02
6.679500000e+03,-1.587253733e+01,2.558179105e+00,-1.342285156e-02,8.859863281e-03
6.680000000e+03,-1.565770288e+01,2.333923192e+00,-1.139485677e-02,1.191406250e-02
6.680500000e+03,-1.902743063e+01,-3.065873012e-01,1.066324870e-02,-3.375651042e-03
6.681000000e+03,-1.445355475e+01,2.299280128e+00,-1.260742187e-02,1.413085937e-02
6.681500000e+03,-1.649827356e+01,1.554645015e+00,2.416992188e-04,1.496337891e-02
6.682000000e+03,-1.997880102e+01,-1.250098323e+00,3.159993490e-03,-9.513346354e-03
6.682500000e+03,-2.166055826e+01,-1.317955852e+00,2.066243490e-03,-7.997233073e-03
6.683000000e+03,-2.301254997e+01,5.920894263e-01,5.865885417e-03,3.945312500e-03
6.683500000e+03,-1.510967856e+01,2.132407045e+00,-9.351399740e-03,1.486246745e-02
6.684000000e+03,-1.795485172e+01,1.004644172e+00,6.787923177e-03,1.068033854e-02
6.684500000e+03,-1.453751609e+01,-1.446597408e+00,2.323404948e-03,-1.861083984e-02
6.685000000e+03,-1.405620428e+01,-2.496129282e+00,-1.583577474e-02,-1.192545573e-02
6.685500000e+03,-1.455090269e+01,-2.755138769e+00,-1.734537760e-02,-7.058105469e-03
6.686000000e+03,-1.266399264e+01,1.206311597e+00,8.295084635e-03,2.174153646e-02
6.686500000e+03,-1.084551861e+01,2.643128828e+00,-2.519856771e-02,1.371582031e-02
6.687000000e+03,-1.211863602e+01,-2.868499190e+00,-2.385986328e-02,-6.682942708e-03
6.687500000e+03,-9.192693923e+00,-1.819295621e+00,-8.535156250e-03,-3.363688151e-02
6.688000000e+03,-9.957382889e+00,-2.634961769e+00,-2.778645833e-02,-1.541992187e-02
6.688500000e+03,-9.399183410e+00,-1.160260121e+00,1.352457682e-02,-3.107177734e-02
6.689000000e+03,-8.906947115e+00,-2.732466900e+00,-3.290364583e-02,-1.426676432e-02
6.689500000e+03,-6.419401424e+00,1.472055178e+00,4.707845052e-03,4.752360026e-02
6.690000000e+03,-9.243567198e+00,-1.900386669e+00,-1.116617839e-02,-3.264322917e-02
6.690500000e+03,-8.744525362e+00,-1.642035561e+00,-2.600911458e-03,-3.644775391e-02
6.691000000e+03,-7.706518451e+00,1.104921511e+00,1.849772135e-02,3.679036458e-02
6.691500000e+03,-1.070857652e+01,-1.081934531e+00,1.368733724e-02,-2.573160807e-02
6.692000000e+03,-1.134407416e+01,-8.235378619e-01,1.841064453e-02,-1.987141927e-02
6.692500000e+03,-9.252377784e+00,3.083733935e+00,-3.440755208e-02,1.993001302e-03
6.693000000e+03,-9.151464675e+00,-5.496458447e-01,2.973225911e-02,-1.821451823e-02
6.693500000e+03,-9.941807174e+00,-2.356935592e+00,-2.252766927e-02,-2.249430339e-02
6.694000000e+03,-6.684906876e+00,3.138974767e+00,-4.631835937e-02,1.212565104e-04
6.694500000e+03,-9.726080198e+00,2.730135995e+00,-2.991210937e-02,1.305257161e-02
6.695000000e+03,-7.302277962e+00,1.660293160e+00,-3.855794271e-03,4.296793620e-02
6.695500000e+03,-8.376476838e+00,2.076853968e+00,-1.847900391e-02,3.334391276e-02
6.696000000e+03,-6.927532709e+00,2.751751345e-01,4.334798177e-02,1.223876953e-02
6.696500000e+03,-5.543666602e+00,-8.606376899e-01,3.443766276e-02,-4.005289714e-02
6.697000000e+03,-7.076046125e+00,-1.295622060e+00,1.203125000e-02,-4.261311849e-02
6.697500000e+03,-4.947084995e+00,2.909459292e+00,-5.506022135e-02,1.301595052e-02
6.698000000e+03,-5.525751280e+00,-9.776255241e-01,2.958821615e-02,-4.388916016e-02
6.698500000e+03,-5.206563304e+00,1.245090371e+00,1.757080078e-02,5.202555339e-02
6.699000000e+03,-5.744161533e+00,-1.623732394e+00,-2.731119792e-03,-5.154459635e-02
6.699500000e+03,-5.397009608e+00,2.064344743e+00,-2.545084635e-02,4.731038411e-02
6.700000000e+03,-5.705915298e+00,-1.886714379e+00,-1.610758464e-02,-4.927897135e-02
6.700500000e+03,-5.848627606e+00,-2.532814486e+00,-4.183756510e-02,-2.916503906e-02
6.701000000e+03,-4.879764787e+00,1.840171625e+00,-1.517415365e-02,5.496175130e-02
6.701500000e+03,-4.260452003e+00,2.907528708e+00,-5.956217448e-02,1.420166016e-02
6.702000000e+03,-5.308896222e+00,-7.224779916e-01,4.071126302e-02,-3.588541667e-02
6.702500000e+03,-5.286203580e+00,6.802394608e-01,4.230061849e-02,3.422363281e-02
6.703000000e+03,-5.291413424e+00,-4.418609911e-01,4.915608724e-02,-2.325358073e-02
6.703500000e+03,-4.485669764e+00,1.711916021e+00,-8.391927083e-03,5.907145182e-02
6.704000000e+03,-5.941334987e+00,1.503523313e+00,3.391927083e-03,5.034423828e-02
6.704500000e+03,-5.303820847e+00,2.093847974e+00,-2.712483724e-02,4.704101562e-02
6.705000000e+03,-4.233615750e+00,2.082665408e+00,-3.008463542e-02,5.354899089e-02
6.705500000e+03,-4.881245028e+00,-3.452419991e-02,5.697428385e-02,-1.967773438e-03
6.706000000e+03,-4.682587806e+00,3.104470807e+00,-5.828694661e-02,2.164713542e-03
6.706500000e+03,-5.042519763e+00,2.328364462e+00,-3.845296224e-02,4.065511068e-02
6.707000000e+03,-5.044010143e+00,-2.264106203e+00,-3.575683594e-02,-4.303304036e-02
6.707500000e+03,-4.792081288e+00,1.026553059e+00,2.982177734e-02,4.927490234e-02
6.708000000e+03,-5.302732654e+00,1.387525068e+00,9.897460937e-03,5.339843750e-02
6.708500000e+03,-3.459636425e+00,3.625567417e-01,6.278076172e-02,2.381429036e-02
6.709000000e+03,-6.083986719e+00,1.130151796e+00,2.117106120e-02,4.489501953e-02
6.709500000e+03,-5.122821330e+00,-2.283031732e+00,-3.623453776e-02,-4.196614583e-02
6.710000000e+03,-4.833705657e+00,2.497997843e+00,-4.585367839e-02,3.439697266e-02
6.710500000e+03,-4.554281431e+00,-2.179844159e+00,-3.386474609e-02,-4.855143229e-02
6.711000000e+03,-5.091060273e+00,-2.835672680e+00,-5.306396484e-02,-1.675944010e-02
6.711500000e+03,-4.320237152e+00,1.063452160e+00,2.954589844e-02,5.315185547e-02
6.712000000e+03,-4.400846908e+00,2.289220993e+00,-3.965657552e-02,4.535888672e-02
6.712500000e+03,-4.202796578e+00,2.091753603e+00,-3.067871094e-02,5.346272786e-02
6.713000000e+03,-6.256690475e+00,-1.257936284e+00,1.497639974e-02,-4.629720052e-02
6.713500000e+03,-5.386811413e+00,8.599216688e-01,3.509440104e-02,4.075764974e-02
6.714000000e+03,-5.060954841e+00,2.100723363e+00,-2.822591146e-02,4.818196615e-02
6.714500000e+03,-5.006849650e+00,-2.179820848e+00,-3.214436849e-02,-4.608723958e-02
6.715000000e+03,-5.367663802e+00,1.193631747e+00,1.985188802e-02,5.011474609e-02
6.715500000e+03,-3.570138067e+00,-2.524216158e-01,6.419596354e-02,-1.655761719e-02
6.716000000e+03,-4.469123016e+00,-1.296371277e+00,1.619954427e-02,-5.754150391e-02
6.716500000e+03,-4.481580931e+00,-1.250201173e+00,1.881103516e-02,-5.665120443e-02
6.717000000e+03,-5.474278388e+00,-2.076061474e+00,-2.577311198e-02,-4.659261068e-02
6.717500000e+03,-7.111298963e+00,-9.804854405e-01,2.454671224e-02,-3.663655599e-02
6.718000000e+03,-5.252561382e+00,-2.940111840e-01,5.227864583e-02,-1.582926432e-02
6.718500000e+03,-5.302285104e+00,2.680685810e+00,-4.864339193e-02,2.415527344e-02
6.719000000e+03,-6.646746951e+00,-2.285675649e-01,4.531250000e-02,-1.054117839e-02
6.719500000e+03,-6.943602621e+00,6.564471971e-01,3.561523437e-02,2.743896484e-02
6.720000000e+03,-6.413162435e+00,1.251942848e+00,1.498128255e-02,4.538167318e-02
6.720500000e+03,-7.902430826e+00,-6.427919797e-03,4.025960286e-02,-2.587890625e-04
6.721000000e+03,-6.725245347e+00,-1.275540509e+00,1.341552734e-02,-4.410888672e-02
6.721500000e+03,-6.725562732e+00,-6.765907550e-01,3.594645182e-02,-2.886637370e-02
6.722000000e+03,-4.589775463e+00,-8.791528285e-01,3.760091146e-02,-4.540608724e-02
6.722500000e+03,-6.956311743e+00,-2.280830390e+00,-2.926432292e-02,-3.404459635e-02
6.723000000e+03,-8.375863077e+00,-2.828347362e+00,-3.626953125e-02,-1.174804688e-02
6.723500000e+03,-7.919511275e+00,5.942658628e-01,3.329264323e-02,2.249755859e-02
6.724000000e+03,-6.943540906e+00,1.401041538e-02,4.495524089e-02,6.298828125e-04
6.724500000e+03,-7.823119464e+00,-2.880285798e+00,-3.925048828e-02,-1.049641927e-02
6.725000000e+03,-6.581496086e+00,-2.949822051e+00,-4.601399740e-02,-8.933919271e-03
6.725500000e+03,-5.018569193e+00,1.946161603e+00,-2.057210286e-02,5.220703125e-02
6.726000000e+03,-6.330871114e+00,1.780359296e+00,-1.003662109e-02,4.718994141e-02
6.726500000e+03,-5.801028292e+00,1.769424364e+00,-1.011881510e-02,5.027180990e-02
6.727000000e+03,-6.883148873e+00,-1.626044562e+00,-2.500000000e-03,-4.520426432e-02
6.727500000e+03,-5.849196189e+00,-1.941713230e+00,-1.848470052e-02,-4.752848307e-02
6.728000000e+03,-4.999315743e+00,-2.256778337e+00,-3.562337240e-02,-4.351725260e-02
6.728500000e+03,-6.096779193e+00,7.274536580e-01,3.701741536e-02,3.295817057e-02
6.729000000e+03,-5.751923985e+00,5.530609526e-01,4.388264974e-02,2.708984375e-02
6.729500000e+03,-3.800329839e+00,-1.155742121e+00,2.603434245e-02,-5.908121745e-02
6.730000000e+03,-4.418854644e+00,2.329142848e-01,5.850179036e-02,1.387776693e-02
6.730500000e+03,-5.370329024e+00,-7.808810385e-01,3.827555339e-02,-3.793131510e-02
6.731000000e+03,-5.962281747e+00,2.411060771e+00,-3.749186198e-02,3.358805339e-02
6.731500000e+03,-5.466384018e+00,-1.520735750e+00,2.666829427e-03,-5.322753906e-02
6.732000000e+03,-5.790977176e+00,6.416686858e-01,4.112792969e-02,3.072835286e-02
6.732500000e+03,-6.324422951e+00,9.891468957e-01,2.652587891e-02,4.034179688e-02
6.733000000e+03,-5.854913426e+00,-5.639515285e-01,4.307128906e-02,-2.724121094e-02
6.733500000e+03,-6.522943922e+00,-3.027736028e+00,-4.688476562e-02,-5.361328125e-03
6.734000000e+03,-5.787077466e+00,2.236557327e+00,-3.172444661e-02,4.039388021e-02
6.734500000e+03,-6.335414724e+00,-8.353255703e-01,3.235270182e-02,-3.575602214e-02
6.735000000e+03,-6.914238026e+00,2.922334745e+00,-4.403157552e-02,9.812011719e-03
6.735500000e+03,-6.747634073e+00,-8.808096044e-01,2.927083333e-02,-3.546630859e-02
6.736000000e+03,-6.397318344e+00,2.593582303e+00,-4.086669922e-02,2.494384766e-02
6.736500000e+03,-8.591341721e+00,-2.627340119e+00,-3.238037109e-02,-1.829345703e-02
6.737000000e+03,-7.653491353e+00,-2.653812163e+00,-3.659912109e-02,-1.941731771e-02
6.737500000e+03,-8.271186339e+00,-6.764075634e-01,3.009114583e-02,-2.415527344e-02
6.738000000e+03,-6.721750283e+00,1.638723613e-01,4.550455729e-02,7.524414062e-03
6.738500000e+03,-7.116992969e+00,7.123036024e-01,3.335530599e-02,2.880371094e-02
6.739000000e+03,-6.560582662e+00,2.009794494e+00,-1.997070312e-02,4.253092448e-02
6.739500000e+03,-6.135242812e+00,-4.698800110e-01,4.399658203e-02,-2.234212240e-02
6.740000000e+03,-4.630843423e+00,-7.890562651e-01,4.133789062e-02,-4.164143880e-02
6.740500000e+03,-6.548011040e+00,-2.224384022e+00,-2.861083984e-02,-3.735677083e-02
6.741000000e+03,-6.183841995e+00,2.741023604e+00,-4.518473307e-02,1.913411458e-02
6.741500000e+03,-6.910496733e+00,2.712869916e+00,-4.104654948e-02,1.876139323e-02
6.742000000e+03,-5.730121869e+00,-3.074612996e+00,-5.158447266e-02,-3.460286458e-03
6.742500000e+03,-5.904866981e+00,2.259684251e+00,-3.221028646e-02,3.911539714e-02
6.743000000e+03,-6.548187147e+00,3.698274147e-01,4.387207031e-02,1.700764974e-02
6.743500000e+03,-6.475933602e+00,-1.745763622e+00,-8.259277344e-03,-4.672200521e-02
6.744000000e+03,-4.923447450e+00,2.038421333e+00,-2.557291667e-02,5.064127604e-02
6.744500000e+03,-6.038041515e+00,1.482336464e+00,4.408365885e-03,4.970458984e-02
6.745000000e+03,-8.111418208e+00,-7.428821444e-01,2.894775391e-02,-2.658528646e-02
6.745500000e+03,-8.339056843e+00,3.121377282e+00,-3.827880859e-02,7.739257812e-04
6.746000000e+03,-6.302384417e+00,2.122694727e+00,-2.537841797e-02,4.121744792e-02
6.746500000e+03,-5.818861988e+00,1.941858881e+00,-1.855631510e-02,4.769205729e-02
6.747000000e+03,-8.432010800e+00,-2.297263948e-01,3.688395182e-02,-8.625488281e-03
6.747500000e+03,-8.893724663e+00,2.997058537e+00,-3.554361979e-02,5.173339844e-03
6.748000000e+03,-9.784404271e+00,-3.030253459e+00,-3.221679688e-02,-3.601888021e-03
6.748500000e+03,-8.771656745e+00,-1.454830805e-01,3.604166667e-02,-5.280761719e-03
6.749000000e+03,-7.741567222e+00,1.361500459e+00,8.521321615e-03,4.011800130e-02
6.749500000e+03,-1.004565516e+01,-2.156854468e+00,-1.739827474e-02,-2.620768229e-02
