6.500000000e+03,-4.793394640e+00,-9.900407116e-01,3.159586589e-02,-4.814615885e-02
6.500500000e+03,-3.225579024e+00,-1.039224792e+00,3.496500651e-02,-5.946126302e-02
6.501000000e+03,-3.786133908e+00,1.998063286e+00,-2.679768880e-02,5.885498047e-02
6.501500000e+03,-3.726078530e+00,2.654446531e+00,-5.754231771e-02,3.048177083e-02
6.502000000e+03,-4.166624526e+00,-2.771128203e+00,-5.769775391e-02,-2.240966797e-02
6.502500000e+03,-4.139264522e+00,2.855704671e+00,-5.957194010e-02,1.751057943e-02
6.503000000e+03,-4.948681868e+00,2.211028834e+00,-3.379231771e-02,4.536458333e-02
6.503500000e+03,-4.092524171e+00,-3.017746989e+00,-6.194905599e-02,-7.711588542e-03
6.504000000e+03,-5.550507131e+00,2.127341243e+00,-2.788167318e-02,4.481526693e-02
6.504500000e+03,-4.766975346e+00,3.938179230e-01,5.334147135e-02,2.216471354e-02
6.505000000e+03,-5.345966771e+00,-1.289803331e+00,1.498535156e-02,-5.191894531e-02
6.505500000e+03,-7.528357758e+00,9.668337466e-01,2.387044271e-02,3.459635417e-02
6.506000000e+03,-9.739501043e+00,-2.629822193e+00,-2.841064453e-02,-1.595784505e-02
6.506500000e+03,-9.450265045e+00,-1.591122857e-01,3.326334635e-02,-5.337727865e-03
6.507000000e+03,-9.006143475e+00,-1.927705347e+00,-1.238769531e-02,-3.322184245e-02
6.507500000e+03,-8.040390785e+00,-3.096519077e+00,-3.958577474e-02,-1.785481771e-03
6.508000000e+03,-7.826833980e+00,-8.601012490e-02,4.046223958e-02,-3.488769531e-03
6.508500000e+03,-8.060209667e+00,1.548131428e+00,8.959960937e-04,3.952555339e-02
6.509000000e+03,-6.442662389e+00,1.327765379e+00,1.146158854e-02,4.622884115e-02
6.509500000e+03,-7.871193953e+00,-2.300195131e+00,-2.692708333e-02,-3.012532552e-02
6.510000000e+03,-4.149825233e+00,-9.235448550e-01,3.739583333e-02,-4.947347005e-02
6.510500000e+03,-4.229130072e+00,-6.350177576e-01,4.947347005e-02,-3.645345052e-02
6.511000000e+03,-4.117125582e+00,-2.682557887e+00,-5.580647786e-02,-2.758219401e-02
6.511500000e+03,-2.636698006e+00,2.325686337e+00,-5.058105469e-02,5.376546224e-02
6.512000000e+03,-3.568341342e+00,1.000906340e+00,3.577718099e-02,5.583089193e-02
6.512500000e+03,-3.316931964e+00,-2.147364029e-01,6.669026693e-02,-1.454508464e-02
6.513000000e+03,-1.944722979e+00,1.151748186e+00,3.252685547e-02,7.302327474e-02
6.513500000e+03,-2.389154257e+00,9.375192803e-01,4.494791667e-02,6.122477214e-02
6.514000000e+03,-1.870285097e+00,2.710012485e+00,-7.323486328e-02,3.372721354e-02
6.514500000e+03,-2.807906052e+00,-1.266472698e+00,2.168782552e-02,-6.905192057e-02
6.515000000e+03,-2.996756145e+00,2.866680260e+00,-6.816162109e-02,1.922526042e-02
6.515500000e+03,-3.540177567e+00,1.920224713e+00,-2.277587891e-02,6.250569661e-02
6.516000000e+03,-3.383377015e+00,6.427994911e-01,5.421875000e-02,4.060465495e-02
6.516500000e+03,-5.331953974e+00,2.138518421e+00,-2.910400391e-02,4.563476562e-02
6.517000000e+03,-4.114061499e+00,2.802598882e-01,5.984293620e-02,1.722493490e-02
6.517500000e+03,-4.804908453e+00,2.940639417e+00,-5.635416667e-02,1.147949219e-02
6.518000000e+03,-5.308125052e+00,1.245660262e+00,1.733723958e-02,5.143066406e-02
6.518500000e+03,-5.297908477e+00,3.025728955e+00,-5.397379557e-02,6.281738281e-03
6.519000000e+03,-5.919096451e+00,-1.284729452e+00,1.427490234e-02,-4.853190104e-02
6.519500000e+03,-8.363420848e+00,-2.011859626e+00,-1.629882813e-02,-3.452555339e-02
6.520000000e+03,-7.492090711e+00,-1.694177989e+00,-5.194498698e-03,-4.188720703e-02
6.520500000e+03,-7.555007789e+00,-1.870478948e+00,-1.237060547e-02,-4.003580729e-02
6.521000000e+03,-6.505857602e+00,-2.401714478e+00,-3.492106120e-02,-3.187825521e-02
6.521500000e+03,-6.095138007e+00,1.942279219e+00,-1.799479167e-02,4.619140625e-02
6.522000000e+03,-6.552023564e+00,2.814583799e+00,-4.454020182e-02,1.510742187e-02
6.522500000e+03,-7.271271435e+00,2.566086597e+00,-3.632080078e-02,2.356363932e-02
6.523000000e+03,-5.095354052e+00,2.343385821e+00,-3.882242839e-02,3.982991536e-02
6.523500000e+03,-5.701625349e+00,-3.041154363e+00,-5.160888672e-02,-5.201009115e-03
6.524000000e+03,-5.005225108e+00,1.868609644e+00,-1.649088542e-02,5.372639974e-02
6.524500000e+03,-5.098132297e+00,1.237220084e+00,1.820556641e-02,5.253743490e-02
6.525000000e+03,-5.136342852e+00,2.011523844e+00,-2.361572266e-02,5.006835938e-02
6.525500000e+03,-3.290852741e+00,2.254273557e+00,-4.323404948e-02,5.308512370e-02
6.526000000e+03,-3.240754643e+00,-1.980306358e+00,-2.741699219e-02,-6.316569010e-02
6.526500000e+03,-3.144726474e+00,1.708841906e+00,-9.580891927e-03,6.896240234e-02
6.527000000e+03,-1.798556474e+00,-6.635190198e-01,6.404785156e-02,-5.006998698e-02
6.527500000e+03,-2.507071408e+00,-2.784846993e+00,-7.021077474e-02,-2.616699219e-02
6.528000000e+03,-4.904245947e+00,-9.011452239e-01,3.529215495e-02,-4.457845052e-02
6.528500000e+03,-4.179563435e+00,1.617741852e+00,-2.900390625e-03,6.173665365e-02
6.529000000e+03,-4.388974144e+00,1.406481435e+00,9.868977865e-03,5.951985677e-02
6.529500000e+03,-4.265603056e+00,-8.192003451e-01,4.178466797e-02,-4.470947266e-02
6.530000000e+03,-5.272537722e+00,-2.786875073e+00,-5.110432943e-02,-1.892822266e-02
6.530500000e+03,-4.561998632e+00,2.590364958e+00,-5.038248698e-02,3.097493490e-02
6.531000000e+03,-5.495340180e+00,2.002582525e-02,5.310628255e-02,1.063639323e-03
6.531500000e+03,-4.829726693e+00,-2.464365108e+00,-4.469156901e-02,-3.593587240e-02
6.532000000e+03,-5.122357394e+00,4.353343965e-01,5.027587891e-02,2.338297526e-02
6.532500000e+03,-8.647545615e+00,-1.526756128e+00,1.626790365e-03,-3.691487630e-02
6.533000000e+03,-7.348244289e+00,8.614233855e-01,2.795166016e-02,3.256103516e-02
6.533500000e+03,-1.086098024e+01,1.808924319e+00,-6.755371094e-03,2.783040365e-02
6.534000000e+03,-8.784106868e+00,-8.437916808e-01,2.417561849e-02,-2.717773437e-02
6.534500000e+03,-9.726478411e+00,-2.059873527e+00,-1.533203125e-02,-2.880859375e-02
6.535000000e+03,-9.980748568e+00,7.173299392e-01,2.388264974e-02,2.083414714e-02
6.535500000e+03,-9.949753054e+00,-3.568001941e-01,2.980305990e-02,-1.110921224e-02
6.536000000e+03,-7.080808254e+00,2.703193121e-03,4.425455729e-02,1.196289062e-04
6.536500000e+03,-7.740945193e+00,-8.249367991e-02,4.087646484e-02,-3.379720052e-03
6.537000000e+03,-9.966043653e+00,1.629969117e+00,-1.877441406e-03,3.169108073e-02
6.537500000e+03,-6.623779068e+00,3.001422713e+00,-4.618815104e-02,6.516927083e-03
6.538000000e+03,-8.263976507e+00,-2.468737446e+00,-3.020182292e-02,-2.406819661e-02
6.538500000e+03,-7.749581462e+00,-8.300861821e-01,2.765055339e-02,-3.023925781e-02
6.539000000e+03,-6.237847164e+00,7.805363858e-01,3.464925130e-02,3.431396484e-02
6.539500000e+03,-5.927770696e+00,-1.281580626e+00,1.441324870e-02,-4.843831380e-02
6.540000000e+03,-6.245905418e+00,-1.857328519e+00,-1.376953125e-02,-4.673339844e-02
6.540500000e+03,-6.246286567e+00,-2.265271532e+00,-3.117838542e-02,-3.743408203e-02
6.541000000e+03,-6.047082078e+00,-9.802807107e-01,2.775472005e-02,-4.140625000e-02
6.541500000e+03,-5.324969262e+00,-1.116380279e+00,2.377685547e-02,-4.867187500e-02
6.542000000e+03,-5.517963676e+00,-2.785662604e+00,-4.965820313e-02,-1.846110026e-02
6.542500000e+03,-5.874010136e+00,2.746089987e+00,-4.692545573e-02,1.959147135e-02
6.543000000e+03,-6.744317858e+00,2.333839194e+00,-3.179361979e-02,3.324788411e-02
6.543500000e+03,-8.318902339e+00,-2.444103894e+00,-2.941324870e-02,-2.464843750e-02
6.544000000e+03,-5.342954921e+00,1.063496906e-01,5.375162760e-02,5.738118490e-03
6.544500000e+03,-7.187583718e+00,-2.806436877e+00,-4.128173828e-02,-1.437825521e-02
6.545000000e+03,-6.395434282e+00,-2.713550305e+00,-4.356770833e-02,-1.987792969e-02
6.545500000e+03,-8.413208697e+00,-1.551501153e+00,7.324218750e-04,-3.795410156e-02
6.546000000e+03,-7.870223263e+00,-1.378969606e+00,7.704264323e-03,-3.966878255e-02
6.546500000e+03,-8.289792630e+00,3.015908552e+00,-3.820068359e-02,4.826660156e-03
6.547000000e+03,-1.027066367e+01,-2.928383587e+00,-2.995849609e-02,-6.486002604e-03
6.547500000e+03,-1.138394540e+01,2.923326763e-01,2.582112630e-02,7.770996094e-03
6.548000000e+03,-1.056652212e+01,2.580151494e+00,-2.507812500e-02,1.577311198e-02
6.548500000e+03,-1.122395215e+01,1.729052526e+00,-4.328613281e-03,2.712320964e-02
6.549000000e+03,-1.199918494e+01,1.081850868e+00,1.179931641e-02,2.217773437e-02
6.549500000e+03,-1.432598044e+01,7.715338705e-01,1.377604167e-02,1.339925130e-02
6.550000000e+03,-1.102456147e+01,-1.871292194e+00,-8.318684896e-03,-2.684488932e-02
6.550500000e+03,-1.031421352e+01,1.798275158e+00,-6.878255208e-03,2.971354167e-02
6.551000000e+03,-1.184299758e+01,-1.020854760e+00,1.336751302e-02,-2.180582682e-02
6.551500000e+03,-1.419387011e+01,2.757206094e+00,-1.808837891e-02,7.316894531e-03
6.552000000e+03,-1.182314039e+01,1.543206391e+00,7.071940104e-04,2.562581380e-02
6.552500000e+03,-1.094754144e+01,2.617928996e+00,-2.455485026e-02,1.417887370e-02
6.553000000e+03,-1.107598241e+01,-7.433680113e-01,2.056803385e-02,-1.890787760e-02
6.553500000e+03,-8.871007829e+00,2.967776583e+00,-3.546956380e-02,6.228027344e-03
6.554000000e+03,-8.749138771e+00,2.032859451e+00,-1.628092448e-02,3.269124349e-02
6.554500000e+03,-1.158448742e+01,2.985329562e+00,-2.602864583e-02,4.100748698e-03
6.555000000e+03,-1.076100261e+01,-1.747679994e+00,-5.097656250e-03,-2.851806641e-02
6.555500000e+03,-1.112201510e+01,3.064971239e+00,-2.770914714e-02,2.127278646e-03
6.556000000e+03,-1.332302510e+01,-1.255190180e+00,6.695149740e-03,-2.050455729e-02
6.556500000e+03,-1.300181797e+01,3.022856844e+00,-2.222493490e-02,2.651367187e-03
6.557000000e+03,-1.325289203e+01,1.569972974e+00,1.790364583e-05,2.174479167e-02
6.557500000e+03,-1.127045461e+01,-5.112503552e-01,2.382649740e-02,-1.336669922e-02
6.558000000e+03,-1.342904010e+01,8.870606972e-01,1.346028646e-02,1.651855469e-02
6.558500000e+03,-1.626006622e+01,2.363040880e+00,-1.095052083e-02,1.080159505e-02
6.559000000e+03,-1.356070722e+01,-3.088989212e+00,-2.095865885e-02,-1.103515625e-03
6.559500000e+03,-1.997208014e+01,-1.292128963e+00,2.759602865e-03,-9.645182292e-03
6.560000000e+03,-1.430093330e+01,-2.062961753e+00,-9.107259115e-03,-1.698567708e-02
6.560500000e+03,-1.883143630e+01,-8.701559960e-01,7.375488281e-03,-8.745117188e-03
6.561000000e+03,-2.870892323e+01,1.221968474e+00,1.254069010e-03,3.448079427e-03
6.561500000e+03,-1.949461738e+01,2.777412113e+00,-9.903971354e-03,3.775227865e-03
6.562000000e+03,-2.598454895e+01,2.181323112e+00,-2.878417969e-03,4.113769531e-03
6.562500000e+03,-4.011470206e+01,1.817374989e+00,-2.408854167e-04,9.570312500e-04
6.563000000e+03,-3.306061243e+01,-7.716791174e-01,1.593424479e-03,-1.550292969e-03
6.563500000e+03,-2.580932843e+01,2.720368381e+00,-4.675292969e-03,2.094726563e-03
6.564000000e+03,-1.815537532e+01,2.545412961e+00,-1.023274740e-02,6.943359375e-03
6.564500000e+03,-2.580717615e+01,-1.336641169e+00,1.188964844e-03,-4.984537760e-03
6.565000000e+03,-2.582401374e+01,-3.589941506e-01,4.788411458e-03,-1.796875000e-03
6.565500000e+03,-2.347434848e+01,-1.830350788e+00,-1.720377604e-03,-6.478678385e-03
6.566000000e+03,-1.704288927e+01,9.147194496e-01,8.574218750e-03,1.113769531e-02
6.566500000e+03,-1.642283498e+01,8.892694918e-01,9.510091146e-03,1.172363281e-02
6.567000000e+03,-2.026436827e+01,-2.748389090e+00,-8.959960937e-03,-3.716634115e-03
6.567500000e+03,-1.841493348e+01,-2.488720676e+00,-9.533691406e-03,-7.290852865e-03
6.568000000e+03,-1.634541329e+01,-5.324473797e-01,1.312255859e-02,-7.731933594e-03
6.568500000e+03,-1.670534886e+01,-1.398075921e+00,2.511393229e-03,-1.439534505e-02
6.569000000e+03,-1.970073244e+01,1.453931025e+00,1.206868490e-03,1.027994792e-02
6.569500000e+03,-2.139511632e+01,2.001488838e+00,-3.555501302e-03,7.738444010e-03
6.570000000e+03,-2.307364364e+01,1.895883013e+00,-2.242024740e-03,6.652018229e-03
6.570500000e+03,-2.479204143e+01,-1.792024615e+00,-1.263834635e-03,-5.619303385e-03
6.571000000e+03,-2.267496413e+01,1.531587708e+00,2.880859375e-04,7.343750000e-03
6.571500000e+03,-2.558492457e+01,-8.577038498e-01,3.439127604e-03,-3.976236979e-03
6.572000000e+03,-1.960545804e+01,1.029108972e-01,1.040934245e-02,1.075032552e-03
6.572500000e+03,-1.907741526e+01,2.633683857e+00,-9.716796875e-03,5.408528646e-03
6.573000000e+03,-2.396213461e+01,2.138638504e+00,-3.408203125e-03,5.342610677e-03
6.573500000e+03,-2.613565637e+01,-2.002419747e-01,4.835611979e-03,-9.814453125e-04
6.574000000e+03,-2.116387453e+01,9.262716769e-01,5.254720052e-03,6.991373698e-03
6.574500000e+03,-2.751069295e+01,1.802606140e+00,-9.676106771e-04,4.099121094e-03
6.575000000e+03,-2.214581048e+01,-3.125651522e+00,-7.810058594e-03,-1.245117188e-04
6.575500000e+03,-1.807220505e+01,-3.123145043e+00,-1.248291016e-02,-2.303059896e-04
6.576000000e+03,-2.261263764e+01,4.442985929e-02,7.395019531e-03,3.287760417e-04
6.576500000e+03,-2.692315329e+01,3.817471129e-01,4.182128906e-03,1.678873698e-03
6.577000000e+03,-1.972335773e+01,2.981277862e+00,-1.019124349e-02,1.647949219e-03
6.577500000e+03,-2.162668827e+01,2.048006444e+00,-3.808593750e-03,7.365722656e-03
6.578000000e+03,-1.974071732e+01,-2.994702399e+00,-1.019205729e-02,-1.507975260e-03
6.578500000e+03,-3.878767709e+01,1.989164386e+00,-4.671223958e-04,1.050618490e-03
6.579000000e+03,-3.312837410e+01,-2.732583272e+00,-2.023925781e-03,-8.772786458e-04
6.579500000e+03,-1.699192286e+01,1.090905263e+00,6.527506510e-03,1.254150391e-02
6.580000000e+03,-1.940045001e+01,2.207036326e+00,-6.366373698e-03,8.618164063e-03
6.580500000e+03,-2.288377112e+01,9.135930945e-01,4.383138021e-03,5.680338542e-03
6.581000000e+03,-1.975557420e+01,1.650080532e+00,-8.146158854e-04,1.025309245e-02
6.581500000e+03,-4.043516475e+01,2.103164719e-01,9.301757813e-04,1.985677083e-04
6.582000000e+03,-2.022598338e+01,2.369779006e+00,-6.982421875e-03,6.795247396e-03
6.582500000e+03,-1.621717451e+01,5.458639943e-01,1.321126302e-02,8.024902344e-03
6.583000000e+03,-2.437422488e+01,2.513281477e+00,-4.889322917e-03,3.552246094e-03
6.583500000e+03,-3.453560715e+01,1.173936268e+00,7.250976563e-04,1.730143229e-03
6.584000000e+03,-3.285691124e+01,9.223606947e-01,1.374511719e-03,1.813964844e-03
6.584500000e+03,-1.831128156e+01,-1.977271699e+00,-4.802246094e-03,-1.115641276e-02
6.585000000e+03,-2.176222275e+01,3.587356685e-01,7.644042969e-03,2.866210938e-03
6.585500000e+03,-1.898397362e+01,1.083803002e+00,5.260416667e-03,9.934082031e-03
6.586000000e+03,-1.629369829e+01,-2.252388920e+00,-9.653320312e-03,-1.189860026e-02
6.586500000e+03,-1.855226208e+01,-1.828589874e+00,-3.011881510e-03,-1.142333984e-02
6.587000000e+03,-1.658771156e+01,8.856041489e-01,9.373372396e-03,1.146891276e-02
6.587500000e+03,-1.662159624e+01,2.042288073e+00,-6.701660156e-03,1.314453125e-02
6.588000000e+03,-1.246234401e+01,1.572504792e+00,-4.069010417e-05,2.381673177e-02
6.588500000e+03,-1.423961496e+01,-2.024374708e+00,-8.505045573e-03,-1.744710286e-02
6.589000000e+03,-1.258414720e+01,-1.984692937e-01,2.302408854e-02,-4.630533854e-03
6.589500000e+03,-1.300180924e+01,-1.761895576e+00,-4.251302083e-03,-2.197509766e-02
6.590000000e+03,-1.154992900e+01,-5.356186424e-01,2.274983724e-02,-1.350179036e-02
6.590500000e+03,-1.121333955e+01,5.498035349e-01,2.344726563e-02,1.436930339e-02
6.591000000e+03,-9.993777501e+00,9.051722935e-01,1.954264323e-02,2.489013672e-02
6.591500000e+03,-1.432394744e+01,3.702073514e-01,1.791992187e-02,6.954752604e-03
6.592000000e+03,-1.148467482e+01,-9.556080939e-01,1.538248698e-02,-2.176757813e-02
6.592500000e+03,-1.236923364e+01,-1.073187073e+00,1.149088542e-02,-2.115397135e-02
6.593000000e+03,-9.720875496e+00,7.731684052e-01,2.337158203e-02,2.280680339e-02
6.593500000e+03,-9.645514489e+00,1.576824517e+00,-1.985677083e-04,3.293945312e-02
6.594000000e+03,-1.033696428e+01,8.570223564e-01,1.991536458e-02,2.299397786e-02
6.594500000e+03,-1.143119701e+01,-1.030985697e+00,1.378417969e-02,-2.300537109e-02
6.595000000e+03,-1.225612850e+01,4.312751545e-01,2.215576172e-02,1.019531250e-02
6.595500000e+03,-1.157225882e+01,-4.150646884e-01,2.414632161e-02,-1.064046224e-02
6.596000000e+03,-1.007889048e+01,6.164064280e-01,2.556966146e-02,1.811604818e-02
6.596500000e+03,-1.272146130e+01,-1.862607174e+00,-6.650390625e-03,-2.213948568e-02
6.597000000e+03,-1.301347969e+01,-2.260456800e-01,2.178385417e-02,-5.009765625e-03
6.597500000e+03,-1.137550747e+01,-2.918224301e+00,-2.632080078e-02,-5.979003906e-03
6.598000000e+03,-1.518637184e+01,1.350768245e+00,3.798828125e-03,1.698567708e-02
6.598500000e+03,-1.056796963e+01,-1.689569489e+00,-3.509928385e-03,-2.941243490e-02
6.599000000e+03,-1.135415206e+01,8.929411688e-01,1.696858724e-02,2.107584635e-02
6.599500000e+03,-1.267498509e+01,2.399860488e+00,-1.713541667e-02,1.570068359e-02
6.600000000e+03,-1.052684119e+01,-1.354239078e+00,6.394856771e-03,-2.906656901e-02
6.600500000e+03,-1.076565288e+01,1.663990650e+00,-2.694498698e-03,2.882893880e-02
6.601000000e+03,-1.112738238e+01,-1.665552182e+00,-2.627766927e-03,-2.764892578e-02
6.601500000e+03,-1.075874668e+01,3.127185157e+00,-2.897460938e-02,4.174804687e-04
6.602000000e+03,-1.194546372e+01,2.429861929e+00,-1.914062500e-02,1.650960286e-02
6.602500000e+03,-1.319934912e+01,2.325891171e+00,-1.499511719e-02,1.593261719e-02
6.603000000e+03,-1.645941334e+01,-2.899909629e+00,-1.459554036e-02,-3.597819010e-03
6.603500000e+03,-1.398539485e+01,-2.741448631e+00,-1.840738932e-02,-7.785644531e-03
6.604000000e+03,-1.265148382e+01,-2.335203699e+00,-1.612874349e-02,-1.682047526e-02
6.604500000e+03,-1.368018902e+01,7.277131649e-01,1.545735677e-02,1.376953125e-02
6.605000000e+03,-9.725640110e+00,1.194975751e+00,1.197916667e-02,3.035970052e-02
6.605500000e+03,-9.244828422e+00,2.589003511e-01,3.334554036e-02,8.831380208e-03
6.606000000e+03,-1.517042985e+01,4.622700844e-01,1.560709635e-02,7.776692708e-03
6.606500000e+03,-1.356965149e+01,-1.417497765e+00,3.201497396e-03,-2.072021484e-02
6.607000000e+03,-1.309780973e+01,-2.361497550e+00,-1.573567708e-02,-1.556966146e-02
6.607500000e+03,-1.163634022e+01,-2.623506310e+00,-2.275553385e-02,-1.297119141e-02
6.608000000e+03,-1.132637502e+01,-1.650959828e+00,-2.173665365e-03,-2.705729167e-02
6.608500000e+03,-1.278555231e+01,3.852809780e-01,2.126464844e-02,8.623860677e-03
6.609000000e+03,-1.152940674e+01,-2.505463218e+00,-2.133056641e-02,-1.575358073e-02
6.609500000e+03,-1.491289289e+01,-1.139553038e+00,7.508138021e-03,-1.631754557e-02
6.610000000e+03,-1.449424541e+01,2.481416636e+00,-1.488850911e-02,1.155924479e-02
6.610500000e+03,-1.383516437e+01,-1.863288552e-01,1.998291016e-02,-3.767089844e-03
6.611000000e+03,-1.161567087e+01,-2.355098624e+00,-1.854492187e-02,-1.858561198e-02
6.611500000e+03,-1.105258149e+01,-1.786030755e+00,-5.983072917e-03,-2.736735026e-02
6.612000000e+03,-1.240692524e+01,-2.260305012e+00,-1.524820964e-02,-1.849365234e-02
6.612500000e+03,-1.597466109e+01,2.558531577e+00,-1.326904297e-02,8.751627604e-03
6.613000000e+03,-1.114659373e+01,-1.776755915e+00,-5.667317708e-03,-2.712646484e-02
6.613500000e+03,-1.197053007e+01,1.654565510e-01,2.486002604e-02,4.151204427e-03
6.614000000e+03,-1.087762105e+01,-1.428762375e+00,4.046223958e-03,-2.829589844e-02
6.614500000e+03,-1.108146082e+01,-2.967938580e+00,-2.750081380e-02,-4.824218750e-03
6.615000000e+03,-1.069586587e+01,2.109489671e+00,-1.497395833e-02,2.505452474e-02
6.615500000e+03,-1.516950809e+01,1.664591079e+00,-1.633300781e-03,1.736246745e-02
6.616000000e+03,-1.309974501e+01,1.868381488e+00,-6.489257812e-03,2.115885417e-02
6.616500000e+03,-1.298894865e+01,-6.027847134e-01,1.846516927e-02,-1.270833333e-02
6.617000000e+03,-1.033478562e+01,-3.035345166e+00,-3.025553385e-02,-3.226725260e-03
6.617500000e+03,-1.240198689e+01,-1.936910403e+00,-8.585611979e-03,-2.239339193e-02
6.618000000e+03,-1.342656915e+01,4.373117792e-02,2.129394531e-02,9.318033854e-04
6.618500000e+03,-1.170612289e+01,-2.342829089e-01,2.527343750e-02,-6.031901042e-03
6.619000000e+03,-1.067140944e+01,-1.273621976e+00,8.570963542e-03,-2.798746745e-02
6.619500000e+03,-1.072240808e+01,1.975251122e+00,-1.145100911e-02,2.675130208e-02
6.620000000e+03,-1.504390047e+01,1.518844223e+00,9.187825521e-04,1.766927083e-02
6.620500000e+03,-1.167384381e+01,-2.805869141e+00,-2.462402344e-02,-8.592122396e-03
6.621000000e+03,-8.668067888e+00,2.981967779e+00,-3.639485677e-02,5.859375000e-03
6.621500000e+03,-8.444474445e+00,-1.245868458e+00,1.207519531e-02,-3.584554036e-02
6.622000000e+03,-1.154660592e+01,3.243857866e-01,2.508463542e-02,8.435058594e-03
6.622500000e+03,-1.319551413e+01,2.343128322e+00,-1.527425130e-02,1.567871094e-02
6.623000000e+03,-1.560308535e+01,-1.113598401e+00,7.323404948e-03,-1.488606771e-02
6.623500000e+03,-1.512266503e+01,2.591175238e+00,-1.494384766e-02,9.170735677e-03
6.624000000e+03,-9.929594228e+00,2.254032892e+00,-2.012613932e-02,2.472412109e-02
6.624500000e+03,-1.026951019e+01,-2.068426999e+00,-1.463378906e-02,-2.693847656e-02
6.625000000e+03,-1.388330870e+01,8.613625472e-01,1.317301432e-02,1.534342448e-02
6.625500000e+03,-1.036390232e+01,1.244539578e+00,9.719238281e-03,2.872558594e-02
6.626000000e+03,-1.004950780e+01,-1.090179415e+00,1.453694661e-02,-2.788085938e-02
6.626500000e+03,-1.185637125e+01,-2.722737387e+00,-2.333007813e-02,-1.038655599e-02
6.627000000e+03,-1.013354321e+01,-1.116384448e-01,3.094645182e-02,-3.469238281e-03
6.627500000e+03,-1.045027018e+01,-1.708254723e-01,2.958821615e-02,-5.104166667e-03
6.628000000e+03,-1.155545429e+01,4.546307829e-01,2.375244141e-02,1.160970052e-02
6.628500000e+03,-1.045230623e+01,1.133861262e+00,1.270263672e-02,2.719807943e-02
6.629000000e+03,-1.067702384e+01,-1.811854659e+00,-6.983235677e-03,-2.840576172e-02
6.629500000e+03,-1.120047997e+01,-2.367289590e+00,-1.968912760e-02,-1.925699870e-02
6.630000000e+03,-1.010643509e+01,1.214495472e+00,1.089599609e-02,2.927571615e-02
6.630500000e+03,-1.544801335e+01,2.904619523e+00,-1.641682943e-02,3.964843750e-03
6.631000000e+03,-8.761448789e+00,-1.923685326e+00,-1.260416667e-02,-3.422200521e-02
6.631500000e+03,-1.229952127e+01,1.266629128e+00,7.268066406e-03,2.315348307e-02
6.632000000e+03,-8.802873607e+00,2.205131444e+00,-2.151041667e-02,2.923502604e-02
6.632500000e+03,-1.227770540e+01,-1.669266733e+00,-2.391764323e-03,-2.421061198e-02
6.633000000e+03,-8.830764553e+00,2.401941934e-01,3.514078776e-02,8.606770833e-03
6.633500000e+03,-1.132323199e+01,-1.761385672e+00,-5.144042969e-03,-2.666259766e-02
6.634000000e+03,-1.289615995e+01,2.082444219e+00,-1.109293620e-02,1.975504557e-02
6.634500000e+03,-1.194542945e+01,3.100210093e+00,-2.525553385e-02,1.045735677e-03
6.635000000e+03,-9.472646919e+00,1.808432547e+00,-7.910156250e-03,3.265787760e-02
6.635500000e+03,-9.340289955e+00,-2.161425280e+00,-1.899983724e-02,-2.833821615e-02
6.636000000e+03,-1.254086840e+01,-5.300475570e-01,2.036376953e-02,-1.193277995e-02
6.636500000e+03,-9.703675505e+00,-2.028281817e+00,-1.445231120e-02,-2.935546875e-02
6.637000000e+03,-8.358688977e+00,1.513735598e+00,2.178548177e-03,3.813802083e-02
6.637500000e+03,-1.313911885e+01,-3.459907083e-01,2.072591146e-02,-7.471516927e-03
6.638000000e+03,-8.093591332e+00,-2.253575951e+00,-2.484944661e-02,-3.055501302e-02
6.638500000e+03,-1.211377324e+01,7.780634451e-01,1.765869141e-02,1.740152995e-02
6.639000000e+03,-1.081685329e+01,-1.786052181e+00,-6.148274740e-03,-2.812011719e-02
6.639500000e+03,-1.146365102e+01,1.069218117e+00,1.284667969e-02,2.342773437e-02
6.640000000e+03,-9.500883807e+00,2.044256278e+00,-1.527180990e-02,2.980875651e-02
6.640500000e+03,-9.051751144e+00,-2.624913473e+00,-3.066650391e-02,-1.742350260e-02
6.641000000e+03,-1.157050739e+01,-1.984020714e+00,-1.059814453e-02,-2.417073568e-02
6.641500000e+03,-1.330451587e+01,2.119893631e+00,-1.128173828e-02,1.843831380e-02
6.642000000e+03,-9.803568206e+00,-1.222405784e+00,1.104248047e-02,-3.040283203e-02
6.642500000e+03,-1.271468175e+01,2.756304749e+00,-2.143880208e-02,8.694661458e-03
6.643000000e+03,-1.080814340e+01,1.932168592e+00,-1.018717448e-02,2.695231120e-02
6.643500000e+03,-1.240129770e+01,2.882533312e+00,-2.318440755e-02,6.144205729e-03
6.644000000e+03,-1.040369021e+01,-1.065952341e+00,1.460042318e-02,-2.642089844e-02
6.644500000e+03,-1.276625881e+01,-2.539604193e+00,-1.895507813e-02,-1.302327474e-02
6.645000000e+03,-1.132127954e+01,-2.630091980e-01,2.622639974e-02,-7.061360677e-03
6.645500000e+03,-1.159579218e+01,-3.027728662e+00,-2.614501953e-02,-2.989908854e-03
6.646000000e+03,-1.040775068e+01,-6.600354385e-01,2.383544922e-02,-1.850016276e-02
6.646500000e+03,-1.053917792e+01,-2.964014454e+00,-2.925211589e-02,-5.249837240e-03
6.647000000e+03,-1.306190833e+01,-1.152583149e+00,9.027506510e-03,-2.031250000e-02
6.647500000e+03,-9.397274870e+00,5.358654302e-01,2.914388021e-02,1.730631510e-02
6.648000000e+03,-1.372751489e+01,9.197375717e-01,1.247721354e-02,1.637695312e-02
6.648500000e+03,-9.195474157e+00,1.159553131e+00,1.386800130e-02,3.179931641e-02
6.649000000e+03,-1.110400390e+01,-1.969276247e+00,-1.080566406e-02,-2.566650391e-02
6.649500000e+03,-1.249922869e+01,1.230304547e+00,7.919921875e-03,2.235432943e-02
6.650000000e+03,-1.092308890e+01,-2.724295321e+00,-2.599446615e-02,-1.152425130e-02
6.650500000e+03,-1.244683659e+01,1.395885051e+00,4.152018229e-03,2.349527995e-02
6.651000000e+03,-1.452948532e+01,-1.538754902e+00,6.013997396e-04,-1.876302083e-02
6.651500000e+03,-1.347553170e+01,-1.923234896e+00,-7.316080729e-03,-1.989176432e-02
6.652000000e+03,-1.305397493e+01,7.636186099e-01,1.607096354e-02,1.538574219e-02
6.652500000e+03,-1.431064956e+01,-5.709666589e-01,1.619791667e-02,-1.040445964e-02
6.653000000e+03,-1.303425748e+01,1.158500818e+00,8.935546875e-03,2.043050130e-02
6.653500000e+03,-1.757417499e+01,-2.314792888e+00,-8.954264323e-03,-9.728190104e-03
6.654000000e+03,-1.400068255e+01,-2.093362580e+00,-9.957682292e-03,-1.728841146e-02
6.654500000e+03,-1.795988616e+01,2.223679037e+00,-7.683105469e-03,1.004638672e-02
6.655000000e+03,-1.084999507e+01,-9.082621709e-01,1.763834635e-02,-2.260823568e-02
6.655500000e+03,-1.208974543e+01,-7.145095806e-01,1.878011068e-02,-1.628987630e-02
6.656000000e+03,-1.678966335e+01,-2.752126523e+00,-1.338785807e-02,-5.494791667e-03
6.656500000e+03,-1.410854404e+01,-1.048658617e+00,9.827473958e-03,-1.707926432e-02
6.657000000e+03,-1.293899591e+01,1.848619991e+00,-6.183268229e-03,2.168050130e-02
6.657500000e+03,-1.729259234e+01,-3.121749022e+00,-1.365478516e-02,-2.709960938e-04
6.658000000e+03,-1.806990194e+01,-2.854592425e+00,-1.197753906e-02,-3.535156250e-03
6.658500000e+03,-2.077831253e+01,6.086915201e-01,7.500813802e-03,5.227864583e-03
6.659000000e+03,-2.235538268e+01,2.703102074e+00,-6.903483073e-03,3.237304687e-03
6.659500000e+03,-1.721831860e+01,1.634586054e+00,-8.780924479e-04,1.374674479e-02
6.660000000e+03,-1.476392019e+01,1.585894730e+00,-2.758789063e-04,1.827067057e-02
6.660500000e+03,-1.668114393e+01,1.150750649e+00,5.975748698e-03,1.337972005e-02
6.661000000e+03,-1.976146039e+01,-6.862531644e-01,7.951660156e-03,-6.512858073e-03
6.661500000e+03,-1.364325696e+01,2.337786227e+00,-1.442708333e-02,1.496826172e-02
6.662000000e+03,-3.256447660e+01,-2.615823032e-01,2.273763021e-03,-6.087239583e-04
6.662500000e+03,-2.640983507e+01,-9.163668774e-01,2.910156250e-03,-3.793131510e-03
6.663000000e+03,-2.570013568e+01,2.087082304e+00,-2.561035156e-03,4.511718750e-03
6.663500000e+03,-1.773285184e+01,-3.036591034e+00,-1.291097005e-02,-1.360677083e-03
6.664000000e+03,-4.669123026e+01,2.036023767e-01,4.532877604e-04,9.358723958e-05
6.664500000e+03,-2.320209365e+01,1.943393412e+00,-2.517903646e-03,6.442057292e-03
6.665000000e+03,-3.257027907e+01,-2.809995590e+00,-2.224121094e-03,-7.657877604e-04
6.665500000e+03,-2.241680591e+01,5.003332446e-01,6.643066406e-03,3.631998698e-03
6.666000000e+03,-3.007611333e+01,-3.019008709e+00,-3.111165365e-03,-3.833007813e-04
6.666500000e+03,-1.629447968e+01,-1.436321234e+00,2.054036458e-03,-1.518229167e-02
6.667000000e+03,-2.278274269e+01,-3.038264937e+00,-7.220052083e-03,-7.486979167e-04
6.667500000e+03,-1.869962055e+01,2.403278008e+00,-8.590494792e-03,7.817382813e-03
6.668000000e+03,-2.005223704e+01,-2.675967894e+00,-8.881835938e-03,-4.462890625e-03
6.668500000e+03,-1.940373598e+01,-2.447010032e+00,-8.229166667e-03,-6.855468750e-03
6.669000000e+03,-2.266921265e+01,2.795799689e+00,-6.918945312e-03,2.492675781e-03
6.669500000e+03,-1.774214091e+01,-5.801515581e-02,1.294677734e-02,-7.519531250e-04
6.670000000e+03,-2.045671135e+01,1.457302196e-01,9.387207031e-03,1.377766927e-03
6.670500000e+03,-2.789267513e+01,-9.662732437e-01,2.290852865e-03,-3.316243490e-03
6.671000000e+03,-1.681386234e+01,-2.013460234e+00,-6.181640625e-03,-1.304036458e-02
6.671500000e+03,-1.884207670e+01,1.947665587e+00,-4.204915365e-03,1.062418620e-02
6.672000000e+03,-2.436987728e+01,-1.809670737e+00,-1.430664062e-03,-5.874837240e-03
6.672500000e+03,-2.202614756e+01,2.987458905e+00,-7.825520833e-03,1.215820312e-03
6.673000000e+03,-2.508142031e+01,-2.273465007e+00,-3.600260417e-03,-4.251302083e-03
6.673500000e+03,-2.693957417e+01,-1.056071090e+00,2.214355469e-03,-3.915201823e-03
6.674000000e+03,-2.356356459e+01,1.960322549e+00,-2.519531250e-03,6.137695313e-03
6.674500000e+03,-2.837340888e+01,2.531985550e+00,-3.126627604e-03,2.183430990e-03
6.675000000e+03,-1.760727422e+01,3.107913504e+00,-1.316406250e-02,4.435221354e-04
6.675500000e+03,-3.604428805e+01,-9.237857361e-01,9.505208333e-04,-1.258138021e-03
6.676000000e+03,-1.966349675e+01,4.826949253e-01,9.207356771e-03,4.825032552e-03
6.676500000e+03,-1.977431550e+01,2.878650930e+00,-9.910481771e-03,2.667643229e-03
6.677000000e+03,-1.739406485e+01,-2.625402158e-01,1.303629557e-02,-3.503417969e-03
6.677500000e+03,-1.790971728e+01,7.988790695e-01,8.872884115e-03,9.115397135e-03
6.678000000e+03,-1.867094742e+01,7.045738780e-01,8.878580729e-03,7.548014323e-03
6.678500000e+03,-1.612759816e+01,1.798220072e+00,-3.521321615e-03,1.521565755e-02
6.679000000e+03,-1.765200181e+01,1.397908530e+00,2.254231771e-03,1.290852865e-02
6.679500000e+03,-1.393397218e+01,5.919094476e-01,1.668457031e-02,1.121744792e-02
6.680000000e+03,-1.271844197e+01,2.586488654e+00,-1.965250651e-02,1.218750000e-02
6.680500000e+03,-1.444904051e+01,-2.537281256e+00,-1.559163411e-02,-1.076578776e-02
6.681000000e+03,-2.199173988e+01,1.651744542e+00,-6.429036458e-04,7.924804688e-03
6.681500000e+03,-1.716540372e+01,3.047796147e+00,-1.379801432e-02,1.298014323e-03
6.682000000e+03,-1.445874294e+01,-8.190625419e-01,1.292480469e-02,-1.382568359e-02
6.682500000e+03,-1.698972292e+01,3.006295599e+00,-1.401285807e-02,1.907552083e-03
6.683000000e+03,-1.766268888e+01,2.149932357e-01,1.278645833e-02,2.792154948e-03
6.683500000e+03,-1.685254327e+01,5.877355347e-01,1.195638021e-02,7.966308594e-03
6.684000000e+03,-1.490293618e+01,3.105924230e+00,-1.797119141e-02,6.412760417e-04
6.684500000e+03,-1.200170634e+01,2.043849183e+00,-1.144205729e-02,2.235595703e-02
6.685000000e+03,-1.703784501e+01,-1.973697446e+00,-5.514322917e-03,-1.293782552e-02
6.685500000e+03,-1.128376416e+01,-6.959851165e-02,2.721191406e-02,-1.896972656e-03
6.686000000e+03,-1.254120617e+01,-1.274999804e+00,6.879882813e-03,-2.257649740e-02
6.686500000e+03,-1.171016883e+01,-2.709480328e+00,-2.358398438e-02,-1.087646484e-02
6.687000000e+03,-1.074941804e+01,1.326668166e+00,7.011718750e-03,2.814860026e-02
6.687500000e+03,-9.506088026e+00,-1.833082258e+00,-8.679199219e-03,-3.232828776e-02
6.688000000e+03,-9.747284818e+00,9.945520958e-01,1.773925781e-02,2.729899089e-02
6.688500000e+03,-1.186090296e+01,7.791531764e-01,1.816080729e-02,1.793538411e-02
6.689000000e+03,-1.157051152e+01,-2.859519140e+00,-2.534912109e-02,-7.346191406e-03
6.689500000e+03,-1.608580500e+01,7.477673233e-01,1.150634766e-02,1.067138672e-02
6.690000000e+03,-1.116115629e+01,-1.723318179e+00,-4.203287760e-03,-2.734456380e-02
6.690500000e+03,-1.019600143e+01,-1.757046534e+00,-5.725097656e-03,-3.038248698e-02
6.691000000e+03,-8.214159345e+00,-2.680970180e-01,3.745361328e-02,-1.028889974e-02
6.691500000e+03,-1.052600395e+01,2.902390426e-01,2.851969401e-02,8.518066406e-03
6.692000000e+03,-9.623946815e+00,8.893517779e-02,3.289143880e-02,2.932942708e-03
6.692500000e+03,-8.907383604e+00,-9.257657231e-01,2.156087240e-02,-2.865641276e-02
6.693000000e+03,-7.400531409e+00,1.818972410e+00,-1.047770182e-02,4.134847005e-02
6.693500000e+03,-9.539897162e+00,1.503797928e+00,2.232259115e-03,3.326822917e-02
6.694000000e+03,-7.228583841e+00,2.112450834e+00,-2.243082682e-02,3.728027344e-02
6.694500000e+03,-8.214423169e+00,-1.789951617e+00,-8.444010417e-03,-3.791097005e-02
6.695000000e+03,-8.699124165e+00,-2.214222108e+00,-2.203694661e-02,-2.938720703e-02
6.695500000e+03,-8.002755749e+00,2.969173681e-01,3.805664062e-02,1.164388021e-02
6.696000000e+03,-8.386489610e+00,1.425196781e-01,3.769205729e-02,5.408528646e-03
6.696500000e+03,-8.434963168e+00,-6.329313868e-01,3.053141276e-02,-2.239827474e-02
6.697000000e+03,-6.651839693e+00,2.658194855e+00,-4.116780599e-02,2.161051432e-02
6.697500000e+03,-6.557137617e+00,-2.323207930e+00,-3.212320964e-02,-3.431559245e-02
6.698000000e+03,-5.561690580e+00,-1.135135413e+00,2.224527995e-02,-4.778889974e-02
6.698500000e+03,-6.678414554e+00,2.485727897e+00,-3.673583984e-02,2.826822917e-02
6.699000000e+03,-6.172422921e+00,-2.586464321e+00,-4.175537109e-02,-2.589599609e-02
6.699500000e+03,-5.209588874e+00,-2.487651505e+00,-4.356852214e-02,-3.339274089e-02
6.700000000e+03,-5.299099664e+00,-1.596187932e+00,-1.379394531e-03,-5.431315104e-02
6.700500000e+03,-5.663957476e+00,1.798903031e+00,-1.178059896e-02,5.074625651e-02
6.701000000e+03,-6.062870946e+00,1.683182041e+00,-5.580240885e-03,4.944335937e-02
6.701500000e+03,-4.696949531e+00,2.412364495e+00,-4.342203776e-02,3.879882812e-02
6.702000000e+03,-5.344357822e+00,-2.419201722e+00,-4.054850260e-02,-3.573567708e-02
6.702500000e+03,-6.099703214e+00,6.020885531e-01,4.083414714e-02,2.806152344e-02
6.703000000e+03,-4.877674499e+00,-2.444464664e+00,-4.372558594e-02,-3.661539714e-02
6.703500000e+03,-3.881077540e+00,2.267655497e+00,-4.105387370e-02,4.905273437e-02
6.704000000e+03,-6.050838689e+00,-9.510518817e-01,2.894042969e-02,-4.055989583e-02
6.704500000e+03,-4.277784554e+00,2.903819868e+00,-5.939046224e-02,1.439371745e-02
6.705000000e+03,-4.310752349e+00,2.466880939e+00,-4.753906250e-02,3.802897135e-02
6.705500000e+03,-4.903996149e+00,-2.238680228e-01,5.544026693e-02,-1.262288411e-02
6.706000000e+03,-5.017586928e+00,4.908103267e-01,4.949544271e-02,2.645182292e-02
6.706500000e+03,-4.851336690e+00,-3.000876895e-01,5.464843750e-02,-1.690999349e-02
6.707000000e+03,-4.727056866e+00,-2.645696544e+00,-5.103922526e-02,-2.761149089e-02
6.707500000e+03,-5.379618219e+00,-5.111483850e-01,4.694905599e-02,-2.633219401e-02
6.708000000e+03,-4.002767335e+00,2.931990666e+00,-6.169514974e-02,1.312418620e-02
6.708500000e+03,-5.503628145e+00,1.087848320e+00,2.464355469e-02,4.699707031e-02
6.709000000e+03,-5.260709862e+00,-9.871903265e-01,3.007080078e-02,-4.553873698e-02
6.709500000e+03,-5.468097509e+00,-2.268995852e+00,-3.425292969e-02,-4.081542969e-02
6.710000000e+03,-4.633892683e+00,-1.937783886e+00,-2.104573568e-02,-5.474934896e-02
6.710500000e+03,-6.428769269e+00,-2.821929801e+00,-4.528808594e-02,-1.499104818e-02
6.711000000e+03,-5.615421669e+00,2.381219481e+00,-3.795898437e-02,3.610514323e-02
6.711500000e+03,-5.095535017e+00,2.834343494e+00,-5.301432292e-02,1.682128906e-02
6.712000000e+03,-4.044573156e+00,1.525842752e-01,6.204345703e-02,9.541015625e-03
6.712500000e+03,-4.611862169e+00,-1.030645022e+00,3.024088542e-02,-5.043212891e-02
6.713000000e+03,-4.487913338e+00,3.010502558e+00,-5.913736979e-02,7.797037760e-03
6.713500000e+03,-4.011701860e+00,-4.594831805e-01,5.647542318e-02,-2.794433594e-02
6.714000000e+03,-5.619824031e+00,-1.079857105e+00,2.468587240e-02,-4.617675781e-02
6.714500000e+03,-4.598307033e+00,2.324825870e+00,-4.031901042e-02,4.293131510e-02
6.715000000e+03,-4.346454441e+00,4.603400400e-01,5.431722005e-02,2.693440755e-02
6.715500000e+03,-4.767782757e+00,-1.097721990e+00,2.631591797e-02,-5.141438802e-02
6.716000000e+03,-5.055455446e+00,3.063039089e+00,-5.570393880e-02,4.384765625e-03
6.716500000e+03,-6.731881405e+00,-2.486481867e+00,-3.653157552e-02,-2.806722005e-02
6.717000000e+03,-5.304875371e+00,3.711264420e-01,5.059814453e-02,1.969075521e-02
6.717500000e+03,-7.224821033e+00,-6.512452682e-01,3.461832682e-02,-2.638509115e-02
6.718000000e+03,-6.591824984e+00,-2.351548392e+00,-3.295084635e-02,-3.325846354e-02
6.718500000e+03,-4.929268250e+00,5.759260128e-02,5.659993490e-02,3.263346354e-03
6.719000000e+03,-5.098140547e+00,5.327310707e-01,4.789713542e-02,2.823974609e-02
6.719500000e+03,-6.074176415e+00,-2.580014475e+00,-4.206054688e-02,-2.646240234e-02
6.720000000e+03,-5.214422048e+00,-5.098344816e-01,4.788574219e-02,-2.677490234e-02
6.720500000e+03,-7.041100766e+00,-1.426675541e+00,6.385091146e-03,-4.399658203e-02
6.721000000e+03,-5.181650520e+00,2.650594816e+00,-4.856445312e-02,2.596598307e-02
6.721500000e+03,-8.816531188e+00,8.206892123e-01,2.470458984e-02,2.651285807e-02
6.722000000e+03,-7.708514528e+00,-2.556857582e+00,-3.432942708e-02,-2.272460937e-02
6.722500000e+03,-8.119250993e+00,3.107909183e+00,-3.924560547e-02,1.322428385e-03
6.723000000e+03,-8.235893462e+00,1.579303274e+00,-3.295898437e-04,3.874267578e-02
6.723500000e+03,-8.377835717e+00,5.827382788e-01,3.182535807e-02,2.097574870e-02
6.724000000e+03,-8.098284939e+00,1.489186585e+00,3.208821615e-03,3.923177083e-02
6.724500000e+03,-8.010489840e+00,2.103988729e+00,-2.021077474e-02,3.424316406e-02
6.725000000e+03,-7.169600992e+00,2.855351448e+00,-4.202229818e-02,1.236816406e-02
6.725500000e+03,-5.790105905e+00,-5.365297174e-01,4.413004557e-02,-2.624511719e-02
6.726000000e+03,-6.655543391e+00,-2.654050734e+00,-4.106038411e-02,-2.177164714e-02
6.726500000e+03,-7.240429906e+00,-1.240670580e+00,1.408447266e-02,-4.110270182e-02
6.727000000e+03,-6.883963139e+00,1.301176469e+00,1.205810547e-02,4.363362630e-02
6.727500000e+03,-6.005228626e+00,-7.833417114e-01,3.549072266e-02,-3.534505208e-02
6.728000000e+03,-4.875215042e+00,-1.269617702e+00,1.692301432e-02,-5.447998047e-02
6.728500000e+03,-6.476045261e+00,2.926425030e+00,-4.635172526e-02,1.013020833e-02
6.729000000e+03,-5.855213900e+00,7.723218467e-01,3.650309245e-02,3.556070964e-02
6.729500000e+03,-7.186267850e+00,-2.802347534e+00,-4.122884115e-02,-1.454915365e-02
6.730000000e+03,-5.691440422e+00,1.570498582e+00,1.546223958e-05,5.193115234e-02
6.730500000e+03,-5.864667782e+00,-1.632735480e+00,-3.151041667e-03,-5.080810547e-02
6.731000000e+03,-6.919495266e+00,-2.805262083e-01,4.332194010e-02,-1.248209635e-02
6.731500000e+03,-6.305461627e+00,-6.355020598e-01,3.894042969e-02,-2.872151693e-02
6.732000000e+03,-6.262100741e+00,1.910874272e+00,-1.622070312e-02,4.584391276e-02
6.732500000e+03,-6.452562604e+00,1.717180911e+00,-6.939290365e-03,4.706542969e-02
6.733000000e+03,-6.186032080e+00,-1.192018112e+00,1.814046224e-02,-4.557942708e-02
6.733500000e+03,-5.103366438e+00,2.126928941e+00,-2.933512370e-02,4.719482422e-02
6.734000000e+03,-6.777406108e+00,2.091001884e+00,-2.277913411e-02,3.976562500e-02
6.734500000e+03,-7.178796213e+00,-1.520257742e-01,4.325358073e-02,-6.626790365e-03
6.735000000e+03,-7.082675565e+00,-2.517281435e-01,4.285074870e-02,-1.102050781e-02
6.735500000e+03,-5.889954874e+00,-3.402872988e-02,5.072835286e-02,-1.726888021e-03
6.736000000e+03,-6.953222750e+00,-1.167429731e+00,1.762776693e-02,-4.130533854e-02
6.736500000e+03,-5.253546657e+00,-4.311433432e-01,4.961832682e-02,-2.282470703e-02
6.737000000e+03,-6.556103060e+00,1.493946101e+00,3.609212240e-03,4.687174479e-02
6.737500000e+03,-7.244876974e+00,5.492094443e-01,3.704020182e-02,2.266927083e-02
6.738000000e+03,-5.658479531e+00,2.694953152e+00,-4.701497396e-02,2.251627604e-02
6.738500000e+03,-7.261238755e+00,1.317971705e+00,1.084228516e-02,4.196695964e-02
6.739000000e+03,-7.180289494e+00,9.380764915e-01,2.587158203e-02,3.528157552e-02
6.739500000e+03,-6.552224853e+00,7.571308288e-01,3.418294271e-02,3.230305990e-02
6.740000000e+03,-5.919452045e+00,-8.082879795e-01,3.494140625e-02,-3.657877604e-02
6.740500000e+03,-7.743461144e+00,2.675610446e-01,3.954508464e-02,1.084065755e-02
6.741000000e+03,-6.608156462e+00,-9.894689529e-01,2.566080729e-02,-3.905354818e-02
6.741500000e+03,-6.909576216e+00,1.409503988e+00,7.248535156e-03,4.454996745e-02
6.742000000e+03,-6.231297439e+00,-1.867801965e+00,-1.428222656e-02,-4.666503906e-02
6.742500000e+03,-6.048221009e+00,2.236818754e+00,-3.079508464e-02,3.918945313e-02
6.743000000e+03,-4.625192522e+00,2.527477230e+00,-4.798583984e-02,3.383300781e-02
6.743500000e+03,-6.558449180e+00,1.300787908e-01,4.660074870e-02,6.096191406e-03
6.744000000e+03,-6.193267137e+00,-1.422655913e+00,7.234700521e-03,-4.847900391e-02
6.744500000e+03,-6.362464373e+00,3.066881368e+00,-4.793619792e-02,3.588053385e-03
6.745000000e+03,-7.276928015e+00,-2.216234762e+00,-2.602701823e-02,-3.456298828e-02
6.745500000e+03,-7.462220225e+00,-3.939190754e-01,3.910970052e-02,-1.625569661e-02
6.746000000e+03,-8.912762311e+00,-2.881116052e+00,-3.463053385e-02,-9.230143229e-03
6.746500000e+03,-9.079222506e+00,2.497286057e+00,-2.811035156e-02,2.111816406e-02
6.747000000e+03,-7.787353085e+00,-2.544865320e+00,-3.374674479e-02,-2.292561849e-02
6.747500000e+03,-7.829060653e+00,1.830626635e+00,-1.043131510e-02,3.923909505e-02
6.748000000e+03,-8.151072792e+00,2.524931490e+00,-3.191813151e-02,2.262613932e-02
6.748500000e+03,-7.966653045e+00,-1.804553657e+00,-9.256998698e-03,-3.887695313e-02
6.749000000e+03,-9.892545427e+00,-2.672663946e-01,3.087972005e-02,-8.455403646e-03
6.749500000e+03,-7.842953945e+00,-2.962524873e-01,3.877115885e-02,-1.183430990e-02
